1261 128
</s> 0.003127 0.003453 -0.002992 -0.002561 0.001068 0.002360 0.000735 0.000165 -0.002815 0.001733 -0.003403 0.000976 -0.000587 -0.000748 -0.002590 -0.001470 0.002015 0.002364 0.002320 0.001248 0.001207 -0.002971 -0.003200 0.003883 0.002970 0.002414 -0.000472 0.003137 -0.000387 0.000574 -0.000117 -0.002331 0.001025 -0.001045 -0.002989 0.003714 0.003421 -0.000856 -0.000177 0.000398 -0.002842 -0.003131 0.003558 0.000049 -0.002017 -0.002377 -0.002403 0.001326 0.000157 0.001040 -0.003292 -0.002975 -0.000102 0.000893 0.001992 -0.002477 0.003187 0.000724 0.000875 -0.000475 0.002333 -0.001787 -0.001639 0.001686 -0.000588 0.000805 0.001410 -0.003194 -0.001549 0.002276 0.003306 0.003072 -0.002380 -0.001647 -0.000710 0.001564 -0.002960 0.002342 0.002178 -0.001249 -0.001212 -0.001749 0.003304 0.003056 -0.000922 0.003293 0.003766 0.001418 0.003893 -0.002431 -0.001197 -0.001646 -0.002271 0.002199 0.001234 0.000332 -0.001714 0.001191 0.002390 0.000151 0.001781 -0.003869 0.003371 0.000375 -0.001431 -0.001628 -0.000584 -0.002293 -0.003414 -0.002216 0.003341 -0.001383 -0.002093 0.001810 -0.001331 0.003716 -0.001254 -0.003585 0.002122 -0.000058 -0.002726 0.000762 0.001127 -0.000376 0.001425 -0.003092 0.000688 0.001419 
vinternationalacmsigirconferenceonresearchanddevelopmentininformationretrieval -0.695249 -0.378642 -0.805497 0.163151 0.336588 0.279209 -0.885025 0.027138 0.185102 -0.061796 0.201441 0.218031 0.408275 -0.328130 -0.035440 0.405569 -0.528962 0.236460 0.412589 0.292140 0.304768 0.035481 -0.259907 0.010375 0.256101 0.361180 0.275795 0.362355 0.047369 0.070545 -0.437508 0.109230 0.067432 0.335290 0.375441 0.540000 -0.158201 -0.241651 0.330453 0.022472 0.069275 -0.435867 0.209786 0.549399 0.520966 -0.117225 0.002850 -0.063715 0.275184 0.433891 -0.507118 0.083183 -0.013897 0.111615 -0.152162 0.309950 0.318373 0.195672 0.151611 0.376791 0.096835 -0.064542 0.243249 -0.320095 0.195747 0.853852 -0.240633 0.298660 0.410612 0.391624 -0.376690 0.301794 0.458960 0.318867 -0.173873 -0.314335 0.304162 0.103206 0.464002 0.371092 -0.768114 -0.010375 -0.012602 0.230027 0.071308 0.473712 -0.311411 -0.561062 0.588638 -0.117807 -0.111391 0.488898 -0.152125 -0.597426 0.148048 0.468910 -0.126047 -0.042479 -0.270390 0.018031 -0.183765 0.587173 -0.181442 0.087117 0.574674 0.228962 0.108913 0.239888 -0.466038 0.057481 0.083510 -0.388233 0.148306 0.261540 -0.043961 0.370675 0.016655 0.254157 -0.377220 0.429180 -0.133869 0.071644 -0.239674 0.085196 0.243959 0.164698 0.242468 -0.431840 
vknowledgediscoveryanddatamining -0.429134 -0.336153 -0.564901 0.065677 0.297997 0.295889 -0.764271 0.064506 0.426082 0.143546 0.565303 0.432132 0.429900 -0.024110 0.103415 0.437420 -0.430756 -0.053231 0.581821 -0.128688 0.141488 0.001242 -0.157289 0.001857 0.384806 0.415178 0.239594 0.113252 0.353714 0.346809 -0.171628 0.239639 0.058471 0.291045 0.086442 0.443383 -0.161094 -0.316410 0.254957 0.052369 -0.015207 -0.349013 0.294599 0.711442 0.414708 0.100030 0.068813 -0.089040 0.337261 0.455781 -0.569527 0.059030 -0.009529 0.053727 -0.088548 0.274363 0.307445 0.192426 0.178443 0.468762 0.288362 0.002331 0.422925 -0.526291 0.167584 0.790918 -0.206418 0.195050 0.318822 0.331161 -0.326597 0.309602 0.387443 0.351106 -0.267403 -0.085012 0.219060 0.096982 0.287341 0.512062 -0.713978 -0.132935 0.051808 0.276942 -0.061894 0.489211 -0.285277 -0.602141 0.742104 -0.310595 -0.357361 0.295884 -0.150387 -0.888478 0.120853 0.299466 -0.295496 -0.052846 -0.294755 -0.005598 -0.046984 0.359541 -0.196004 -0.001753 0.518062 0.199469 0.079008 0.138841 -0.517216 0.201763 0.231212 -0.449252 0.240967 0.218345 0.015706 0.530654 -0.078373 0.307223 -0.172325 0.355776 -0.077071 0.045494 -0.252807 0.027710 0.156239 0.172599 0.267761 -0.290739 
vinternationalconferenceondataengineering -0.194384 -0.129261 -0.214901 0.058880 0.349696 0.306533 -0.460557 0.125120 0.222045 0.041930 0.276973 0.429387 0.465324 -0.028027 0.093629 0.301939 -0.228524 -0.181430 0.381358 0.241859 0.217560 -0.152128 -0.193851 -0.164006 0.360968 0.130492 0.123548 -0.066007 0.171428 0.157083 -0.093175 0.365415 0.133094 0.365567 0.280966 0.533312 -0.051679 -0.250539 0.413853 -0.038410 0.016224 -0.348989 0.210260 0.575917 0.515258 -0.001849 -0.054096 -0.174832 0.354065 0.546510 -0.625382 0.223771 -0.080054 -0.014288 0.051499 0.264970 0.262044 0.203497 0.205234 0.466697 0.223579 0.048206 0.231280 -0.375553 0.234108 0.796514 -0.230108 0.166510 0.351509 0.423562 -0.360885 0.381161 0.455030 0.382760 -0.371300 -0.196141 0.352195 0.147553 0.355725 0.628754 -0.670268 -0.142786 -0.039954 0.314296 -0.152929 0.481509 -0.297679 -0.711377 0.694846 -0.403406 -0.439112 0.488894 -0.187033 -0.824096 0.200241 0.319888 -0.236659 -0.197015 -0.347662 0.012922 -0.077204 0.484330 -0.308094 0.042563 0.560560 0.171356 0.101750 0.234270 -0.570367 0.143093 0.198890 -0.452313 0.191488 0.332306 0.062848 0.525822 -0.044225 0.324428 -0.311350 0.375706 -0.033855 0.079962 -0.385961 0.144547 0.128986 0.210837 0.315397 -0.404992 
vverylargedatabases -0.256609 -0.109644 -0.295836 0.164159 0.311275 0.336990 -0.456944 0.156570 0.170533 0.014365 0.403820 0.444697 0.547842 -0.005121 0.103996 0.249710 -0.268837 -0.250109 0.328086 0.374978 0.265826 -0.201376 -0.290501 -0.146164 0.322134 0.238146 0.148698 -0.096217 0.184815 0.144868 -0.017040 0.415870 0.133031 0.366937 0.236572 0.548982 -0.016923 -0.274469 0.370286 0.006769 -0.022096 -0.304211 0.191000 0.548013 0.451545 -0.065826 -0.099265 -0.157459 0.287441 0.459479 -0.691376 0.260011 -0.059673 0.080881 0.159164 0.277624 0.253941 0.277522 0.237965 0.413567 0.264743 0.069359 0.217639 -0.434319 0.249306 0.851761 -0.235374 0.150481 0.319285 0.339964 -0.258275 0.391118 0.343325 0.345431 -0.308112 -0.204424 0.388652 0.137259 0.421618 0.462267 -0.674912 -0.058696 -0.073480 0.235811 -0.089899 0.455532 -0.297024 -0.651197 0.630881 -0.292526 -0.250777 0.507819 -0.223571 -0.736582 0.213153 0.287770 -0.232199 -0.078384 -0.394119 -0.037568 -0.159640 0.461493 -0.335702 0.125792 0.695748 0.228536 0.164246 0.215772 -0.655570 0.251626 0.285780 -0.503577 0.177000 0.260451 0.047059 0.616840 -0.113073 0.439428 -0.281649 0.386878 -0.092907 0.059436 -0.391759 0.190631 0.153977 0.161957 0.299930 -0.408766 
vinternationalconferenceondatamining -0.512750 -0.198380 -0.487525 0.123431 0.216436 0.270738 -0.835568 0.052172 0.350697 -0.057429 0.476703 0.375633 0.375389 -0.101994 0.020757 0.584469 -0.300274 0.075341 0.565554 -0.120655 0.065284 -0.021108 -0.161146 -0.020739 0.368860 0.377311 0.211559 0.184492 0.327091 0.328162 -0.232788 0.298993 -0.033394 0.239948 0.129584 0.574094 -0.190085 -0.274116 0.353619 0.137432 -0.077598 -0.270819 0.292441 0.576263 0.453274 -0.013503 0.109719 -0.155757 0.423342 0.637785 -0.677675 0.166488 -0.026373 0.078084 -0.157332 0.173608 0.317534 0.173882 0.211109 0.645904 0.455027 0.167844 0.510967 -0.461208 0.119249 0.825080 -0.226338 0.033236 0.348907 0.377513 -0.182419 0.271403 0.368537 0.317597 -0.296276 -0.072469 0.134350 -0.006228 0.336490 0.391465 -0.647932 -0.124164 -0.174449 0.314073 -0.102694 0.576535 -0.313116 -0.700892 0.785089 -0.327492 -0.322283 0.320125 -0.098621 -0.909979 0.116040 0.309689 -0.197056 -0.152512 -0.278432 -0.014507 -0.150337 0.340477 -0.255338 0.062386 0.653507 0.283161 0.135765 0.185132 -0.533278 0.180581 0.177076 -0.415648 0.153039 0.082317 0.124120 0.397196 -0.064524 0.158303 -0.253566 0.282106 -0.002251 -0.008059 -0.180684 0.002105 0.052306 0.083130 0.179197 -0.266017 
vinternationalworldwidewebconferences -0.466418 -0.244237 -0.613137 0.080506 0.234524 0.270121 -0.906678 0.027167 0.251303 0.053195 0.336679 0.309113 0.395817 -0.141802 0.172278 0.360850 -0.487715 0.117796 0.536400 0.256208 0.285163 -0.070561 -0.340400 -0.040879 0.332831 0.210291 0.190152 0.033288 0.108042 0.140550 -0.307659 0.205545 0.192356 0.427453 0.396987 0.660012 -0.017578 -0.339986 0.475164 -0.096756 0.163333 -0.451494 0.271012 0.600125 0.686593 -0.118475 -0.084294 -0.128947 0.479883 0.455179 -0.783295 0.129850 -0.128685 -0.000761 0.057250 0.400354 0.278029 0.203132 0.143685 0.333509 0.255597 -0.028093 0.257965 -0.541984 0.250965 0.788904 -0.135989 0.255174 0.259476 0.272710 -0.318434 0.360386 0.319410 0.275946 -0.249698 -0.264066 0.321199 0.156483 0.313058 0.429788 -0.651299 -0.032991 0.037081 0.264812 0.036550 0.468901 -0.327627 -0.559368 0.649947 -0.260183 -0.277316 0.373719 0.033851 -0.620587 0.178987 0.287869 -0.115429 -0.027143 -0.381049 0.058310 -0.000282 0.486955 -0.164030 -0.012030 0.533054 0.030631 0.156797 0.211741 -0.495570 0.154088 0.104520 -0.353374 0.141768 0.217256 0.031509 0.483397 -0.141203 0.375558 -0.169103 0.389715 -0.143320 -0.073023 -0.290986 -0.029750 0.344231 0.252995 0.227115 -0.299153 
vSigmodRecord 0.107944 0.100172 0.027640 0.023403 -0.041720 -0.114133 0.002855 -0.013394 -0.008379 0.041728 0.112729 -0.070440 -0.018784 0.091170 0.015405 0.007333 -0.008848 0.015847 -0.042299 -0.091904 -0.030065 0.108815 -0.202319 0.058444 -0.068759 0.360465 0.106717 -0.148843 0.062247 0.040555 -0.015988 0.132471 -0.055126 -0.095557 0.035301 -0.005074 0.033818 0.097978 0.003979 -0.081642 0.036356 -0.005637 -0.037212 -0.158487 0.014634 -0.096649 -0.039577 -0.003916 0.010636 0.053926 -0.020766 -0.009571 -0.200408 -0.003702 -0.002949 -0.002303 -0.144399 -0.036763 -0.013265 -0.010005 0.307574 -0.036519 0.076374 0.051748 -0.108097 -0.000752 -0.014836 -0.061233 0.086618 0.139668 0.025975 0.035782 -0.042957 0.026362 0.106758 -0.119868 -0.053038 -0.011254 0.089063 0.112157 0.005246 -0.040128 0.503917 -0.023920 0.113625 0.047841 0.013776 -0.040604 0.366023 0.016620 -0.114209 0.124026 -0.107736 0.063032 -0.039756 0.071176 0.028282 0.171577 -0.027161 -0.053311 -0.152220 0.356817 0.090722 -0.056083 -0.007723 0.026704 -0.023096 0.011003 0.022949 0.028055 -0.095912 0.124719 0.036379 -0.054331 -0.108075 -0.061044 0.005747 -0.005826 -0.073488 -0.043555 0.082040 0.161128 -0.079352 -0.016109 -0.053674 -0.007460 -0.053277 -0.045433 
vextendingdatabasetechnology -0.291918 -0.240462 -0.281241 0.121483 0.230506 0.272711 -0.452465 0.115020 0.065576 0.015412 0.331030 0.481722 0.409683 0.026461 0.265081 0.242588 -0.246001 -0.216323 0.392863 0.246932 0.358182 -0.048408 -0.195498 -0.112063 0.283325 0.113934 0.145880 -0.026869 0.069464 0.224009 0.077506 0.469755 0.004918 0.423517 0.282432 0.630171 -0.014866 -0.414942 0.292100 -0.032023 -0.143194 -0.337883 0.147521 0.583156 0.342032 -0.132843 -0.103647 -0.188689 0.337130 0.339804 -0.760269 0.160030 0.006299 0.053112 0.085049 0.288328 0.165117 0.278047 0.317599 0.424807 0.161680 -0.024703 0.300033 -0.550673 0.154002 0.748688 -0.341214 0.161679 0.325317 0.572708 -0.482957 0.452591 0.459257 0.169927 -0.244193 -0.216931 0.278650 -0.011672 0.451625 0.485337 -0.575782 -0.095735 0.013643 0.231479 -0.246561 0.517587 -0.303844 -0.700333 0.612236 -0.363394 -0.385193 0.530596 -0.430677 -0.822095 0.343560 0.359214 -0.128380 -0.135755 -0.332356 -0.047738 -0.215959 0.405058 -0.368419 0.101207 0.606003 0.203901 0.146885 0.195252 -0.533036 0.335623 0.236155 -0.480806 0.248093 0.216151 0.266354 0.414040 -0.071625 0.333759 -0.435767 0.294726 -0.219868 0.163738 -0.452445 0.285648 0.310982 0.321802 0.167223 -0.437203 
aJ.ChristopherBeck 0.525307 0.303896 0.524895 -0.085802 -0.295559 -0.385188 0.787511 0.005190 -0.310768 -0.037246 -0.309191 -0.446383 -0.502532 0.200253 -0.073201 -0.455235 0.355105 -0.033098 -0.664775 -0.236070 -0.372823 0.138133 0.125434 0.109860 -0.425716 -0.169872 -0.220620 -0.234891 -0.160167 -0.180983 0.213486 -0.214610 -0.121839 -0.390924 -0.250853 -0.587298 0.170150 0.348094 -0.406956 -0.053952 -0.019504 0.424849 -0.216417 -0.754004 -0.521999 0.094191 -0.046491 0.140204 -0.388576 -0.503684 0.673077 -0.104379 -0.177659 -0.009893 0.108641 -0.306364 -0.310044 -0.204019 -0.292454 -0.418909 -0.037011 -0.019404 -0.273522 0.498532 -0.287217 -0.896520 0.220826 -0.202652 -0.355279 -0.383871 0.383820 -0.486980 -0.477986 -0.324214 0.401043 0.156778 -0.345800 -0.074553 -0.385677 -0.437074 0.816406 0.090464 0.278727 -0.271360 0.123549 -0.633044 0.389858 0.767384 -0.659653 0.238529 0.186382 -0.437249 0.098740 0.923885 -0.244254 -0.386448 0.218707 0.188459 0.358897 -0.083451 0.150731 -0.388322 0.336820 -0.138282 -0.701084 -0.162406 -0.078156 -0.198717 0.590953 -0.252679 -0.178994 0.566674 -0.199964 -0.301232 -0.149831 -0.576799 0.002089 -0.356765 0.315055 -0.405365 0.129404 0.094802 0.390417 -0.138925 -0.310406 -0.203811 -0.280848 0.392443 
aJussiRintanen 0.545047 0.295145 0.596177 -0.126244 -0.318577 -0.409263 0.740386 -0.019117 -0.263357 -0.058782 -0.297643 -0.400903 -0.458759 0.177324 -0.020516 -0.460359 0.390390 -0.007070 -0.613899 -0.163784 -0.313475 0.127420 0.178042 0.056874 -0.356531 -0.198449 -0.174471 -0.204681 -0.196981 -0.269829 0.236048 -0.229614 -0.176860 -0.427999 -0.328297 -0.656833 0.165509 0.341890 -0.468230 -0.007133 -0.077123 0.406815 -0.194604 -0.838983 -0.546023 0.053272 -0.064691 0.087641 -0.449474 -0.518459 0.707874 -0.089244 -0.184452 -0.010414 0.081683 -0.260020 -0.348582 -0.252458 -0.238094 -0.501033 -0.079236 -0.011885 -0.330214 0.530092 -0.259994 -0.899200 0.246816 -0.162620 -0.356106 -0.404574 0.329543 -0.433553 -0.422389 -0.319595 0.401066 0.140375 -0.328301 -0.105311 -0.384369 -0.456404 0.797855 0.061409 0.197066 -0.302444 0.166710 -0.627823 0.364250 0.709342 -0.661749 0.193051 0.247085 -0.410026 0.163858 0.873713 -0.187940 -0.366078 0.198449 0.214404 0.296389 -0.044123 0.095286 -0.365033 0.334680 -0.092232 -0.683438 -0.142345 -0.066215 -0.171889 0.618070 -0.220255 -0.193636 0.535497 -0.145577 -0.279616 -0.113979 -0.513519 0.038304 -0.411793 0.296730 -0.438707 0.142212 0.048863 0.383139 -0.188019 -0.224767 -0.261413 -0.319123 0.407300 
aZohraBellahsene 0.547093 0.340650 0.582991 -0.108172 -0.367019 -0.433335 0.828127 0.030208 -0.280005 0.020118 -0.370492 -0.461521 -0.501040 0.205245 -0.097575 -0.452531 0.386761 0.010266 -0.659129 -0.168593 -0.362148 0.139154 0.165011 0.117775 -0.432482 -0.204965 -0.212599 -0.216123 -0.159747 -0.203682 0.175231 -0.244054 -0.133154 -0.460858 -0.294560 -0.610028 0.151246 0.379784 -0.513336 -0.065179 -0.045383 0.395221 -0.279504 -0.836035 -0.575731 0.044663 -0.076048 0.163648 -0.418003 -0.564113 0.707835 -0.124112 -0.102958 -0.017778 0.122192 -0.277571 -0.355325 -0.291760 -0.325783 -0.483241 -0.086759 -0.013020 -0.355701 0.580878 -0.268305 -0.836964 0.179575 -0.181460 -0.325608 -0.369747 0.347532 -0.420762 -0.459699 -0.277422 0.366486 0.123873 -0.281818 -0.056790 -0.367970 -0.451922 0.770802 0.107446 0.216285 -0.301052 0.123316 -0.537741 0.370529 0.697154 -0.662371 0.244704 0.200104 -0.395055 0.090351 0.899157 -0.214742 -0.363700 0.221556 0.151427 0.306806 -0.032292 0.089658 -0.374464 0.340998 -0.083230 -0.682230 -0.133884 -0.101081 -0.209257 0.589928 -0.205335 -0.216563 0.557629 -0.209509 -0.311460 -0.175112 -0.569085 0.029512 -0.359456 0.297091 -0.410959 0.185634 0.094964 0.383539 -0.150607 -0.274743 -0.246102 -0.289093 0.369496 
aJiaweiHan -0.067153 -0.147625 0.149225 -0.027925 0.129070 0.064527 -0.012770 0.009171 0.123345 0.029768 -0.099895 0.007400 -0.038106 -0.085935 -0.019687 0.040199 0.112912 -0.049343 -0.023506 -0.104429 -0.022053 -0.068862 0.212292 -0.108752 -0.064857 -0.238944 -0.143655 0.047873 -0.035746 0.030060 -0.018825 -0.240814 0.057070 -0.046255 -0.169474 -0.082478 -0.102404 -0.112932 -0.179178 0.095211 -0.183731 0.064754 0.045582 0.121412 -0.088186 0.178504 0.033149 -0.006373 0.074052 -0.044306 0.076986 0.045083 0.183785 -0.000086 -0.003375 -0.020518 0.135793 -0.047826 -0.043178 0.074022 -0.272744 0.005125 0.012060 -0.095733 -0.001992 -0.005168 0.062616 -0.071615 -0.089194 -0.211870 -0.011402 -0.036266 0.018904 -0.018842 -0.113646 0.172837 0.125727 0.021445 -0.134211 -0.100237 0.130606 0.136258 -0.454693 0.018391 -0.077119 -0.074495 0.056842 0.135454 -0.421578 -0.049193 0.014755 -0.086280 0.242127 -0.015257 -0.150832 -0.133066 -0.008837 -0.178838 0.074647 0.055264 0.115775 -0.326474 -0.067928 -0.043562 0.045794 0.002560 -0.014402 -0.036777 0.001844 0.055475 0.068286 0.000293 -0.072037 0.022472 0.108165 -0.054617 -0.003255 -0.078284 0.167305 -0.148365 -0.024389 -0.065430 0.230817 0.013021 0.075362 0.058337 -0.115351 0.046416 
vsymposiumonprinciplesofdatabasesystems -0.134599 -0.194587 -0.567120 0.006801 0.074816 0.495398 -0.409708 -0.016715 0.302033 0.239978 0.229379 0.627008 0.510985 0.143072 -0.224891 0.266140 -0.228870 -0.184261 0.344125 0.271756 0.353018 -0.197744 -0.141863 -0.269255 0.208619 0.191069 0.075051 -0.100848 0.261843 -0.040812 -0.063963 0.343961 0.243143 0.178124 0.163888 0.479753 0.021824 -0.110116 0.411994 -0.001876 -0.121517 -0.437066 0.199398 0.627458 0.752687 0.066944 -0.094320 0.148796 0.241996 0.532467 -0.518899 0.205206 0.094437 0.162375 0.067648 0.207785 0.171702 0.256028 0.190283 0.020388 -0.029567 -0.019095 0.212806 -0.606755 0.372996 0.769861 -0.502729 0.121290 0.299399 0.328226 -0.293113 0.274204 0.314115 0.476349 -0.494067 -0.224368 0.462615 0.219775 0.344006 0.724290 -0.608077 -0.184112 0.095641 0.362794 -0.234012 0.571358 -0.266022 -0.832050 0.800972 -0.171227 -0.214641 0.177087 -0.192214 -0.549220 0.253526 0.135083 -0.089201 0.163570 -0.566668 0.027827 -0.140068 0.590634 -0.170464 -0.091367 0.758191 0.112687 0.246179 0.194696 -0.760916 0.292131 0.333536 -0.565761 0.261907 -0.046022 0.057635 0.747945 -0.164013 0.537416 -0.213638 0.140748 -0.187963 0.080660 -0.520351 0.124169 0.147080 0.141114 0.146479 -0.282096 
vWorldWideWeb -0.352618 -0.108474 -0.331205 0.020452 0.377272 -0.031229 -0.828253 -0.111045 -0.128914 -0.190507 0.401823 0.219145 0.291242 -0.002478 0.002053 0.417003 -0.223016 -0.045035 0.651103 0.345546 0.333548 -0.245407 -0.189300 0.013264 0.463050 0.448936 0.110052 0.022704 -0.011187 0.442589 -0.125561 0.235662 0.014854 0.575687 0.450921 0.503660 -0.018747 -0.462276 0.456129 0.212974 0.111102 -0.090925 0.243278 0.697328 0.442406 -0.221648 -0.170842 -0.290635 0.432887 0.479460 -0.386796 0.208351 0.155668 -0.113371 0.053697 0.256022 0.197620 -0.024334 0.059535 0.243326 -0.013297 -0.103735 0.173876 -0.380937 0.258210 0.776763 -0.060271 0.131101 0.481744 0.408839 -0.299576 0.493090 0.270319 0.447020 -0.255908 -0.280135 0.118325 -0.031275 0.301965 0.529089 -0.749690 -0.234175 0.018416 0.317305 -0.137004 0.637476 -0.480152 -0.743864 0.863546 -0.327956 -0.303575 0.404142 -0.094346 -0.976551 0.307821 0.543386 0.158015 -0.424580 -0.198395 -0.134144 -0.087116 0.467556 -0.345975 0.168502 0.688608 -0.078910 -0.040970 -0.076114 -0.418045 0.196873 0.039755 -0.464670 0.228435 0.345046 0.174073 0.371369 0.001684 0.281097 -0.186599 0.360353 -0.039110 0.013114 -0.426497 0.075813 0.373413 0.223983 0.303549 -0.335808 
aChristosFaloutsos -0.034749 -0.118835 0.094741 -0.050233 -0.034660 0.051300 -0.021726 0.018023 0.060601 -0.057162 -0.001563 0.030410 -0.123605 -0.044316 -0.051057 0.082999 0.130560 -0.024150 -0.039948 -0.130239 0.045168 -0.130442 0.191071 -0.066566 -0.102179 -0.278981 -0.148423 0.039125 -0.034266 0.057967 -0.001711 -0.154162 0.140088 -0.028391 -0.184487 -0.055060 -0.005003 -0.170140 -0.183595 0.078671 -0.155288 0.096166 0.101940 0.151764 -0.090387 0.154844 -0.001991 0.032614 0.058481 -0.061636 0.183189 0.047285 0.173156 -0.023315 0.103133 -0.004168 0.156859 -0.026101 -0.106744 0.082842 -0.229561 0.032612 -0.012147 -0.115115 0.006743 -0.065818 0.057233 -0.024230 -0.080581 -0.213559 0.047543 -0.082376 0.051254 -0.054167 -0.147366 0.122221 0.147692 0.078083 -0.170264 -0.114356 0.137985 0.106634 -0.442693 0.035598 -0.105205 -0.053086 0.056625 0.088952 -0.405760 -0.082831 0.044035 -0.139662 0.199027 -0.044189 -0.065320 -0.260714 -0.006031 -0.175450 0.122862 0.065626 0.117218 -0.309846 -0.105531 -0.067933 0.006338 0.020103 0.120093 -0.012222 0.006886 0.033510 0.103883 -0.130449 -0.072469 -0.016030 0.084210 0.010138 -0.002637 -0.079926 0.210090 -0.110752 -0.027177 -0.070234 0.208330 -0.000044 0.066044 0.058899 -0.096227 0.008755 
veuropeanconferenceonprinciplesofdataminingandknowledgediscovery -0.222789 -0.336832 -0.524529 0.221200 0.180833 0.252842 -0.557708 -0.097623 0.555403 0.207120 0.169889 0.141049 0.447233 -0.260114 0.273090 0.258970 -0.122494 0.131387 0.589333 -0.354716 0.091502 0.004775 0.296835 0.047459 0.291892 0.096276 0.213601 0.046273 0.324571 0.222146 -0.211882 0.007870 -0.147412 0.209338 -0.107246 0.363034 -0.238838 -0.447428 0.215367 -0.092321 0.042367 -0.504607 0.321414 0.676336 0.577683 0.052059 0.187699 -0.051928 0.420858 0.595012 -0.782377 0.025344 -0.044561 -0.115922 -0.371632 0.145516 0.278202 0.078793 0.203598 0.696345 0.341518 0.211736 0.435002 -0.431518 0.050926 0.907267 -0.128543 0.048748 0.578091 0.317622 -0.299901 0.404439 0.473095 0.415635 -0.273538 -0.379833 0.223795 -0.056407 0.309585 0.356222 -0.742385 -0.053925 -0.088571 0.314680 0.167960 0.562257 -0.345633 -0.733902 0.884740 -0.184652 -0.356436 0.574669 -0.175421 -0.981541 -0.108381 0.372080 -0.347848 -0.064394 -0.181226 0.068019 -0.119257 0.515454 -0.119174 -0.016839 0.531709 0.286982 0.199353 0.189918 -0.657163 0.451763 0.202828 -0.456181 0.131618 0.419697 -0.061536 0.363671 0.054589 0.252218 -0.427232 0.323246 -0.218148 -0.052705 -0.005221 0.076353 0.379244 0.227703 0.108649 -0.435645 
vtextretrievalconference -0.474780 -0.239947 -0.347862 -0.031476 0.147123 0.177163 -0.983337 -0.063788 0.031605 -0.066376 0.188905 0.041347 0.064049 -0.258772 -0.126646 0.391842 -0.646020 0.319724 0.321671 0.239549 0.247708 0.180732 -0.342962 0.121950 0.104949 0.539365 0.258430 0.520940 -0.001212 0.148700 -0.622693 -0.055655 0.159851 0.296637 0.532568 0.545463 -0.225175 -0.173364 0.286245 0.122323 0.250223 -0.401995 0.135944 0.521223 0.419748 -0.175562 0.071571 -0.232266 0.309070 0.372319 -0.295614 -0.210709 0.151701 0.109608 -0.256635 0.309925 0.374993 0.169113 0.389690 0.381505 -0.006329 -0.199319 0.157148 -0.352378 0.192411 0.880991 -0.213983 0.484746 0.284079 0.277899 -0.522547 0.258149 0.466483 0.376590 -0.210410 -0.248443 0.419000 0.268423 0.306032 0.372438 -0.987630 -0.005596 -0.037882 0.182092 0.122625 0.609494 -0.474128 -0.622339 0.559695 -0.077262 -0.046088 0.204902 -0.018227 -0.516385 0.356045 0.563006 -0.137117 -0.019862 -0.249928 -0.076616 -0.153148 0.806082 -0.199693 0.018360 0.692076 0.271191 -0.040028 0.245198 -0.521936 0.154874 0.142101 -0.577859 0.128916 0.270902 0.009017 0.536550 -0.088006 0.301028 -0.294017 0.596754 -0.055112 -0.005242 -0.318581 0.035670 0.348925 0.239774 0.421075 -0.373077 
aWeiWang -0.019621 -0.095794 0.107491 0.023975 0.046421 -0.025505 -0.040166 0.046369 0.054731 -0.038047 -0.064004 0.002357 0.005725 -0.094985 -0.078188 -0.069769 0.084602 0.004627 0.086986 0.064534 0.039419 -0.269007 0.270121 -0.058395 0.024979 -0.289013 -0.126061 0.012170 -0.092199 -0.045101 0.002050 -0.171116 0.091018 0.056367 -0.090160 -0.041052 -0.072704 -0.094577 -0.113418 0.052040 -0.156239 0.028855 0.012886 0.050180 -0.080991 0.044424 0.001245 -0.112206 -0.032329 -0.142247 -0.026996 0.064594 0.144820 -0.071965 0.102315 -0.035760 0.091774 -0.001552 -0.042987 -0.001909 -0.255431 0.142596 -0.090016 -0.096360 0.106814 -0.197530 0.007352 -0.052241 0.018506 -0.108090 -0.072714 -0.077753 0.051972 -0.107261 -0.063478 0.122599 -0.030856 -0.107610 -0.163312 -0.010317 0.183817 -0.041047 -0.348360 -0.000964 -0.188588 -0.017054 0.003087 0.045299 -0.451714 0.012111 -0.003122 -0.169896 0.258546 -0.064229 0.026998 -0.038581 0.169253 -0.272741 0.064393 0.011584 0.134227 -0.331726 -0.090226 0.094800 -0.043913 0.010136 -0.024056 0.020377 -0.000160 -0.046740 0.069028 -0.024925 -0.038841 -0.010485 0.175380 -0.128357 0.048197 -0.091241 0.208390 -0.067675 -0.060012 -0.118817 0.167138 0.023440 0.181669 0.107330 -0.178715 0.152317 
aTaoLi -0.209815 -0.040135 0.051125 -0.136250 -0.071488 0.020397 0.009139 -0.116680 -0.136413 0.043516 -0.060411 -0.014863 -0.100511 -0.149758 -0.055653 0.115220 -0.006814 0.122159 0.148864 -0.129176 -0.079467 0.037141 0.130567 -0.007061 0.099279 -0.257999 -0.117867 0.253426 -0.008002 -0.097249 -0.053496 -0.105575 0.164983 0.015359 -0.164351 -0.176943 0.035923 -0.158638 -0.174516 0.098922 0.022819 0.115261 0.011914 0.171568 -0.214957 0.049279 0.163605 -0.055240 -0.136232 -0.092690 0.148520 -0.104216 0.269199 -0.047341 -0.070954 -0.105916 0.108070 0.026402 0.035474 -0.025261 -0.436861 -0.062601 -0.057378 -0.047591 -0.054152 0.016802 0.020035 -0.011938 -0.063707 -0.303355 0.173453 -0.110460 -0.017651 0.007034 0.065952 0.225450 -0.070591 -0.063947 -0.031640 -0.251444 0.133893 0.124573 -0.462776 -0.014033 -0.096071 0.000827 -0.034793 0.187615 -0.333887 0.051017 0.049289 -0.033415 0.052317 0.047024 -0.091324 -0.257699 -0.126824 -0.079941 0.081137 0.008413 0.253947 -0.312380 -0.018891 -0.021773 0.003095 0.029961 0.146151 0.026902 -0.004282 -0.041566 -0.065898 -0.159074 -0.103613 0.213238 0.109208 0.115781 0.137161 0.018554 0.038665 -0.110294 -0.053376 -0.126460 -0.101715 -0.010789 -0.081898 -0.121175 0.020195 -0.033328 
aJeffreyXuYu -0.112694 -0.119548 0.136049 0.020439 0.110510 0.022179 0.143944 -0.034038 -0.068270 -0.038254 -0.186222 0.059955 0.086422 0.118125 0.056356 -0.149056 0.125088 -0.059124 -0.109233 0.214263 0.022312 -0.184056 0.220595 -0.069618 0.121294 -0.327022 -0.231346 -0.083232 -0.129606 -0.025352 0.028614 -0.116065 -0.095277 0.073327 -0.111982 -0.032547 -0.157776 -0.070119 -0.075459 0.177691 -0.027571 -0.039855 -0.076577 0.051939 -0.095797 -0.042891 -0.142844 0.041228 -0.039630 -0.054217 0.083817 0.133147 0.001811 -0.052378 0.166284 0.091780 -0.000783 0.004009 0.014505 -0.183042 -0.218823 0.053023 -0.119328 -0.035936 0.202736 -0.178213 0.136680 0.081460 -0.126885 -0.180825 -0.104201 -0.023294 0.060832 -0.014490 -0.177814 0.109799 -0.196137 -0.055987 -0.160313 -0.053126 0.144121 0.000608 -0.362294 -0.006948 -0.189193 -0.057698 0.059537 0.095202 -0.350244 0.011165 0.056060 -0.146671 0.197578 -0.158612 0.071845 -0.074595 0.241610 -0.212531 0.194497 0.039086 -0.033767 -0.326213 -0.126558 0.197919 0.026059 -0.090697 -0.114750 -0.235580 0.075199 -0.059592 0.161811 -0.071207 0.041668 0.037527 0.166171 -0.075854 0.108865 -0.037966 0.340398 0.038083 -0.110961 -0.112017 0.112963 -0.097842 0.193036 0.147615 -0.006140 0.092082 
aCraigMacdonald -0.153325 0.041282 0.022398 -0.194930 0.010859 0.055000 0.090134 -0.099206 -0.156487 -0.071109 -0.133551 0.037648 -0.142121 -0.213989 -0.025108 -0.040759 -0.096485 0.044327 0.105192 0.079783 -0.068556 0.060186 0.030715 0.169024 0.063604 -0.503326 -0.096654 0.421745 -0.093439 -0.198379 0.072559 -0.234732 0.013328 0.166903 0.066173 -0.072538 0.020802 0.216033 0.096256 -0.054094 0.254697 0.033537 -0.086468 0.043021 -0.083577 0.075906 0.163263 -0.032249 0.073200 -0.034013 0.229524 -0.200163 0.098540 -0.027039 -0.053072 -0.115123 0.006559 0.032156 -0.029386 -0.087187 -0.285408 -0.076031 -0.202140 0.018330 0.126876 -0.095212 0.015232 -0.012900 -0.095418 -0.179893 0.092501 -0.164072 -0.073144 -0.142475 0.003435 0.190690 0.018733 -0.043832 -0.050272 -0.353115 0.009339 0.151791 -0.389576 -0.093473 0.061232 -0.155053 -0.022883 0.095891 -0.203751 0.047449 0.144651 -0.159501 0.052348 0.154751 0.078272 -0.005205 -0.292478 -0.006449 0.044541 -0.104207 0.380019 -0.342600 0.062906 -0.019219 -0.295210 -0.026569 0.017030 0.028976 0.123775 -0.132405 0.054040 -0.184657 -0.066867 0.149991 0.213290 0.017855 0.075762 -0.030573 0.043972 0.155358 0.058384 -0.254314 0.014261 -0.076050 -0.097860 -0.137409 0.330088 0.158944 
aIadhOunis -0.128003 -0.127502 0.035141 -0.317339 -0.011221 0.118657 0.034613 -0.131432 -0.088929 -0.156833 -0.147919 -0.036380 -0.163787 -0.211335 -0.048059 -0.042794 -0.037112 0.057454 0.029857 0.042301 -0.005389 0.070802 -0.074467 0.078966 0.045308 -0.498724 0.046106 0.265428 -0.022043 -0.169571 0.064860 -0.135660 0.017701 0.167340 0.030729 0.090058 0.014550 0.071290 0.131451 -0.045940 0.232914 0.139653 -0.125773 -0.093496 -0.027214 0.143621 0.181034 0.019926 -0.098119 -0.066860 0.170712 -0.336025 0.258676 0.048426 -0.098546 -0.154388 0.157062 0.014004 -0.040240 -0.105879 -0.416567 -0.043739 -0.167171 0.123612 0.105977 -0.036186 0.005594 0.110550 -0.255878 -0.139819 0.018866 -0.254707 -0.037704 -0.065906 0.023243 0.184479 -0.038074 -0.094230 -0.049770 -0.434075 0.027053 0.033738 -0.290188 -0.065046 0.136348 -0.179140 -0.060348 0.091466 -0.311278 0.061945 0.275943 -0.060118 0.110787 0.092626 0.074146 -0.158792 -0.260223 -0.088518 0.117684 -0.048759 0.311033 -0.296435 0.084744 0.055695 -0.132396 -0.160778 -0.082750 0.039189 0.058894 -0.191497 0.034293 -0.089221 -0.026118 0.160545 0.109170 0.088955 0.161163 -0.087998 -0.150512 0.135086 -0.064539 -0.247911 -0.088955 -0.065364 -0.106481 -0.039507 0.215200 0.153372 
aHaixunWang 0.031449 -0.033902 0.167142 0.052021 0.205163 0.012309 -0.029715 0.017360 -0.204522 0.006351 -0.076696 -0.002385 0.013044 -0.059013 -0.099986 -0.065807 0.143211 -0.024585 0.176847 0.148860 -0.024816 -0.212542 0.224365 -0.190001 0.078663 -0.242509 -0.267759 -0.032027 -0.113970 0.035899 0.112035 -0.194838 0.125141 0.033416 -0.085323 -0.136658 -0.017744 -0.133779 0.007018 0.176050 -0.094572 0.031060 -0.049336 0.145826 -0.070548 0.146888 -0.043510 0.002646 -0.018089 0.044922 0.131621 0.072675 0.106773 -0.141443 0.031279 0.008913 0.022133 0.048504 0.020674 0.071578 -0.281465 0.063908 -0.107054 0.019675 0.037853 -0.231782 0.070863 -0.036090 -0.104821 -0.111598 -0.172596 -0.173361 0.164570 -0.036068 -0.132426 0.143694 -0.077887 -0.047316 -0.139849 0.016268 0.039154 -0.061282 -0.359334 0.008289 -0.208970 -0.039529 0.032441 0.006145 -0.392718 -0.022382 0.058158 -0.087863 0.137801 -0.090061 0.002043 -0.050489 0.184914 -0.257924 0.093484 0.084829 0.097800 -0.351934 -0.043601 0.076954 -0.014465 -0.125692 -0.107113 -0.140227 0.083778 -0.105289 0.148108 -0.004276 -0.051535 0.101111 0.044551 -0.207481 0.087390 -0.080918 0.230103 -0.123047 -0.034627 -0.139360 0.194847 0.013866 0.042399 0.053705 -0.101116 0.075338 
aRyenW.White -0.165720 -0.066833 0.002192 -0.160066 -0.056403 0.026118 0.016132 -0.072746 -0.102571 -0.171089 -0.127822 0.070040 -0.103383 -0.059845 0.002880 -0.147170 -0.019034 -0.066465 0.047320 0.041129 0.010429 0.070619 0.160529 0.066963 0.112403 -0.477948 0.101313 0.241509 0.026312 -0.127279 0.102776 -0.138824 -0.087602 0.016232 -0.009006 -0.021892 0.154785 0.056093 0.124971 0.067761 0.099994 0.107945 -0.101972 -0.080942 -0.094147 0.088396 0.115528 0.009027 0.056318 -0.134465 0.111781 -0.307321 0.226636 -0.002576 -0.028296 -0.054089 0.140531 -0.016403 -0.004811 -0.025748 -0.265627 -0.075634 -0.235513 0.053249 0.132114 -0.076265 -0.052171 -0.011335 -0.065639 -0.088243 0.062783 -0.139827 -0.175434 -0.061575 0.075151 0.173528 0.009580 0.036451 -0.157429 -0.343675 0.109660 0.176400 -0.471932 -0.086525 -0.026453 -0.124958 -0.116167 0.145758 -0.164222 0.000574 0.162478 -0.143524 0.047444 0.160195 0.016826 0.009862 -0.357730 -0.080767 0.052728 0.090414 0.359242 -0.353975 0.037844 -0.043498 -0.197837 -0.080938 0.079670 0.017343 -0.039838 -0.174862 -0.014470 -0.067712 -0.027581 0.056517 0.086098 0.002767 0.123783 0.104429 0.059291 0.164619 -0.112183 -0.131162 0.070773 -0.142821 0.002526 -0.066730 0.403994 0.170640 
aJieTang -0.091511 -0.214923 0.006339 -0.064351 -0.129736 -0.025669 -0.135065 -0.079087 0.077056 0.093052 -0.051836 0.073148 -0.140218 0.068776 0.084674 -0.047261 0.069248 0.035162 -0.087829 -0.078541 -0.057534 -0.014328 0.203155 -0.121997 -0.035752 -0.211811 -0.249913 0.088751 -0.127438 0.071650 -0.073335 -0.119588 -0.005063 -0.081108 -0.175362 -0.090007 0.066830 -0.183070 -0.142532 0.061513 -0.053504 0.209904 0.098543 0.228418 -0.124343 0.145570 0.108808 -0.012151 0.055069 -0.224668 0.142593 -0.031521 0.246084 0.006458 -0.078876 0.102341 0.140120 -0.066074 -0.136036 -0.054627 -0.314991 -0.049704 -0.043689 -0.062109 -0.058049 -0.060502 -0.046679 -0.066060 -0.171699 -0.303422 0.078412 0.001233 0.028592 -0.082603 -0.002810 0.119084 0.183812 0.090981 -0.132257 -0.080787 0.080585 0.090399 -0.406796 0.001451 -0.110212 -0.055709 -0.065821 0.240069 -0.375293 -0.013827 0.010028 -0.158722 0.205408 0.039864 -0.017093 -0.196723 0.027690 -0.156055 0.052242 0.126715 0.282547 -0.273322 -0.079908 -0.133847 0.117289 -0.035958 0.088390 0.044800 -0.038422 -0.013071 -0.042844 -0.137237 -0.198827 0.111556 0.103923 0.159243 -0.013855 -0.014109 0.118619 -0.167523 0.003461 -0.116366 0.039032 0.015988 0.103566 0.106296 -0.114847 0.133625 
aXifengYan 0.092798 -0.190186 0.069165 0.011456 0.060064 0.084682 0.086037 -0.030646 0.196299 -0.170539 -0.063530 0.001895 -0.100305 -0.066582 0.022065 -0.038681 0.134894 -0.064189 0.013957 -0.048823 -0.098245 -0.139243 0.288423 -0.195081 0.013574 -0.313184 -0.089193 0.023401 0.051548 0.065920 0.050615 -0.166512 0.173070 -0.013066 -0.252828 -0.010363 -0.131782 -0.183393 -0.208851 0.039570 -0.170795 0.006377 0.132771 0.136594 -0.016467 0.224883 -0.044380 0.035455 0.004743 -0.009635 0.053944 0.117524 0.089554 -0.130968 -0.117292 0.006701 0.168733 0.028505 0.020021 -0.022433 -0.170385 0.012363 -0.082786 -0.021542 0.034881 -0.180093 0.010710 -0.040046 -0.090569 -0.155698 0.019123 0.035446 0.063150 -0.078703 -0.188233 0.171645 0.165690 0.127400 -0.173222 -0.088038 0.129946 -0.011229 -0.387218 0.002259 -0.029967 -0.033550 0.084023 0.188156 -0.495628 -0.027939 -0.014484 -0.003080 0.306456 -0.057309 -0.056456 0.026696 0.082828 -0.139019 0.132577 0.123767 -0.023463 -0.363852 -0.116152 0.037537 -0.004603 0.048890 -0.096041 0.028069 0.063042 0.154300 0.073421 -0.036545 -0.035922 0.014066 0.103279 -0.001526 -0.020706 0.004659 0.276989 0.046772 0.055629 -0.154662 0.300934 -0.124216 0.024273 0.054192 -0.069492 0.128807 
aYongYu -0.124880 -0.042181 -0.023856 -0.130807 0.042961 0.043177 -0.002214 -0.005990 0.062780 -0.029452 -0.203872 -0.030260 0.087084 -0.256198 0.151924 -0.046784 -0.076434 0.015412 0.148362 -0.069087 -0.069659 0.064053 0.087480 0.032191 -0.013203 -0.437803 0.036383 0.094706 0.044113 0.022287 0.053826 -0.129325 0.170196 0.074549 0.028766 -0.191975 0.066834 -0.001415 0.079099 -0.026791 0.142893 0.143451 -0.103505 0.100999 -0.077677 -0.087979 0.230997 0.085713 0.144960 -0.206744 -0.114647 -0.016131 0.284370 -0.214563 -0.164477 -0.122275 -0.066581 0.051508 -0.060205 -0.022767 -0.307430 0.052047 -0.049529 -0.078801 0.205442 -0.016354 0.060289 0.001752 -0.185171 -0.175293 0.077063 -0.063776 -0.108254 -0.075916 -0.088615 0.186223 -0.056380 0.040002 -0.036747 -0.251997 -0.003996 0.285048 -0.378610 0.060531 -0.046009 -0.085853 0.016067 0.133372 -0.274418 0.137263 0.065279 -0.096146 0.264351 0.084642 -0.108167 -0.136142 -0.030599 -0.097922 -0.057928 0.250837 0.171873 -0.365998 0.003297 0.040328 -0.093542 -0.056537 -0.046137 0.008569 0.139908 -0.178046 0.022818 0.031687 -0.020246 0.024763 0.004371 -0.067194 -0.022906 -0.027396 0.185380 0.154222 -0.033098 -0.354584 0.125285 -0.078933 0.016099 -0.008906 0.040995 0.155979 
vasia-pacificwebconference -0.692223 -0.038545 -0.514156 0.087652 0.390964 0.155180 -0.769591 -0.122912 -0.082358 -0.060928 0.443823 0.219432 0.413229 -0.066505 0.141868 0.517833 -0.373157 0.142367 0.714184 0.027493 0.166640 -0.370837 -0.349404 -0.055845 0.362652 0.210021 0.315821 0.185554 0.081534 0.168348 -0.250885 0.215971 0.297287 0.533639 0.258810 0.449924 -0.166047 -0.471349 0.476419 -0.000955 -0.015142 -0.175544 0.392706 0.645482 0.367352 -0.189836 -0.079291 -0.190059 0.375941 0.389308 -0.681156 0.075273 -0.029817 -0.205770 -0.054448 0.119347 0.243820 0.233248 -0.053377 0.217859 0.187846 0.157849 0.405071 -0.450293 0.349810 0.763754 -0.193884 0.063984 0.481678 0.375892 -0.169860 0.496724 0.218853 0.089690 -0.142404 -0.090828 -0.100265 -0.052182 0.508926 0.555474 -0.595588 -0.009251 -0.076617 0.387730 -0.235522 0.795969 -0.303888 -0.712208 0.706759 -0.208068 -0.342365 0.423956 -0.058684 -0.862931 0.099364 0.423289 -0.020846 -0.133231 -0.525927 0.010962 0.048097 0.523583 -0.255206 0.294081 0.738286 0.091000 0.319971 0.180610 -0.642736 0.057495 -0.148921 -0.378367 0.109464 0.417106 0.008351 0.314245 0.051647 0.278543 -0.271476 0.423518 0.114313 0.060396 -0.335332 -0.003144 0.297788 0.232520 0.124715 -0.340773 
aChengXiangZhai -0.130363 -0.020593 -0.023296 -0.100612 0.043602 0.060596 -0.007749 -0.094722 -0.035119 0.013260 -0.170417 -0.064210 -0.148442 -0.190650 -0.019689 0.105585 -0.038343 -0.015118 -0.002305 -0.186606 -0.041733 0.093243 0.087827 0.045578 0.066600 -0.343149 -0.022160 0.274062 -0.070523 -0.014962 0.208435 0.003969 -0.044211 -0.016922 -0.061899 -0.121116 -0.030848 -0.051618 0.005573 -0.003933 0.107350 0.018882 -0.033877 0.095942 -0.075351 0.088418 0.160348 0.023832 -0.140340 -0.075402 0.139727 -0.157444 0.262677 0.040363 -0.097808 -0.090051 0.085050 -0.016096 0.083955 -0.111238 -0.554746 -0.100859 -0.176973 -0.000482 0.103254 0.015869 0.006998 -0.007949 -0.131050 -0.255976 0.014005 -0.008600 -0.071932 0.062146 0.106883 0.049456 0.071493 0.086200 -0.077215 -0.301530 0.070689 0.233715 -0.444025 -0.084129 0.000189 -0.128465 0.004124 0.177471 -0.292015 0.021593 0.158976 -0.009466 0.045707 0.200664 0.032265 -0.073184 -0.185868 0.017756 0.132955 0.034117 0.206637 -0.433083 -0.033815 -0.081689 0.043406 0.017845 0.099556 -0.022451 0.013083 -0.179092 -0.010518 -0.133893 -0.024478 0.106880 0.065455 0.034112 0.039905 0.006109 -0.021300 0.010009 0.060244 -0.166609 -0.004197 -0.082983 0.038953 0.028827 0.167470 0.249956 
aJimmyJ.Lin -0.064647 -0.073298 0.119054 -0.204980 0.089545 0.207596 0.092692 -0.150879 -0.062049 -0.007665 -0.094422 -0.113693 0.088229 -0.082351 -0.073184 -0.027594 -0.074461 -0.137757 0.064625 0.071279 0.020939 -0.035195 -0.013044 0.023209 0.085567 -0.282730 0.064052 0.426453 -0.080697 -0.031620 0.113687 -0.199109 -0.047955 0.073864 0.098710 -0.144858 0.003525 0.026336 0.027390 0.029450 0.149050 0.000691 -0.054702 -0.001080 -0.195811 0.142418 0.158312 0.046957 -0.114393 -0.135815 0.097457 -0.159334 0.149212 0.034295 -0.061446 0.026158 0.093559 0.131306 0.131149 -0.037520 -0.318437 0.019942 -0.329712 0.004625 0.127446 -0.062274 0.187310 0.001672 -0.143504 -0.130631 0.083764 -0.101436 -0.070860 0.011607 0.064873 0.073966 -0.091467 -0.107860 -0.099633 -0.328147 -0.070397 0.124270 -0.483201 -0.075678 -0.035691 -0.169886 0.018858 0.000547 -0.312620 0.103971 0.273749 -0.128239 -0.046069 0.145212 0.036497 -0.124306 -0.229513 -0.015796 0.083585 -0.026018 0.245715 -0.265448 -0.045429 -0.060228 -0.070371 -0.004864 -0.103236 -0.060475 0.215672 -0.104805 -0.117781 -0.192548 -0.115198 0.254024 0.054497 0.025257 0.114540 -0.041748 0.058606 0.098163 -0.014721 -0.252483 0.063332 0.070910 -0.078078 -0.082628 0.210142 0.130612 
aGuoliangLi -0.020054 -0.043878 0.063347 0.095772 0.106200 0.058601 0.218375 0.018406 -0.048870 -0.020094 -0.182873 0.120836 0.077999 0.008667 0.103437 -0.022085 -0.023180 0.065089 -0.010958 0.122476 -0.033650 -0.144180 0.096336 -0.125509 0.036945 -0.354457 -0.021238 0.091111 -0.126119 -0.019157 0.085418 -0.071200 0.319611 0.034318 -0.041382 0.009656 -0.000680 -0.016178 0.009271 0.143344 -0.138025 -0.008301 0.067404 0.082125 -0.119968 0.064053 -0.046636 0.037426 -0.073659 -0.097573 -0.153371 0.200918 0.084250 -0.063564 0.072185 -0.027957 0.051992 -0.014221 0.085813 -0.024898 -0.226465 0.045771 -0.136008 0.056232 0.210946 -0.225383 0.181298 0.118233 -0.112283 -0.186112 -0.033158 -0.143293 -0.055262 -0.083614 0.025248 0.058278 -0.023727 0.044314 -0.095956 -0.022169 0.127884 -0.056705 -0.568509 0.062538 -0.185513 0.025715 0.028374 0.026663 -0.416804 0.112412 0.183283 -0.224902 0.023242 0.000967 0.077316 -0.145852 0.035816 -0.140786 -0.053555 0.008169 0.137841 -0.312149 0.050139 0.205518 -0.021153 -0.033870 -0.035157 -0.056942 0.042672 0.153162 -0.053482 0.010064 0.002656 -0.120860 -0.003492 -0.082721 0.085542 0.105792 0.145966 0.148497 -0.013541 -0.266095 0.283171 -0.016824 0.029984 -0.031910 -0.094426 0.007806 
aChristianS.Jensen 0.089306 -0.010158 0.040309 0.063338 -0.025595 0.046251 0.214127 0.091034 -0.050860 0.112542 -0.048376 -0.029705 0.078174 0.048315 -0.068083 -0.158353 0.101091 -0.178113 -0.200619 0.302809 -0.125265 -0.192045 0.416424 -0.171774 0.085069 -0.321883 -0.307729 0.014375 -0.082353 -0.069704 0.065370 -0.162900 0.054106 0.115327 -0.102775 -0.140862 -0.098970 -0.096463 -0.086636 0.158640 -0.090064 0.028446 -0.039953 0.036298 -0.115910 0.067842 -0.099861 0.049957 -0.143855 -0.031629 -0.090366 0.330717 0.079392 0.085702 0.193913 -0.018509 0.123723 0.091846 0.105042 -0.102814 -0.175705 0.020277 -0.082668 0.049247 0.227986 -0.011595 0.115488 0.200387 -0.130188 -0.180824 0.039323 -0.017885 0.078878 -0.057499 -0.076284 0.096559 -0.099332 0.093551 -0.043739 0.060379 0.098784 -0.109284 -0.369293 0.047846 -0.124070 -0.073577 0.146327 0.143420 -0.468011 0.037129 0.190279 -0.261252 -0.038986 -0.129407 0.064704 -0.125146 0.204427 -0.094833 0.141167 0.041284 -0.081110 -0.411677 -0.120856 0.246825 0.022077 -0.026734 -0.105254 -0.177991 0.152149 0.046410 0.257197 -0.071069 -0.012658 -0.023522 -0.061532 -0.035543 -0.158144 0.010953 0.137578 0.004162 -0.221551 -0.065129 0.187824 0.055295 -0.001263 -0.147852 0.037779 -0.027451 
aW.BruceCroft -0.116912 0.016304 -0.003359 -0.105669 -0.011870 0.080927 0.073345 -0.102648 -0.233836 -0.119178 -0.244776 -0.100662 -0.198242 -0.189292 -0.012660 0.034130 -0.102029 -0.045571 0.075666 0.046430 0.161192 0.117631 0.054665 0.091372 0.203520 -0.444661 -0.029810 0.398219 -0.005557 -0.145964 0.081184 -0.151759 -0.108641 0.034113 0.056909 -0.154482 0.033779 0.137015 0.139224 0.094826 0.102330 0.075639 -0.022623 -0.047900 -0.006746 0.046804 0.173292 0.029869 -0.058720 -0.140506 0.161269 -0.345764 0.124522 -0.029456 -0.094550 -0.136455 0.037998 0.073728 -0.132594 -0.093140 -0.312416 0.093981 -0.252968 0.043453 0.033911 -0.138141 -0.002851 0.085954 -0.157186 -0.152385 0.127210 -0.136822 -0.177714 -0.004885 0.056914 0.117273 -0.091987 -0.169207 -0.000225 -0.380935 -0.030522 0.142669 -0.497622 -0.198605 -0.035687 -0.125282 -0.104018 0.043813 -0.223437 0.039853 0.265276 -0.059035 -0.064586 0.114567 0.062437 0.005487 -0.305902 -0.092007 0.146991 -0.085092 0.289132 -0.484255 0.034181 -0.087698 -0.377036 -0.084766 0.097642 0.114693 0.008590 -0.234488 0.004926 -0.144596 -0.030109 0.158132 0.108750 0.246004 0.128263 0.109045 0.039467 0.131832 -0.095694 -0.167851 -0.042189 -0.160618 -0.138060 -0.018318 0.227294 0.122689 
aLuoSi -0.136598 -0.022309 0.137075 -0.242195 0.088528 0.078792 -0.040954 -0.189782 -0.183059 -0.118932 -0.254304 -0.028558 -0.025170 -0.111981 -0.152486 0.045721 -0.053103 -0.046820 0.125738 0.064808 0.009010 0.014471 0.030531 0.162148 0.016188 -0.341954 -0.122783 0.352930 -0.103520 0.053719 0.093781 -0.027715 0.029371 0.082419 0.120107 0.044314 -0.046087 0.068253 0.029336 0.125677 0.091946 0.130265 -0.034541 0.144443 -0.072750 -0.005416 0.177185 -0.028436 0.053993 -0.117924 0.254766 -0.138605 0.406165 -0.177247 -0.137550 -0.146880 0.045004 0.065007 0.034573 0.010229 -0.218202 -0.078428 -0.142781 0.108251 0.147693 -0.135504 0.124033 0.010795 -0.363738 -0.066266 0.243062 -0.038512 -0.061201 -0.098918 0.062229 0.111116 0.066772 -0.151136 -0.091199 -0.395853 -0.051142 -0.037052 -0.264082 -0.313045 -0.073748 -0.285057 -0.097266 0.167313 -0.290311 0.061776 0.270179 -0.173119 0.092836 0.121768 0.092823 -0.097410 -0.078637 -0.046428 0.244220 -0.079236 0.274147 -0.139970 -0.080972 0.096514 -0.118869 -0.131003 -0.160638 -0.134417 0.227643 -0.071013 -0.087768 -0.208141 -0.052261 0.242978 0.201051 0.028808 0.018430 0.048023 -0.010854 0.167231 -0.042308 -0.417789 -0.085310 -0.016407 -0.029225 0.002906 0.141993 0.094629 
aElkeA.Rundensteiner -0.022819 -0.083712 0.019350 0.028138 0.127871 0.076442 0.351111 -0.007261 -0.078951 -0.056095 -0.176412 0.146975 0.047344 -0.064363 0.282081 -0.072241 0.130602 -0.217487 -0.068385 0.135508 -0.136337 -0.044880 0.209267 0.017254 -0.120458 -0.109728 -0.100876 -0.137093 -0.023951 0.085349 0.087733 -0.128377 -0.066116 0.052870 -0.196163 -0.116855 -0.121517 -0.120213 -0.108479 -0.022466 -0.161218 0.100851 -0.041080 0.047539 -0.183718 -0.046675 -0.220535 0.011338 -0.074115 -0.074074 0.042393 0.244016 0.173035 -0.150264 -0.005462 0.193326 0.102963 0.015090 -0.101741 -0.033055 -0.268747 -0.016585 -0.074205 -0.161390 0.033313 -0.192190 0.271306 0.195468 -0.151478 -0.108746 0.004466 -0.102818 0.145541 -0.166982 -0.063273 0.066790 -0.106707 0.084571 -0.062375 0.170296 -0.103057 -0.044323 -0.370094 0.121693 -0.204623 -0.003211 0.099508 0.049166 -0.495542 0.039945 0.144065 -0.120868 0.026658 -0.126178 0.090479 0.003261 0.279995 -0.151653 0.102356 0.086014 0.202088 -0.557019 -0.149743 0.064462 -0.173114 -0.098829 -0.212637 -0.124645 -0.019753 -0.102928 0.246369 0.052386 -0.017724 -0.009714 0.063169 -0.008286 0.062033 -0.099549 0.179205 0.148783 -0.114070 -0.174464 0.228868 0.272669 0.059548 -0.002604 -0.066121 0.044287 
aOrenKurland -0.173655 0.031475 -0.078233 -0.339452 0.043176 0.012487 0.188124 -0.031359 -0.187938 -0.087853 -0.183325 0.071330 -0.156505 -0.269994 -0.058715 0.045443 -0.079623 -0.041096 0.065637 -0.018297 0.115518 0.037347 0.052792 0.012525 0.141723 -0.451942 -0.006231 0.343786 -0.074393 -0.113132 0.182012 -0.117181 -0.031773 -0.002720 0.071090 -0.028357 0.141577 0.133059 0.101880 0.061969 0.161703 0.034434 -0.019390 -0.065239 -0.099496 0.078875 0.253336 -0.088608 -0.041334 -0.122065 0.106553 -0.210708 0.211236 -0.009782 -0.102376 -0.129327 0.133139 0.049072 -0.079678 -0.172066 -0.277074 0.052915 -0.068694 0.160891 0.295871 -0.040898 -0.007612 0.071256 -0.148131 -0.201524 0.023807 -0.113132 -0.169749 0.044950 0.148618 0.044311 -0.053396 -0.163638 -0.080924 -0.348806 -0.037966 0.053452 -0.398749 -0.186513 0.047906 -0.108334 0.024785 0.113337 -0.338241 -0.118950 0.246440 0.082922 0.077399 0.053235 0.024554 -0.138897 -0.309920 -0.016595 0.096270 0.004273 0.345415 -0.432670 0.056822 -0.154082 -0.143366 -0.054123 0.020651 -0.062810 0.053766 -0.189381 0.098254 0.018436 -0.015714 0.178753 0.135611 0.070511 0.131048 -0.013720 0.047102 0.054979 -0.051339 -0.203309 0.060445 -0.062595 -0.086867 -0.082940 0.356085 0.050861 
aLeiZhang -0.059947 -0.104568 -0.052407 -0.143813 -0.063435 0.214614 -0.086644 -0.034164 -0.006050 -0.015955 -0.058363 -0.136751 -0.124376 0.036722 0.035576 -0.023208 0.005434 0.070940 -0.015010 -0.050518 -0.011575 0.058857 0.119017 0.070189 -0.037557 -0.436954 -0.122167 0.155683 -0.057100 0.042212 0.132824 -0.088613 0.019728 -0.002886 0.085621 -0.001438 -0.020896 0.057919 0.028017 -0.015925 0.078184 0.161737 -0.024400 0.092591 0.028708 0.031008 0.073362 0.029099 0.074871 -0.090796 0.076534 -0.222533 0.163979 -0.030117 0.155397 0.002481 0.034950 -0.051232 0.031333 -0.064086 -0.226371 -0.080989 -0.197363 -0.153367 0.098038 0.046981 -0.089373 0.088274 -0.158278 -0.326059 0.019239 -0.082737 -0.080492 0.000622 -0.125035 0.082020 0.076670 0.126351 -0.142601 -0.138905 0.007120 0.149900 -0.350698 -0.018496 -0.091045 0.015066 0.049721 0.069416 -0.418671 -0.123837 0.207662 -0.188095 0.244704 0.173312 -0.024404 -0.256541 -0.032569 -0.062471 -0.099136 -0.021420 0.404907 -0.395356 0.067905 -0.075756 -0.030858 -0.141511 0.159607 -0.105470 -0.003695 -0.111211 0.046387 -0.034797 0.087006 0.086178 0.099300 0.029399 -0.016333 0.054144 0.216722 0.092712 0.014825 -0.301711 0.159447 -0.169425 0.087850 0.042727 0.178165 0.069680 
aYingZhang -0.089485 -0.093670 -0.010648 0.117179 0.256124 -0.117886 0.049747 -0.012402 -0.248728 -0.038716 -0.272501 -0.061383 0.038794 -0.028470 -0.069275 -0.118783 0.057907 -0.168184 0.086398 0.205600 -0.027389 -0.306665 0.306241 -0.063120 0.101332 -0.308237 -0.029194 0.173001 -0.120752 0.083479 0.124566 -0.034682 -0.020609 0.089292 0.157147 -0.060368 -0.029184 -0.091709 0.150226 0.000813 0.097569 0.072114 0.025106 0.217444 -0.085976 0.070930 -0.083328 0.080839 -0.108576 -0.089791 -0.026446 0.001554 0.133781 -0.023897 0.062205 -0.021973 0.077167 -0.063410 -0.105980 -0.039647 -0.304288 0.079864 -0.178689 -0.042761 0.227878 -0.233259 0.073138 0.029687 -0.051466 -0.094919 0.051172 0.065987 -0.026560 -0.011496 -0.028147 0.238077 -0.222359 -0.220213 -0.115494 -0.059514 0.054416 0.021033 -0.364104 0.005408 -0.154133 -0.177083 0.073619 0.055403 -0.283884 0.119454 0.161238 -0.074980 0.073154 -0.079360 0.076398 0.022153 0.183403 -0.221187 0.109188 -0.059439 0.097921 -0.395330 -0.129408 0.266506 -0.142859 -0.207144 -0.137648 -0.097801 0.126080 -0.135674 0.007564 0.095367 -0.039579 0.205963 0.038552 -0.213440 0.170232 0.060486 0.142701 -0.007068 -0.146842 -0.181478 0.035894 0.005934 0.056829 0.107292 0.003525 0.114998 
aXiaokuiXiao 0.149786 0.040599 0.043809 0.059477 0.143457 0.059955 0.273615 0.115118 -0.068609 -0.209847 -0.143572 -0.020098 0.041905 0.051279 -0.077664 -0.241391 0.230598 -0.146208 -0.137928 0.170593 -0.051862 -0.193366 0.254776 -0.130312 0.060470 -0.275021 -0.129880 -0.070035 -0.035222 -0.143530 -0.138215 -0.117645 0.182864 0.043108 -0.129483 0.014661 -0.085121 0.008461 -0.095001 0.256714 -0.033572 0.002045 -0.041503 0.185667 -0.043310 0.146287 -0.155782 0.036999 -0.006702 -0.132022 -0.042106 0.259956 0.050447 0.045135 0.107922 0.047269 0.196502 0.136793 0.020121 -0.008838 -0.167042 0.077963 -0.077359 -0.050036 0.108328 -0.079822 0.100653 0.031222 -0.125571 -0.186307 -0.167449 -0.136037 0.090911 -0.084218 -0.152168 0.164047 0.036714 0.083974 -0.126944 0.038483 0.014105 0.054588 -0.360144 0.016266 -0.089017 -0.148957 0.136338 0.091106 -0.386840 0.084084 0.164942 -0.312016 0.095801 -0.072662 0.082402 -0.108456 0.126450 -0.121367 0.132302 -0.057243 -0.016442 -0.434398 -0.128727 0.147744 -0.110878 0.003852 -0.114604 -0.089138 0.068739 -0.020696 0.328493 -0.114323 -0.084925 -0.025347 -0.056328 -0.043970 -0.129217 -0.023984 0.100817 0.123128 -0.180498 -0.052567 0.225391 0.065347 0.087909 -0.111652 -0.140484 0.077047 
aYufeiTao 0.077333 -0.083999 0.020831 0.175823 0.109467 0.239518 0.337465 0.074512 0.103259 0.042451 -0.133917 0.025895 0.070928 0.094247 -0.008605 -0.324077 0.124511 -0.186868 -0.023429 0.144347 -0.060002 -0.227102 0.261240 -0.087694 0.031859 -0.328878 -0.133299 -0.132850 -0.049489 -0.077205 -0.035031 -0.029594 0.006853 0.034283 -0.111773 -0.063085 -0.019757 -0.062622 -0.118567 0.173693 -0.165488 -0.099536 -0.150519 0.119995 -0.092674 0.160163 0.056593 0.038893 -0.070212 -0.090615 -0.079859 0.231960 0.170731 0.066787 0.229714 -0.001554 0.088559 0.108016 0.098328 -0.211874 -0.300719 -0.046957 -0.116023 -0.150578 -0.003553 -0.213903 0.054753 0.019678 -0.157274 -0.014239 0.037369 -0.011289 -0.061475 -0.069379 -0.163007 0.196894 0.034219 0.102083 -0.067776 0.150232 0.025117 -0.157115 -0.359984 0.075065 -0.272454 -0.097300 0.011527 0.106770 -0.394667 0.038825 0.060791 -0.240828 0.008587 -0.008659 0.134766 -0.239460 0.140842 -0.107081 -0.006917 0.185335 -0.010834 -0.467486 -0.110191 0.241242 -0.132917 -0.096282 -0.210980 -0.079569 0.102306 0.037784 0.210246 0.033334 -0.036278 -0.224189 -0.011454 0.107388 0.000801 -0.009291 0.144953 -0.132888 -0.066364 -0.121628 0.053325 0.100502 -0.004595 -0.034793 -0.099392 -0.016896 
aQiangYang 0.167161 -0.069681 0.032050 -0.141626 0.002274 0.057271 -0.015207 -0.008299 0.078650 0.170413 -0.118802 -0.042536 0.030600 -0.213192 0.093602 0.006625 -0.068803 0.086511 0.060390 -0.137764 0.004636 -0.023778 0.263909 0.009148 0.070060 -0.391852 -0.144221 0.194238 -0.082338 -0.036870 0.041179 -0.206126 -0.064939 0.016603 -0.220649 0.014632 -0.019135 -0.082836 -0.113309 -0.114660 -0.033722 -0.027559 -0.002423 0.280017 0.031278 0.121154 0.160521 0.068323 -0.019278 -0.065047 -0.016139 -0.216391 0.271263 -0.104982 -0.120505 -0.144932 0.115426 -0.023963 -0.012486 0.159492 -0.354109 0.008985 0.105241 -0.112792 0.001288 0.125885 0.032383 -0.134758 -0.044420 -0.141755 0.166765 0.053399 -0.152209 -0.119680 -0.060612 0.219544 0.002914 0.033931 -0.205827 -0.444403 0.093851 0.193300 -0.365523 -0.064358 0.047438 -0.041342 0.018448 0.218379 -0.280380 0.008813 0.156856 -0.126734 0.323540 0.210673 -0.145765 -0.066104 -0.182718 -0.010025 0.108895 0.202837 0.137572 -0.260216 -0.074080 -0.130030 -0.140352 -0.035268 0.032883 0.005422 -0.003781 -0.030019 -0.178553 -0.006394 -0.127283 0.215817 0.090639 -0.010931 0.051263 0.009599 0.111189 0.094566 -0.041615 -0.114721 0.154715 -0.013646 0.097142 -0.067425 -0.028874 0.152071 
aNikosMamoulis 0.033905 -0.074858 0.107806 0.050273 0.025637 0.125697 0.218817 0.004983 -0.122280 0.022037 -0.134545 0.033167 0.113845 -0.007785 0.012442 -0.179685 0.170474 -0.108999 -0.219807 0.220412 -0.025747 -0.200945 0.282010 -0.105640 0.006401 -0.255910 -0.110070 0.014857 -0.037494 -0.106639 -0.003596 -0.034827 -0.010632 0.067855 -0.086564 0.055500 -0.022228 -0.069338 -0.073902 0.164123 -0.146470 -0.038235 -0.072078 0.176028 -0.066604 0.093924 -0.070186 0.055718 -0.279908 -0.079747 -0.068125 0.176962 0.120599 -0.002318 0.187513 0.010854 0.000750 0.101383 0.103036 0.036260 -0.180673 0.143369 -0.111856 -0.006767 0.147058 -0.092385 0.072155 0.054789 -0.155033 -0.205045 0.027451 -0.098916 0.088471 -0.025099 -0.099966 0.224003 0.032792 0.001711 -0.183194 0.013814 -0.015105 -0.020202 -0.417268 0.126013 -0.174304 -0.090350 0.193819 0.114908 -0.437608 0.031405 0.120502 -0.117896 0.023425 -0.058704 0.076155 -0.058205 0.113931 -0.128502 0.159243 -0.052426 0.004320 -0.413827 -0.009413 0.149151 -0.034941 0.088676 -0.024429 -0.131167 0.036524 -0.001093 0.142463 0.016275 0.031162 -0.108025 -0.176657 -0.115342 -0.084500 -0.015224 0.316406 0.127044 -0.034324 -0.057106 0.254038 0.125914 0.010317 -0.077826 0.041566 0.141761 
aCharlesL.A.Clarke -0.180274 0.025840 -0.063941 -0.251922 -0.029150 -0.021655 0.056882 0.026313 -0.010220 -0.160070 -0.257391 -0.036575 -0.251534 -0.245681 -0.069885 -0.035783 -0.042304 0.079347 0.073463 0.121141 -0.004378 0.110028 0.084757 0.183381 0.155357 -0.478690 -0.016379 0.337181 -0.056796 -0.224389 0.094550 -0.220454 -0.039745 0.009588 0.042287 0.083888 0.177792 0.039273 0.143310 -0.119528 0.163982 0.026145 -0.063403 0.008391 -0.185345 -0.004378 0.261035 0.026962 -0.044861 -0.146777 0.162389 -0.255293 0.294391 0.122487 -0.109831 -0.041879 0.044959 0.036712 0.020819 -0.184599 -0.236882 -0.095644 -0.164195 0.125587 0.167625 -0.073350 0.008437 0.058785 -0.086646 -0.118493 0.084318 -0.161832 -0.096408 0.050406 -0.086404 0.285743 0.045814 -0.109153 0.086533 -0.221644 0.024492 0.080064 -0.419803 -0.209252 0.114669 -0.084271 -0.049768 0.118370 -0.232257 0.007469 0.265555 0.028209 0.130595 0.117971 0.046431 -0.136818 -0.312066 -0.122203 0.011646 0.025106 0.237912 -0.400122 0.109617 -0.030544 -0.183902 -0.107352 -0.103056 -0.066254 0.104000 -0.157084 -0.069611 -0.155710 -0.111529 0.170722 0.120046 0.073855 0.084711 -0.026016 -0.117886 0.155440 -0.013221 -0.229408 0.147404 -0.078197 -0.087022 -0.084012 0.189265 0.297142 
aWei-YingMa -0.094097 -0.146048 0.016447 -0.112483 -0.138589 0.112206 -0.135943 -0.154279 -0.007546 0.034664 -0.208624 0.027683 -0.046086 0.032658 -0.029175 -0.071540 -0.042308 0.128570 0.162607 -0.037290 -0.010216 -0.051264 -0.025377 -0.051785 0.025948 -0.352502 -0.059525 0.184115 -0.070574 -0.020651 -0.005191 -0.155212 0.146102 -0.004974 -0.144283 -0.105909 0.085815 -0.040042 -0.096644 -0.171502 0.083419 0.198674 0.007348 0.119658 -0.134885 0.049019 0.022416 -0.050605 0.013007 -0.205270 0.177357 -0.068889 0.147839 -0.038427 -0.038279 0.059047 0.104561 -0.122788 -0.089891 -0.228540 -0.473122 -0.160762 0.052541 -0.016006 0.058866 0.033807 0.004868 0.040066 -0.162903 -0.246341 0.105167 0.044846 -0.011195 -0.062967 0.006261 0.124323 0.056658 0.002236 -0.226268 -0.195156 -0.040421 0.130893 -0.549976 -0.120095 -0.138029 -0.025312 -0.146342 0.135379 -0.195460 0.040204 0.102336 -0.296494 0.223863 0.045467 -0.122148 -0.181732 -0.109580 -0.126798 -0.110456 0.058015 0.217916 -0.360320 0.145250 -0.082077 0.032319 -0.169059 0.186078 0.046148 0.008923 -0.153157 0.129624 -0.039167 0.076663 0.024417 -0.009807 -0.028399 -0.096499 0.080268 0.127138 0.169579 -0.046584 -0.074491 0.059912 -0.092815 0.068394 -0.009728 0.107805 0.168349 
aHans-PeterKriegel -0.049175 -0.069820 0.049600 -0.043569 0.105204 0.112803 0.011368 0.048266 0.163673 0.018293 -0.021856 0.075308 -0.123553 -0.043612 -0.018066 -0.034839 0.043238 0.066780 -0.043749 -0.012270 0.041096 -0.147199 0.234651 0.015685 -0.006502 -0.253016 -0.247997 0.021216 -0.038900 -0.029305 -0.061326 -0.144448 -0.010175 -0.027641 -0.046236 -0.048034 -0.041207 -0.082546 -0.281036 0.165042 -0.186012 0.005383 0.089139 -0.059832 -0.124030 0.123357 0.030030 -0.007638 0.059000 0.021689 0.106646 0.101763 0.192700 -0.028404 0.065226 0.003237 0.002151 0.032022 -0.098624 0.137539 -0.221635 0.208893 -0.137099 -0.067383 -0.000705 -0.162871 0.028355 0.040645 -0.043350 -0.112899 0.034075 -0.050492 0.037195 -0.075462 -0.100035 0.122913 0.027275 0.013096 -0.192254 -0.140873 0.285348 0.018786 -0.411126 -0.061524 -0.147018 -0.158985 0.050356 0.035239 -0.553265 0.012060 0.063362 -0.119440 0.143202 -0.121186 -0.022152 -0.084176 0.054891 -0.217453 0.058054 0.222458 0.076403 -0.283412 -0.186794 0.031657 0.139412 0.133685 -0.054984 0.002036 -0.012919 -0.030437 0.091940 -0.176721 -0.042870 -0.071707 0.193455 -0.054654 -0.023671 -0.044909 0.140091 -0.073678 0.109460 -0.033528 0.256534 0.183357 0.103132 0.211720 -0.265330 0.035149 
aKian-LeeTan 0.005603 -0.143541 0.034906 0.081328 0.159654 0.195206 0.069836 0.155522 -0.034801 -0.025751 -0.056940 0.093619 0.064611 0.025465 0.048567 -0.220803 0.114372 -0.085122 -0.171042 0.222664 0.035702 -0.132423 0.298054 0.012190 0.045637 -0.221156 -0.173328 0.183287 -0.213006 0.023129 0.076521 -0.113381 0.043550 0.062471 -0.210909 -0.172512 -0.036427 -0.173681 -0.111603 0.099774 -0.102146 0.127652 0.037827 0.067340 -0.209638 0.176243 -0.070132 0.110828 -0.255450 -0.155656 0.022259 0.050517 0.068971 0.015234 0.091958 -0.022569 0.022993 0.140089 0.063715 0.089232 -0.208283 -0.034712 0.036202 -0.101726 0.083884 -0.183328 0.080113 -0.003208 -0.082408 -0.198035 -0.164621 0.056513 -0.080860 -0.125396 -0.045347 0.013167 -0.041740 -0.009309 -0.051629 0.015427 0.025079 0.117089 -0.362379 -0.087885 -0.168976 -0.062659 0.098022 0.076088 -0.456520 0.085982 0.200419 -0.207799 -0.087435 -0.166312 0.002261 0.008139 0.144305 -0.056829 0.224775 0.016585 0.033984 -0.469363 -0.095725 0.150993 -0.038626 -0.047224 -0.175454 -0.065487 -0.001030 0.005425 0.288225 -0.075507 -0.079571 -0.033657 0.003637 0.033314 0.001984 -0.051637 0.153104 0.116473 -0.171692 -0.055606 0.158795 0.145812 0.082508 0.040351 0.017837 0.137478 
aMarkSanderson -0.148858 0.054057 0.020772 -0.138343 -0.037092 0.098868 0.118434 -0.067372 -0.070612 -0.050579 -0.222264 0.102921 -0.182108 -0.186661 -0.066073 0.032085 0.027977 -0.042321 0.015917 -0.013516 0.039541 0.225279 0.174257 -0.010005 0.154406 -0.423723 0.081266 0.376830 -0.008364 -0.154323 0.051343 -0.224229 -0.112788 0.065439 0.020547 0.002866 0.077808 0.059796 0.144229 -0.105427 0.114119 0.187462 -0.096943 0.014488 -0.040334 0.136269 0.226560 0.003315 -0.095996 -0.171762 0.235952 -0.209898 0.125069 -0.074480 -0.007785 -0.162946 0.096156 -0.091218 -0.111627 -0.129913 -0.379545 0.084013 -0.130305 0.019528 0.169772 0.034833 0.019763 0.046886 -0.022073 -0.024753 0.138590 -0.122513 -0.260199 -0.027263 0.144468 0.123604 -0.069090 -0.031107 0.005148 -0.433079 -0.053992 0.141019 -0.450685 -0.160921 0.056983 -0.120502 -0.100699 0.110911 -0.295745 0.075307 0.159923 -0.062661 0.034760 0.197439 0.101620 -0.035997 -0.278493 -0.001902 0.037188 -0.251684 0.278491 -0.496443 0.080347 -0.044027 -0.201486 0.048033 -0.027270 -0.126219 0.024062 -0.111101 0.025857 -0.155561 -0.131647 0.251701 0.119973 0.162718 0.103597 0.073484 -0.039355 0.073228 0.039795 -0.185916 -0.046685 -0.166836 -0.189976 -0.072462 0.202820 0.219391 
aWang-ChienLee 0.056155 -0.274824 0.010108 0.024356 0.170487 0.123234 0.098980 -0.033768 -0.036712 0.044914 -0.030333 0.119701 -0.006934 -0.063887 0.110973 0.020904 0.050410 -0.046104 0.109640 -0.024731 0.040535 -0.014057 0.222743 0.003267 0.060174 -0.434557 -0.084088 0.204347 -0.202648 -0.122293 -0.020956 -0.070067 0.161510 0.071449 0.011330 -0.207065 -0.108137 -0.097928 -0.078549 0.001270 -0.069156 -0.035171 0.168250 0.085322 -0.145585 0.160285 0.168685 -0.008142 -0.108619 -0.089402 0.098623 -0.003064 0.117360 0.086358 -0.106462 0.023872 0.095272 -0.109273 0.070986 0.050607 -0.217445 0.019660 -0.164502 -0.056326 0.046533 -0.080157 0.082090 0.112755 -0.150799 -0.104055 -0.050465 -0.047355 0.013116 -0.043215 -0.219607 0.189404 -0.021497 0.134090 -0.142548 -0.053180 0.068099 0.133184 -0.300532 -0.047325 -0.035435 -0.047165 0.044417 0.170587 -0.388595 -0.060024 -0.032388 -0.275379 0.002589 -0.103987 0.085860 -0.072785 0.125240 -0.181872 0.073353 -0.051164 0.174787 -0.396642 -0.012119 -0.043572 -0.157253 -0.030221 -0.095491 -0.098996 -0.075265 0.018762 0.139400 0.036538 0.083959 0.040149 0.093397 -0.206325 0.031713 -0.128624 0.012774 -0.047429 -0.052224 -0.160047 0.255813 0.051528 0.052983 -0.037234 -0.081438 0.041813 
aS.Muthukrishnan -0.052271 -0.015941 0.089526 0.030948 -0.105845 0.162428 0.142768 -0.053622 0.144494 0.141896 0.031331 0.270440 0.001255 0.049145 -0.058337 -0.081518 0.057836 -0.064217 0.052550 0.134423 -0.070084 -0.129225 0.233071 -0.095720 -0.025299 -0.409654 -0.046531 -0.075987 -0.162944 -0.220632 -0.130772 -0.121079 0.045720 0.010885 0.132682 0.127933 0.164326 0.153186 0.030268 0.007364 0.006739 -0.075136 -0.121296 0.034616 0.239368 -0.056603 0.017053 0.056686 0.099975 -0.116542 0.031528 0.185150 -0.007279 0.086726 -0.118775 0.111111 0.082808 0.179008 -0.031702 -0.097966 -0.299232 0.039782 -0.190835 -0.024789 0.145685 -0.220708 0.011586 0.112476 -0.323748 -0.191585 -0.110158 -0.138282 -0.019512 -0.097102 -0.254207 0.145276 0.160873 0.026777 -0.077782 -0.057819 0.120869 -0.236580 -0.504304 0.126907 -0.116355 -0.072380 0.060821 0.037480 -0.308829 0.108070 0.001342 -0.333504 0.300577 0.122052 0.077367 -0.249776 0.152073 -0.132106 -0.010723 0.204490 0.183074 -0.373995 -0.008144 -0.124290 -0.056991 -0.342776 0.095780 0.041186 -0.037917 0.032836 0.010704 -0.062854 0.115659 -0.029403 0.042966 0.023726 -0.089462 0.057152 0.210472 -0.277683 -0.155465 -0.227548 0.051800 -0.012627 0.047711 0.154230 -0.042896 0.228298 
aYanLiu -0.018818 -0.168306 0.020698 -0.157643 0.062595 -0.031615 0.013146 -0.095777 0.134578 -0.059832 -0.011456 0.090082 -0.088329 0.023496 0.000216 0.121956 0.073564 0.015599 -0.093693 -0.153298 -0.112033 -0.033643 0.245861 -0.194919 -0.024839 -0.198302 -0.238853 -0.102882 -0.044320 0.004734 0.171709 -0.217477 0.011504 -0.049355 -0.297222 -0.187751 0.023193 -0.210149 -0.268442 0.128772 -0.056131 0.272797 0.225591 0.192264 -0.091311 0.205472 0.155761 0.039302 0.092226 -0.038759 0.165564 -0.065505 0.171870 0.011523 0.007761 -0.031555 0.046884 0.009791 -0.102502 0.239184 -0.311327 0.036669 0.115403 -0.152987 -0.055629 -0.130520 -0.106748 -0.078767 -0.235217 -0.236317 0.078638 -0.089289 -0.021276 -0.033641 -0.177228 0.180819 0.172484 -0.163439 -0.108171 -0.141932 0.211578 0.003903 -0.384753 0.026297 -0.124413 -0.150882 -0.063345 0.200714 -0.472769 -0.146978 0.031629 -0.132920 0.206904 -0.047366 -0.136542 -0.201099 -0.068947 -0.151834 -0.111152 0.089140 0.059694 -0.300448 -0.117884 -0.110359 0.019427 0.086216 0.198259 0.061837 -0.091192 -0.036309 -0.023198 -0.209218 -0.120323 0.081251 0.204193 0.015621 -0.139590 -0.247063 0.156106 -0.112584 0.059867 0.068233 -0.023964 -0.044962 0.115779 -0.055878 -0.150021 0.045901 
aChrisH.Q.Ding -0.026369 -0.132646 0.090584 0.031381 0.021004 0.108887 -0.033798 -0.119160 0.186781 0.002080 -0.134902 0.060631 -0.082930 -0.213710 0.005068 0.213030 0.074199 0.046887 0.128594 -0.166999 -0.077053 -0.090708 0.247147 0.022679 0.108833 -0.334366 -0.068814 0.220390 0.006515 -0.001042 0.046190 -0.165765 0.100719 0.047662 -0.275920 -0.060951 0.073367 -0.015939 -0.123833 0.133335 0.181132 0.048722 0.113823 0.129460 -0.039598 0.068321 0.140636 -0.012517 -0.010130 0.089409 -0.016947 -0.088539 0.375378 -0.169284 -0.185440 -0.078154 -0.057177 0.053689 -0.095226 0.208627 -0.329233 0.045253 0.092996 0.013296 -0.040419 0.022232 0.025171 -0.184517 -0.132752 -0.158659 0.160486 0.055905 -0.040015 0.024936 0.153190 0.251552 -0.021254 -0.103527 -0.102747 -0.260071 0.067352 0.234383 -0.391576 -0.147826 -0.008631 -0.117400 -0.068594 0.187199 -0.361431 0.042418 0.015134 -0.080291 0.173453 0.153278 -0.195819 -0.197345 -0.030305 -0.059237 0.132923 0.174378 0.024404 -0.424237 -0.071442 0.051448 -0.021111 0.082644 0.139878 0.143482 0.074334 -0.032780 -0.033156 -0.085530 -0.198948 0.035186 0.145512 -0.094341 0.138344 -0.091545 -0.127963 -0.105379 -0.086845 -0.136321 0.159687 0.054368 0.064914 -0.138518 0.065367 0.119236 
aJianhuaFeng -0.120406 -0.004532 0.138946 -0.041424 -0.036509 0.043957 0.224326 -0.052543 0.068228 -0.051334 -0.061162 0.092692 0.083978 0.063974 -0.054999 -0.066547 -0.018379 -0.083557 -0.083177 0.135181 0.060634 -0.079086 0.214410 -0.102081 0.015050 -0.318673 -0.106535 0.102391 -0.067280 -0.079459 0.143616 -0.031393 -0.011099 0.004804 -0.072034 -0.001453 -0.046939 -0.101096 -0.169368 0.008808 -0.028844 -0.020642 -0.054286 0.024056 -0.132423 0.007544 -0.022132 0.002751 0.015028 -0.079109 -0.071938 0.051042 0.019990 -0.070321 0.077718 -0.018737 0.262030 0.146306 0.157596 0.079397 -0.236704 0.024043 -0.187533 -0.077964 0.231495 -0.135804 0.056754 0.124147 -0.186166 -0.172262 -0.055420 0.036448 0.021569 -0.119669 -0.172922 0.106399 -0.112103 0.174577 -0.043958 -0.025442 0.053966 0.012894 -0.450053 0.158157 -0.071901 0.005739 0.113674 0.076438 -0.416235 0.089800 0.217124 -0.113561 0.194723 0.001015 -0.033335 -0.060920 0.060305 -0.019562 0.140043 0.077889 0.171591 -0.360106 -0.076239 0.084776 0.127668 -0.028096 -0.034721 -0.119653 0.188894 0.034437 0.093144 0.118102 -0.172812 -0.093623 0.059804 -0.171924 0.025140 0.043924 0.203948 0.016420 -0.173971 -0.155945 0.204856 -0.005335 0.109344 -0.049388 -0.011464 0.096278 
aEmineYilmaz -0.152341 0.018857 0.040617 -0.130965 -0.033224 -0.001319 0.177612 -0.153110 -0.346193 -0.132480 -0.315532 -0.075643 -0.097611 -0.267651 -0.009474 -0.009678 0.014634 0.001873 0.018670 0.064889 0.135751 0.053238 0.156460 0.183529 0.104336 -0.403847 0.031269 0.294123 -0.059307 -0.182273 0.098184 -0.056021 -0.108681 0.101512 0.021661 -0.056729 0.114376 0.124023 0.094022 -0.028702 0.255455 0.095258 -0.060185 -0.085834 0.021083 0.160484 0.210134 0.008030 -0.107294 -0.108949 0.151456 -0.220135 0.232320 -0.004924 -0.139771 -0.127404 0.058584 0.046891 -0.036940 -0.091581 -0.275599 0.150026 -0.242535 0.062874 0.159426 -0.028829 -0.106422 0.000160 -0.041328 -0.056991 0.118660 -0.043770 -0.161284 0.048118 0.059475 0.265242 0.018265 -0.040262 -0.017386 -0.378630 0.048590 0.153687 -0.403088 -0.138508 -0.081665 -0.095213 -0.028876 0.076286 -0.269669 0.011481 0.130688 -0.063842 -0.028020 0.121713 0.100723 -0.122687 -0.162142 -0.081173 0.005064 -0.073597 0.397996 -0.451147 0.034578 -0.117541 -0.110512 -0.024761 -0.037012 -0.011791 0.134723 -0.123154 0.031210 -0.158274 0.022998 0.233971 0.117967 0.180152 0.046512 0.027140 -0.081026 0.158863 0.028601 -0.339150 0.070099 -0.043822 -0.135418 -0.115636 0.314524 0.169360 
aAmbujK.Singh -0.000048 -0.082946 0.141450 0.039682 0.093228 0.167200 0.232652 -0.062745 0.182763 0.163225 -0.117917 -0.056332 0.061700 -0.117805 0.120967 -0.309804 0.166475 -0.028257 0.029087 -0.114287 0.091194 -0.305156 0.373861 -0.059010 -0.016421 -0.382828 -0.269549 -0.172617 -0.009505 -0.018369 -0.035433 -0.185153 0.107698 0.028453 -0.223214 -0.048210 -0.082235 -0.071230 -0.118635 -0.039807 -0.099186 -0.079398 0.073216 0.096437 0.007281 0.169684 0.143167 0.156759 0.121826 -0.018895 -0.097889 0.124599 0.069306 -0.050218 0.022955 -0.067036 0.111169 0.158625 -0.028474 0.134596 -0.124562 0.207485 -0.040618 0.036870 0.102781 -0.064142 0.071201 0.159892 -0.062900 -0.154730 -0.017209 -0.038912 0.052435 -0.146076 -0.064548 0.030502 -0.029840 0.041806 -0.156345 -0.100397 0.165132 0.084016 -0.366870 -0.059476 -0.031466 0.049020 0.148155 0.126936 -0.390352 0.041933 -0.000875 -0.119561 0.046483 -0.123935 -0.159587 -0.094678 0.054404 -0.276898 0.111714 0.251798 0.003137 -0.262351 -0.234992 0.103445 -0.096886 -0.117249 -0.035763 -0.001163 0.178769 0.109381 0.182316 0.128616 -0.146449 0.026159 0.104200 -0.106642 0.140692 -0.059764 0.195579 -0.082077 -0.129384 -0.223576 0.277384 0.041598 0.101267 0.109111 -0.112004 0.028936 
aGrahamCormode 0.104015 0.100043 0.054019 0.229744 0.037144 0.193435 0.067062 0.013574 -0.009053 -0.000619 -0.105698 0.085153 0.046915 0.113420 0.060711 -0.183945 -0.028551 -0.012298 -0.120975 0.159282 -0.026179 -0.298222 0.146789 -0.107601 -0.001075 -0.420897 -0.163038 -0.044448 -0.052561 -0.124871 0.009230 -0.134152 0.027368 -0.015632 -0.049411 -0.064504 -0.141155 -0.014075 -0.022246 0.050140 -0.111060 0.058784 -0.055436 0.174671 0.009725 -0.065164 0.080524 0.070402 0.030701 -0.045376 0.043997 0.216966 0.007024 -0.001748 0.211148 0.127031 -0.002061 0.057846 0.097375 -0.186504 -0.246328 0.058440 -0.099515 0.007912 0.152444 -0.193764 0.194861 0.018878 -0.112059 -0.077821 -0.092862 -0.053720 -0.069104 -0.064617 -0.139412 0.130359 0.107398 0.187461 -0.117852 0.169423 0.135815 -0.198327 -0.346056 0.087809 -0.141987 -0.150817 0.068179 0.171510 -0.424410 -0.075503 0.147908 -0.238944 0.031421 -0.097879 0.061477 -0.160478 0.185645 -0.106923 0.154441 0.051172 0.079155 -0.472745 -0.141637 0.139083 -0.194530 -0.074325 -0.022152 -0.085907 -0.042813 0.067477 0.167241 0.012144 0.017148 -0.114852 0.113562 0.015752 -0.041131 0.036903 0.300851 -0.052278 -0.076325 -0.208493 0.132256 0.072765 -0.013155 0.079140 -0.050138 0.055133 
aGaoCong -0.052767 -0.023853 -0.036174 0.160017 0.024304 0.157458 0.133515 -0.037508 -0.090942 -0.090561 -0.053162 0.131514 0.079763 -0.185138 -0.186257 -0.057982 0.094859 -0.193486 -0.001616 0.108696 -0.027221 -0.147137 0.271484 -0.021208 -0.027261 -0.256142 0.012613 0.289589 0.011359 -0.017698 0.076043 0.010354 0.017315 0.075078 0.004785 -0.130103 -0.091769 -0.013674 -0.023134 0.165089 0.006134 0.124777 0.006915 0.124354 -0.050887 0.054178 0.143765 0.055930 -0.161892 0.040300 0.066120 -0.071441 0.247496 0.034481 -0.005088 0.006893 -0.028525 -0.071098 0.100273 -0.079137 -0.167922 0.169040 -0.114401 -0.048054 0.003490 -0.110580 -0.015124 0.184038 0.065876 -0.186195 0.116826 0.039258 0.089163 -0.045798 -0.055414 0.135936 -0.148042 -0.014524 -0.051716 -0.243408 0.120347 0.126712 -0.610305 0.036921 0.119541 -0.083497 -0.066968 -0.007237 -0.430707 0.028580 0.274725 -0.183065 -0.003430 0.041349 0.030301 -0.153597 0.034797 -0.087576 0.119549 -0.145373 0.123512 -0.284098 -0.093760 0.224778 0.012145 0.113585 -0.088402 -0.068399 0.096727 0.110554 0.104084 0.003887 0.138386 -0.005132 0.036126 0.016603 0.087887 -0.047133 0.139970 -0.169139 -0.175549 -0.040539 0.281681 0.114439 -0.088293 -0.110286 0.021453 0.049894 
aFeiWang 0.050103 -0.209452 0.007938 -0.071803 -0.028306 0.022469 -0.045942 0.052519 0.058348 -0.009779 -0.131869 0.071563 -0.144126 -0.063247 -0.005270 0.068698 0.071488 0.082659 0.148512 -0.095414 -0.145157 -0.075660 0.242107 -0.058308 -0.000643 -0.274446 -0.116779 0.021394 -0.108105 0.156234 0.140467 -0.227008 0.061210 -0.044778 -0.306772 -0.141974 0.018824 -0.074892 -0.231700 0.164819 0.039443 0.209324 0.213278 0.203283 -0.071731 0.158345 0.108107 0.040875 0.039164 -0.021227 0.288234 -0.133587 0.240440 0.060588 -0.001500 0.031016 0.082181 0.068963 -0.083222 0.083651 -0.312833 -0.003705 0.122653 0.090579 -0.047991 0.089525 0.009440 -0.176613 -0.059238 -0.179138 -0.027672 0.012847 0.010705 0.115041 -0.024129 0.240363 0.166424 -0.007204 -0.096189 -0.180183 0.237076 0.081652 -0.489729 -0.160337 -0.086228 -0.037548 0.048786 0.210941 -0.380834 -0.232462 0.145618 -0.152166 0.112545 -0.003503 -0.090232 -0.240105 0.012382 -0.201782 -0.007273 0.174512 0.075742 -0.293975 -0.231630 -0.166780 -0.043632 0.226962 0.051975 -0.125985 -0.021247 -0.014203 -0.024745 -0.204420 -0.140683 0.151108 0.286616 -0.086731 -0.050271 -0.243523 -0.007470 -0.176412 0.019002 -0.036204 -0.034008 -0.004732 0.110461 -0.014538 -0.250416 -0.025244 
aDianeKelly -0.085154 -0.014379 -0.003866 -0.186578 0.007608 -0.039441 0.061230 0.033421 -0.100075 -0.127969 -0.237280 -0.044033 -0.173413 -0.250312 -0.036376 -0.071600 -0.085938 0.005716 0.019563 0.027300 -0.050324 0.071453 -0.049784 0.139842 -0.024214 -0.526758 -0.078879 0.299937 0.085555 -0.086577 -0.053924 -0.141702 -0.074261 0.119048 -0.032788 -0.110151 0.044370 0.039455 0.242837 0.117362 0.110279 0.012367 -0.122986 -0.050724 0.020027 0.109786 0.211752 0.035274 0.035163 -0.219381 0.267922 -0.177748 0.208112 -0.166710 -0.131443 -0.112907 0.216910 0.033374 0.089193 -0.138685 -0.267532 -0.086338 -0.210224 0.065161 0.223687 -0.039113 -0.137335 -0.019354 -0.196393 -0.176997 0.231126 -0.048512 -0.129026 0.004192 0.076664 0.003539 -0.096640 -0.012081 -0.062245 -0.367975 0.077930 0.151365 -0.447230 -0.190876 -0.064843 -0.001903 -0.027934 0.068094 -0.330488 -0.037855 0.162502 -0.102557 -0.086021 0.183433 0.059983 -0.045114 -0.483460 -0.118246 0.094041 0.003254 0.331509 -0.409801 0.051425 0.004228 -0.216409 -0.090663 0.095115 -0.003750 -0.009200 -0.150403 -0.046788 -0.074910 0.067382 0.171634 0.084212 -0.020675 0.076899 0.045771 -0.066297 0.168753 0.058998 -0.228997 -0.056793 0.043198 -0.149354 0.015178 0.289733 0.189787 
aLingLiu 0.009923 -0.106201 0.178822 0.118563 0.004967 0.102970 0.078173 0.077136 -0.006796 -0.032691 -0.060634 0.014673 0.195034 0.034906 0.023386 0.000519 0.170356 -0.080825 -0.032063 0.182079 0.033483 0.006438 0.203187 -0.126619 0.164105 -0.219686 -0.046346 0.184902 -0.094119 -0.025414 0.073827 -0.134737 0.115810 0.048123 -0.047097 -0.006546 -0.117762 -0.112119 -0.113142 0.100973 -0.016958 0.083666 0.034422 0.157060 -0.005297 0.123033 -0.135582 0.007311 0.080804 -0.041986 0.082859 0.133817 0.058911 0.000054 -0.002614 -0.009689 0.104915 0.008215 0.001703 -0.030687 -0.226155 0.114873 -0.191502 0.064848 0.088903 -0.086539 0.177702 0.125788 -0.188743 -0.131323 -0.004319 -0.020514 0.048242 0.030117 -0.146490 0.094710 0.061105 0.153726 -0.104390 0.024337 -0.060088 0.022996 -0.442387 0.065159 -0.100304 -0.167083 0.020713 0.219313 -0.451549 0.040883 0.120950 -0.190031 0.145441 0.073150 -0.016393 -0.226922 0.036843 -0.165895 0.125803 -0.089389 0.095157 -0.332420 -0.018624 -0.008298 -0.055364 -0.042900 -0.023024 -0.210170 0.022381 0.021453 0.167961 -0.055169 -0.096801 0.041158 -0.009513 -0.019873 -0.135218 -0.029805 0.190156 -0.009055 -0.016761 -0.246532 0.145279 -0.004284 0.094754 0.118347 -0.028918 0.123040 
aIanDavidson -0.102151 -0.230235 0.063336 -0.094212 -0.049305 0.043006 0.096570 -0.007374 0.210721 -0.067505 -0.065043 0.085516 -0.151058 -0.165648 -0.015290 0.132512 0.217928 -0.058990 0.050516 -0.205701 -0.030023 -0.108059 0.426560 -0.166093 -0.097012 -0.372135 -0.212123 -0.152731 -0.076631 0.141135 0.022790 -0.279351 0.068218 -0.234891 -0.146033 -0.046613 0.062380 -0.272454 -0.307643 0.113138 -0.087260 0.120692 0.203710 0.183270 -0.069207 0.178598 0.142657 0.026874 0.010943 -0.052179 0.116119 -0.169331 0.204630 0.035535 -0.019571 -0.051148 0.122479 0.027069 -0.130527 0.171489 -0.283038 0.108610 0.195235 0.053200 -0.123911 0.093039 0.125589 -0.262845 -0.082073 -0.207480 -0.019382 -0.000536 -0.000563 -0.091628 -0.105848 0.278594 0.210272 0.104326 -0.283727 -0.275402 0.087474 0.076124 -0.232332 -0.089684 0.025231 -0.068874 0.097412 0.171466 -0.402283 -0.029576 0.000769 -0.099095 0.097533 -0.059299 -0.166047 -0.145089 -0.039714 -0.141830 -0.042754 0.239505 0.151925 -0.276178 -0.029891 -0.015032 0.019906 0.041500 0.147313 0.139802 -0.002031 0.162319 -0.025378 -0.068505 -0.250839 0.083057 0.312579 0.041125 0.017956 -0.135034 0.091754 -0.074139 0.134196 -0.145721 0.170747 -0.009635 0.132736 -0.052355 -0.065511 0.091707 
aJunWang 0.026169 0.015073 0.149066 -0.079047 0.111040 0.102494 0.074235 -0.111215 0.001889 -0.064398 0.017063 -0.080199 0.010499 0.016741 0.002297 0.122805 0.023720 -0.041894 -0.005050 -0.102492 -0.088457 -0.026266 0.178490 0.070279 0.009101 -0.282063 -0.101575 0.274779 -0.131103 0.034287 0.080396 -0.024224 0.067373 0.033038 -0.095275 -0.097537 -0.129813 -0.101931 -0.076474 0.084435 -0.017431 0.118034 0.061098 0.243391 -0.166422 0.076031 0.181610 -0.181985 0.053545 -0.135249 0.228127 -0.102874 0.316693 0.043412 -0.124019 -0.213708 0.123915 0.114843 0.023489 0.037536 -0.454667 0.098186 0.063900 -0.184494 -0.050884 0.048564 -0.038506 -0.156419 -0.010011 -0.120002 0.140544 -0.181914 0.099146 0.106191 0.028266 0.112259 0.112242 -0.150828 -0.174552 -0.324199 0.165772 0.239741 -0.419209 0.047958 -0.027877 -0.121225 0.003856 0.133517 -0.305974 0.039752 0.146500 -0.056804 0.056009 0.143168 0.001363 -0.161630 -0.037667 -0.261351 0.117504 0.144828 0.122233 -0.369840 0.021774 -0.157590 -0.023019 -0.016387 0.025726 -0.077058 -0.085973 0.068307 0.053296 -0.097218 -0.193308 -0.009145 0.102246 0.154581 -0.069074 -0.130896 -0.024749 -0.097461 -0.064931 -0.125531 -0.031593 -0.002232 0.052333 -0.136631 0.085488 0.020825 
aIraAssent 0.027805 -0.152702 0.126768 0.145964 0.104844 0.069049 0.168017 0.215100 -0.075410 -0.086512 0.000532 0.165002 0.014570 -0.021377 0.037851 -0.073444 0.060635 -0.048250 -0.035677 0.134062 -0.116390 -0.178923 0.294441 -0.124737 -0.004684 -0.356601 -0.144159 0.034036 -0.066875 0.030319 0.029045 -0.107403 0.003471 0.161584 -0.107432 -0.079240 -0.116219 -0.111563 -0.200344 -0.000603 -0.166703 -0.041031 0.039029 -0.080725 -0.144107 0.040679 -0.010787 0.169375 -0.074122 -0.045087 -0.021439 0.077533 0.104544 0.065104 0.106477 -0.009807 0.086977 0.102435 -0.014916 -0.008108 -0.126721 0.258290 -0.123268 0.161845 0.089414 -0.146100 -0.037817 0.137669 -0.129392 -0.106236 -0.073273 -0.081387 0.146552 -0.232857 -0.114629 0.214272 -0.125130 -0.176810 -0.102035 0.096347 0.105511 -0.071467 -0.381888 0.032815 -0.226169 0.161277 0.184013 0.113460 -0.471834 -0.016278 -0.109060 -0.056335 0.079075 -0.108086 0.033867 -0.156115 0.172459 -0.337094 0.210276 0.195102 0.057915 -0.436922 -0.203108 0.056029 -0.151305 0.035594 0.048689 -0.044683 0.080046 -0.041090 0.223770 -0.071821 0.027589 -0.101473 0.085263 -0.205487 0.103046 -0.105427 0.109428 -0.070344 -0.187157 -0.038167 0.179959 0.242351 0.166074 -0.124167 -0.159902 -0.039222 
aNeoklisPolyzotis 0.101698 -0.051993 0.014588 -0.001408 0.052262 0.036971 0.247023 -0.005263 0.092550 0.011980 -0.078249 0.053415 -0.001639 0.135122 0.097411 -0.192741 -0.002364 -0.106746 -0.104581 0.240760 0.013752 -0.178692 0.319165 -0.076765 0.027284 -0.256731 -0.089229 0.110349 -0.015254 -0.057459 0.060912 -0.120557 0.102893 0.024680 0.043266 -0.030307 -0.021719 0.012054 -0.023166 0.073205 -0.037736 0.057361 0.018528 0.109536 -0.000254 0.040340 -0.173620 0.117283 -0.028009 -0.213395 -0.069361 0.282056 0.039905 0.108976 0.199463 0.123168 0.194117 0.054798 0.148126 0.031194 -0.097085 0.104935 -0.066221 -0.021556 0.114534 -0.144707 0.031149 0.090113 -0.041154 -0.241335 -0.078475 -0.216672 0.040855 -0.083689 -0.020040 0.157516 -0.093388 0.023273 -0.067838 -0.099682 -0.001046 -0.072055 -0.456192 0.053308 -0.041723 -0.324689 0.043237 0.073607 -0.446208 0.047833 0.180698 -0.316990 0.110528 -0.211994 0.043717 -0.122735 0.254905 -0.050377 0.088493 -0.005443 0.088392 -0.456008 0.035105 0.359667 -0.058945 -0.049331 -0.157553 -0.166593 0.089713 0.104475 0.164901 -0.025718 0.032504 -0.007126 -0.012061 -0.163990 -0.020891 0.001488 0.183532 0.082775 -0.074535 -0.153807 -0.023610 0.044173 -0.004272 -0.031369 0.110123 0.001784 
aCarloZaniolo 0.163583 -0.152716 0.015170 0.131948 0.087794 0.154701 0.227351 0.124192 -0.000567 0.076515 -0.089553 0.155337 0.147100 0.088764 -0.126048 -0.248709 0.170711 -0.071480 -0.056654 0.084768 -0.179908 -0.173462 0.359252 -0.115281 -0.056763 -0.224544 -0.212211 -0.023236 -0.039172 -0.183609 0.040190 -0.045401 0.119105 0.086898 -0.046540 0.017769 -0.018853 -0.023687 0.093404 0.025187 -0.105489 -0.007663 0.186021 0.122944 -0.049726 0.112395 -0.054860 0.190573 -0.065851 -0.093891 -0.015835 0.248777 0.138062 0.038388 0.174281 -0.031834 0.048846 0.061640 0.129623 -0.033558 -0.301345 -0.015279 -0.058240 0.089033 0.180761 -0.181235 0.071439 0.157606 -0.137028 -0.105750 -0.131192 -0.100532 0.064829 -0.076241 -0.083215 0.067097 -0.063896 0.023429 -0.175602 0.124831 0.129951 -0.184816 -0.476980 -0.016460 -0.139447 -0.101530 0.132933 0.119692 -0.407783 0.047954 0.143946 -0.180992 0.113634 -0.035078 0.104593 -0.125956 0.115814 -0.124403 0.202913 -0.002935 -0.063885 -0.419779 -0.152359 0.404173 -0.099161 -0.140105 -0.052975 -0.199274 0.056573 -0.065312 0.297002 0.123466 -0.005573 -0.148271 -0.037717 0.132111 -0.129198 -0.048305 0.182918 0.017077 -0.108831 -0.034908 0.133893 0.208243 0.050797 -0.024601 -0.206200 0.125479 
aWolfgangNejdl -0.172021 -0.035662 -0.060572 -0.096689 -0.097844 0.174578 -0.111433 -0.002193 -0.070349 0.026592 -0.143035 0.036156 -0.226964 -0.033391 0.127830 -0.103932 -0.086261 0.122491 0.078881 0.134548 -0.014320 0.146552 0.031014 0.077586 0.060043 -0.655405 -0.006397 0.181608 -0.013800 -0.159065 0.154474 -0.091644 -0.031046 0.133954 0.063975 -0.126744 0.037149 0.056060 0.006977 0.007212 0.217614 0.028940 -0.105423 -0.142503 -0.063742 0.072930 -0.042258 0.007968 -0.065499 -0.099396 -0.074374 -0.158290 0.106137 0.029499 -0.115435 -0.087937 -0.127140 -0.026347 -0.074303 -0.213367 -0.255722 -0.060565 -0.077510 -0.092270 0.152476 0.050363 -0.057818 0.068477 -0.086018 -0.229859 -0.016738 -0.040061 0.037676 -0.184686 -0.128072 0.102681 -0.160112 -0.006495 -0.068289 -0.177813 0.070095 0.043294 -0.475017 -0.108097 -0.021786 -0.028211 -0.063768 0.162991 -0.387498 0.030977 0.128520 -0.160371 0.107506 0.091416 0.149842 0.002970 -0.130254 -0.065916 0.012804 0.030210 0.301405 -0.334597 -0.017003 -0.107098 -0.177223 -0.168880 0.086560 -0.133092 0.112246 -0.101591 -0.108006 0.018415 -0.038710 -0.048864 0.172813 0.060656 -0.123653 0.119996 0.107629 0.161327 -0.213216 -0.165615 0.085673 -0.226450 0.140690 0.050912 0.159305 0.164123 
aAoyingZhou -0.039401 0.092572 0.041063 -0.034322 -0.103177 0.001415 0.118626 -0.138956 -0.134496 -0.105769 -0.222763 0.080790 0.164483 -0.056203 0.143129 0.259013 0.191661 -0.056969 0.230815 0.128668 0.023259 -0.056531 0.035182 -0.019485 0.034796 -0.114662 0.155390 0.007727 -0.212296 0.050957 0.026898 -0.277333 0.150232 0.072340 0.153306 -0.356310 0.141535 0.124095 0.000478 -0.050944 0.113580 0.312500 -0.179247 0.029025 -0.037521 -0.113708 -0.049349 -0.035256 -0.009432 -0.120594 0.071731 0.157086 0.239495 -0.233180 0.088938 -0.191057 0.088744 -0.066021 -0.286735 0.008820 -0.349705 0.092693 -0.169890 -0.107418 0.322538 -0.079256 0.453292 0.118211 -0.078708 -0.192588 0.017117 0.017004 -0.011810 -0.139119 -0.039213 0.207590 -0.054170 -0.051161 -0.046127 -0.003737 -0.092914 -0.093058 -0.595571 0.157332 -0.177744 0.101017 0.104888 0.119691 -0.412629 0.147361 0.263881 -0.111156 0.220197 -0.046254 -0.063283 -0.001602 -0.073619 -0.076244 0.039204 0.092608 0.159654 -0.379793 -0.238624 0.088021 -0.005488 -0.242587 -0.089414 -0.073437 0.014031 -0.389959 -0.077720 -0.053273 0.188604 -0.063694 -0.011689 -0.203044 0.032969 0.027126 0.095761 0.300082 -0.174152 -0.209557 0.111832 -0.284025 0.006106 0.015141 0.038371 0.034192 
aLiseGetoor 0.023081 -0.180946 -0.013943 -0.055507 0.009395 -0.012671 0.030131 0.038877 0.090788 -0.047886 -0.105071 -0.007600 -0.059955 0.093409 0.038688 -0.005378 0.089938 0.010696 -0.101640 -0.022255 0.153144 -0.023358 0.103861 -0.051942 0.042244 -0.204367 -0.206020 0.064511 -0.132464 0.051386 -0.043265 -0.304969 0.185964 0.098398 -0.376884 -0.164451 0.011033 -0.205091 -0.298145 0.183816 -0.059626 0.018129 0.062898 0.174866 -0.161011 0.202699 0.040135 -0.003354 0.004415 -0.119403 0.273173 -0.014667 0.250985 0.020705 -0.046380 0.177478 0.120066 -0.115461 -0.072272 -0.046653 -0.219123 0.144677 -0.053796 -0.062920 -0.099474 0.041072 0.189076 -0.047508 -0.111542 -0.222194 0.001044 -0.000357 0.143523 -0.044171 -0.090327 0.036804 0.267811 -0.014305 -0.150587 0.004653 0.057892 0.085564 -0.463885 -0.014138 -0.134036 -0.020165 0.024453 0.048848 -0.301312 -0.165908 -0.042639 -0.268119 0.132983 0.067420 -0.138246 -0.144764 0.080946 -0.087814 -0.005321 0.112352 0.251499 -0.395761 -0.036798 -0.191615 -0.022860 -0.119217 -0.012376 -0.045016 0.035141 0.039220 0.035841 -0.026552 -0.057886 0.110564 0.147934 0.131961 -0.116880 -0.108770 0.288060 -0.070172 -0.031256 -0.080796 0.173349 -0.019487 0.133134 0.108476 -0.029805 -0.008973 
aJunYan -0.259831 -0.006296 0.055296 0.041623 -0.056902 0.148041 0.031535 -0.191021 -0.064174 -0.025281 -0.188595 -0.083151 -0.034600 -0.043116 0.007373 0.173034 -0.005169 0.388204 0.242144 -0.007049 -0.079116 -0.117445 0.204498 -0.007139 0.196258 -0.288693 -0.124494 0.138102 -0.072125 -0.044113 -0.168129 -0.009747 0.293191 0.077040 -0.066148 -0.143777 -0.051630 -0.006711 0.023811 0.066056 0.026448 0.095701 -0.022863 -0.117278 -0.028180 0.091772 0.029261 -0.116425 0.029866 -0.176792 0.084614 0.047010 0.191750 -0.104801 -0.066959 -0.131955 0.185062 -0.088620 -0.102768 -0.172781 -0.263240 0.089583 0.099297 -0.139119 0.120267 -0.226155 0.028865 0.005817 0.017950 -0.143276 0.201101 -0.129598 -0.183002 -0.162110 0.003339 0.235627 -0.009692 -0.077823 -0.231730 -0.252777 -0.004923 0.261911 -0.492366 0.067838 -0.092101 0.161207 -0.042012 0.142556 -0.362456 -0.017560 0.173923 -0.161168 0.271135 0.061783 -0.113036 -0.172992 -0.042339 -0.042520 -0.073259 0.238930 0.289090 -0.253761 0.088537 -0.019516 -0.008942 0.049436 0.488150 0.105690 0.115148 -0.240548 -0.166975 0.056481 -0.110303 0.035008 0.227493 -0.010599 0.039166 -0.076085 0.003062 0.259824 -0.019060 -0.263588 -0.054030 -0.029402 0.015727 -0.063158 -0.025029 0.044335 
aSurajitChaudhuri -0.082817 0.082617 0.066324 0.179554 0.128527 0.097736 0.273468 0.134433 0.010519 -0.013722 -0.046247 -0.015161 0.066452 0.031606 -0.054881 -0.349845 0.027453 -0.204484 -0.151982 0.219043 -0.057812 -0.248600 0.307794 -0.098444 0.105272 -0.238626 -0.211123 -0.011547 -0.134544 -0.178759 0.039211 -0.224188 -0.036858 -0.069136 -0.076401 -0.048835 -0.144976 -0.120077 -0.060443 0.140024 -0.120756 -0.112060 0.049012 0.022862 -0.020551 0.053574 -0.149234 0.017845 -0.141226 -0.090587 0.038541 0.292374 0.119750 -0.021603 0.224960 0.056986 0.099994 0.133660 0.063185 -0.117614 0.015954 0.023815 -0.188375 -0.029512 0.145879 -0.090396 0.083191 0.128868 -0.058926 -0.182892 -0.054622 -0.231000 0.137671 -0.111914 -0.063569 0.154278 0.133975 -0.015478 -0.142458 0.029471 0.083049 -0.081808 -0.416848 0.020131 -0.154167 -0.082147 0.046152 0.067256 -0.533459 0.094730 0.235620 -0.294320 0.149679 -0.134662 0.050859 -0.100234 0.105982 -0.248387 0.079676 0.016422 0.034188 -0.435115 -0.050451 0.282970 -0.004755 0.013843 0.029942 -0.147077 -0.034453 -0.032872 0.172308 0.027541 0.014429 -0.055543 -0.085441 -0.048919 -0.149135 0.078975 0.172368 0.056536 -0.215525 -0.070645 0.039106 -0.006627 0.025799 -0.056902 -0.040190 0.118703 
aShusakuTsumoto -0.205019 -0.081574 0.028955 -0.040503 -0.194547 0.090466 -0.006965 0.060666 0.135150 -0.068989 -0.229259 0.126508 -0.255680 -0.138284 0.086063 0.079423 0.019315 0.289229 0.080758 -0.295649 -0.271490 -0.206161 0.380238 -0.018289 0.222739 -0.144927 -0.211340 -0.000724 -0.187673 0.116532 -0.002910 -0.120084 -0.124622 -0.026393 -0.242637 -0.012504 -0.105855 0.014285 -0.207194 0.195165 -0.195881 -0.013930 0.142131 -0.093843 0.038858 0.143388 0.063690 -0.038463 0.058191 0.191195 0.132768 -0.025056 0.242912 0.077406 -0.005903 -0.214575 0.185136 0.052926 -0.057914 0.294475 -0.404066 0.232656 0.027915 -0.047485 -0.238718 -0.051540 0.044003 -0.066963 0.014064 -0.161446 0.156057 -0.139726 -0.027450 -0.097244 -0.025271 0.073530 -0.067449 -0.084359 -0.173490 -0.174122 0.172825 0.278380 -0.466374 0.024347 -0.080668 -0.138158 -0.023126 0.182798 -0.483179 0.064710 0.048028 -0.129535 0.051429 -0.015728 -0.169372 -0.133868 -0.092937 -0.176633 -0.063840 0.114842 0.125409 -0.250959 -0.277244 -0.000251 0.134235 0.041794 0.173918 0.180375 -0.135502 -0.205889 0.037597 0.103989 -0.225622 -0.031570 0.316120 -0.050043 -0.058416 -0.476643 0.030514 -0.221238 0.292963 -0.148961 0.171169 0.013011 0.186284 -0.090686 -0.157991 0.038199 
aSamuelMadden 0.050241 0.029296 0.050281 0.166984 0.066892 0.051842 0.261384 0.045699 -0.023851 0.077074 -0.133998 0.059986 0.093107 0.105148 -0.008936 -0.160012 0.164799 -0.147721 -0.205999 0.253206 0.016583 -0.166789 0.091175 -0.094920 0.060924 -0.428854 -0.355985 -0.059739 -0.142338 -0.069462 0.036540 -0.143479 -0.008969 0.025851 -0.113499 -0.014431 -0.124345 -0.078543 -0.010048 0.089192 -0.041608 0.064914 0.003862 0.032339 -0.028758 0.006956 -0.183590 0.016748 -0.211192 -0.123279 -0.052079 0.432320 0.164094 0.044574 0.205972 -0.082724 0.063758 0.051415 0.101352 0.107761 -0.143991 0.100871 -0.017328 -0.025905 0.158262 -0.143739 0.132018 0.104780 -0.088981 -0.243686 0.005624 -0.015263 0.018321 -0.079898 -0.107896 0.047014 -0.128504 0.194545 -0.174775 -0.003083 0.058813 -0.044082 -0.540928 0.100848 -0.112981 -0.241507 0.143735 0.079680 -0.435837 0.004499 0.053194 -0.130796 0.251631 -0.090026 0.162609 -0.103401 0.166639 0.082992 0.074829 0.022804 0.077996 -0.341803 -0.023895 0.194294 0.073937 -0.107907 -0.117731 -0.254170 -0.001805 0.106105 0.229027 -0.049469 0.170337 -0.023588 -0.009870 -0.036271 -0.006728 -0.038796 0.132931 0.055750 -0.042623 -0.153866 0.100739 0.085597 0.003927 -0.127198 -0.032403 0.031815 
aWynneHsu 0.084626 -0.189830 0.071856 0.006135 0.132273 0.166650 -0.018732 0.014248 -0.022653 -0.061377 -0.069658 -0.054626 0.142377 -0.198408 -0.121631 -0.068960 -0.015749 -0.177853 -0.007110 0.054062 0.090368 -0.128457 0.131427 -0.184942 0.235129 -0.312441 0.017432 0.237028 0.059535 -0.070754 0.059912 -0.006472 0.019494 0.121741 -0.143150 -0.114357 -0.060225 -0.195078 -0.152871 0.103964 -0.026679 0.024317 -0.077776 0.235690 -0.196720 0.270669 -0.039383 -0.065457 -0.161687 -0.130728 0.323573 -0.090843 0.173769 -0.088714 -0.183863 -0.120685 0.104904 -0.081085 0.092714 0.146825 -0.398148 -0.019717 -0.171554 0.061553 -0.008454 -0.034917 0.094358 -0.078725 0.054527 -0.073666 0.097814 -0.024009 0.042076 -0.117870 -0.147621 0.067211 0.117172 0.188958 -0.123554 0.002628 0.172285 0.070754 -0.372261 0.014313 -0.074564 -0.076071 0.169215 -0.074811 -0.417064 -0.065916 0.126059 -0.196461 -0.034736 0.052622 -0.086784 -0.089891 0.059735 -0.261899 0.198177 -0.057603 0.321206 -0.329233 0.069613 0.076227 -0.163729 -0.006019 -0.131063 -0.179570 -0.035331 0.027090 -0.007026 -0.077839 -0.080675 0.239095 0.030922 0.033537 0.019046 -0.032363 0.020184 -0.079732 -0.012541 -0.194076 0.114099 0.065265 -0.049231 0.004753 0.011277 -0.014224 
aDavidCarmel -0.200568 -0.001395 0.072670 -0.110612 -0.007578 0.052194 0.021051 -0.085914 -0.128111 -0.097448 -0.252895 -0.089627 -0.165406 -0.154383 -0.015275 -0.048924 0.063186 0.043002 0.109613 0.193454 -0.086702 0.210952 -0.046973 0.049979 -0.041818 -0.440511 0.086298 0.185166 -0.132758 -0.147801 0.148335 -0.203231 0.105715 -0.022883 0.139007 -0.022737 0.013997 0.044422 0.137521 -0.023614 0.255398 -0.035241 -0.028148 0.061546 -0.019700 0.025106 0.124374 -0.084317 -0.064011 -0.048139 0.038890 -0.258780 0.212268 -0.052858 0.032998 -0.025493 0.007255 -0.010890 0.111894 -0.110882 -0.208348 0.019825 -0.213013 -0.043913 0.113558 -0.079725 -0.121255 0.088392 -0.138122 -0.168744 0.132688 -0.083555 -0.005824 -0.064646 -0.068744 0.183385 0.092484 0.046486 -0.104090 -0.330876 0.020360 0.065056 -0.446667 -0.154020 -0.090228 -0.130385 0.022140 0.159818 -0.390710 0.104097 0.223144 -0.183505 0.065025 0.031996 0.122444 -0.046765 -0.290336 -0.031939 0.147869 -0.117513 0.267783 -0.281922 0.124537 0.113649 -0.127693 -0.155561 0.031177 -0.123845 0.086148 -0.087163 -0.073954 -0.078418 -0.080511 -0.010809 0.160124 -0.016187 -0.036884 0.190425 0.094348 0.150708 -0.086547 -0.334998 0.010087 -0.048210 0.041968 -0.020533 0.215419 0.114006 
aHongCheng -0.144036 -0.148995 0.137280 -0.071190 -0.062299 0.119330 0.057653 -0.090457 0.061632 0.025722 -0.048581 -0.039719 -0.013562 -0.038713 0.074871 -0.053034 0.030218 0.098220 -0.007747 0.023774 -0.005032 -0.132046 0.203681 -0.145031 0.016364 -0.260138 -0.046391 -0.125681 0.013735 0.086024 -0.134854 -0.201479 0.125712 -0.022958 -0.053669 -0.030947 -0.066645 -0.170496 0.007247 0.094744 -0.112086 -0.036625 0.206912 -0.049855 -0.033645 0.057781 0.135342 0.256473 0.053693 -0.052019 0.046280 0.032928 0.202069 0.027270 0.133294 -0.003241 0.212314 0.180683 -0.062096 0.020567 -0.242889 -0.046263 -0.076595 -0.011651 0.015907 -0.120266 0.056628 0.027344 -0.135475 -0.153718 -0.054162 -0.092688 0.041076 -0.016978 0.117281 0.080340 0.013427 0.048518 0.018725 -0.006526 0.207429 -0.002662 -0.412275 0.050743 -0.218454 -0.122745 0.027275 -0.017300 -0.443046 -0.024146 0.058830 -0.284029 0.152194 0.051006 0.089965 -0.062765 0.094348 -0.302303 0.053450 0.080031 0.101565 -0.417306 0.036633 -0.005828 -0.010752 -0.206347 0.078080 0.066643 -0.108333 0.099108 0.128626 -0.031643 0.012132 0.041065 0.102798 -0.055444 0.031514 -0.135711 0.353394 0.023658 -0.191659 -0.149836 0.328226 0.083635 0.174106 0.056944 -0.130351 0.138560 
aNarenRamakrishnan -0.097822 -0.099184 0.013370 -0.129011 -0.022633 -0.088553 -0.087204 0.036827 0.124031 0.103365 -0.022030 0.099961 0.016037 -0.092083 -0.013843 0.067905 0.149721 0.123154 0.018155 -0.110916 0.037949 -0.036740 0.157779 -0.192785 -0.069945 -0.290571 -0.197886 -0.006871 -0.068203 0.130959 0.012129 -0.224561 0.036783 0.033269 -0.291769 -0.229211 0.128473 -0.193720 -0.310668 0.193417 -0.301029 0.135037 0.119664 0.192364 -0.097632 0.281934 0.238617 0.027876 0.050226 -0.186768 0.295048 -0.183221 0.215945 0.015429 -0.064840 0.004149 0.017156 0.055793 -0.154508 0.085756 -0.335597 -0.061867 0.007405 -0.073072 -0.215429 0.042215 0.134832 -0.093101 -0.223686 -0.255634 0.005370 0.011610 0.014213 0.010979 0.035620 0.165158 0.199237 -0.060613 -0.170119 -0.091948 0.067020 0.007465 -0.348274 0.057616 -0.028306 -0.138702 -0.026556 0.312153 -0.416815 -0.088462 0.000867 -0.059546 0.163101 -0.084752 -0.059867 -0.147278 0.060485 -0.189389 -0.052668 0.171429 0.092223 -0.385470 -0.214834 -0.135135 0.056103 -0.137637 0.211003 -0.131847 0.067815 0.045762 0.030698 -0.130359 -0.136227 -0.027575 0.157555 0.214941 -0.175449 -0.289744 0.011261 -0.091177 0.126713 0.029974 0.034956 -0.019076 0.010521 0.000673 -0.020729 0.069622 
aAixinSun -0.171788 0.012590 -0.115664 0.006888 0.047335 -0.148631 0.080599 -0.128830 -0.195726 0.027560 -0.094854 -0.023680 -0.027504 -0.127726 -0.007056 0.003509 0.009096 -0.061536 0.019878 0.241518 0.162933 0.020776 0.208458 0.058710 0.323122 -0.490928 0.073951 0.358744 -0.101023 -0.015362 0.251136 -0.275668 -0.065206 0.042538 0.109457 0.129663 0.089228 0.024535 0.124620 0.159391 0.127986 0.116982 -0.080720 0.041871 -0.063532 -0.019997 0.025586 -0.016310 -0.025447 -0.252096 0.068830 -0.249620 0.241757 -0.044772 -0.049012 -0.149327 0.138877 -0.018296 -0.023507 -0.237510 -0.331678 -0.054210 -0.235484 -0.070065 0.190231 -0.084954 0.022053 0.166733 0.003904 -0.090457 0.002554 -0.043294 -0.182738 -0.180077 0.075134 0.055695 -0.155678 -0.138742 -0.095846 -0.415926 0.115739 0.002435 -0.398642 0.010063 -0.168167 -0.133722 -0.091593 0.200915 -0.182783 0.115538 0.171459 -0.047640 0.068072 -0.065771 0.117316 -0.032283 -0.010496 -0.166262 0.223096 -0.019383 0.149600 -0.343303 0.004550 0.121680 -0.134589 -0.018624 -0.099169 -0.079203 0.224606 -0.069801 -0.041854 -0.012232 0.072796 0.202010 0.084239 -0.099013 0.118732 0.130939 -0.007815 0.165115 -0.104014 -0.161593 0.014224 0.025471 -0.022613 0.066581 0.105063 0.112679 
aPaulN.Bennett -0.022291 -0.000541 -0.003033 -0.039574 -0.025651 -0.008845 -0.137826 -0.072942 -0.094903 0.062018 -0.156275 0.022612 -0.134201 -0.058605 0.004301 0.129097 -0.046622 0.034213 0.195365 -0.041489 0.102216 0.176076 0.116221 -0.007213 0.060782 -0.456451 0.070571 0.299806 -0.105787 -0.054708 -0.015042 -0.146055 -0.080017 0.104317 -0.020606 -0.291005 -0.045405 0.033144 -0.049233 -0.021068 0.125485 0.099899 -0.029716 0.103808 -0.079899 0.042120 0.114968 -0.089712 -0.061443 0.004924 0.119680 -0.262189 0.348761 0.045365 -0.046859 0.007609 0.142458 -0.014262 -0.002862 -0.060926 -0.346968 -0.011037 -0.119159 0.037964 0.125751 0.095854 -0.102532 -0.060271 -0.252064 -0.147098 0.152998 -0.182608 0.052810 0.004422 -0.058319 0.239650 -0.016665 -0.053579 -0.133993 -0.427890 0.087316 0.180806 -0.538193 -0.138475 -0.056776 -0.018771 0.005639 0.123177 -0.205407 0.047911 0.133819 -0.052693 0.111883 0.152450 -0.051859 -0.085592 -0.310075 -0.173452 0.155311 -0.027787 0.272511 -0.330048 0.074766 -0.169464 0.024010 -0.105683 -0.057149 -0.102837 0.047958 -0.163979 -0.113737 -0.014626 -0.075303 0.017022 0.065547 0.149229 0.100781 -0.030832 0.048675 0.002569 0.152360 -0.119972 0.133740 -0.091868 0.098047 -0.128999 0.102617 0.208862 
aJamieCallan -0.185415 0.007306 -0.007540 -0.254416 -0.041386 0.074015 0.021917 -0.132018 -0.243775 -0.198151 -0.407132 -0.075601 -0.182104 -0.262941 0.040956 -0.141308 -0.026747 0.142334 0.003782 0.020584 0.031212 0.113190 -0.110973 -0.027578 0.076171 -0.464809 0.055469 0.354073 -0.085690 -0.108889 -0.002181 -0.118992 0.054539 0.078159 0.056658 -0.088696 0.061776 0.164816 0.178870 -0.086626 0.281309 0.161434 -0.077265 -0.072180 -0.095672 0.077616 0.152108 -0.086339 0.068996 0.050223 0.275173 -0.309216 0.400122 -0.098866 0.060593 -0.163881 0.073014 0.105395 0.057615 -0.030190 -0.298597 0.030622 -0.198837 0.245764 0.016384 -0.100776 0.142581 0.034747 -0.179083 -0.040028 0.095244 -0.195712 -0.043739 -0.030770 0.011712 0.185397 0.010330 -0.065738 -0.020169 -0.460289 -0.114672 0.232874 -0.460827 -0.313144 -0.029372 -0.218745 -0.116237 0.145944 -0.272112 0.062088 0.268936 -0.240767 0.061514 0.072472 0.044873 -0.084122 -0.326082 -0.061732 -0.021592 0.003047 0.172405 -0.246094 -0.041751 -0.007148 -0.199023 0.008360 -0.200073 -0.086206 0.131719 -0.018162 -0.057723 -0.158071 -0.091317 0.253514 0.277692 0.026932 0.031180 0.072751 -0.022125 0.249640 -0.032023 -0.165602 -0.071301 0.041573 -0.108252 -0.068573 0.218218 0.154019 
aRalfSchenkel -0.106926 0.032305 0.053455 -0.065088 0.152713 0.089479 0.214087 -0.007865 -0.029937 -0.117551 -0.068406 0.072807 -0.094770 -0.053500 0.111187 -0.029767 -0.092219 -0.122856 -0.002096 0.177386 0.123156 -0.135777 0.128291 -0.180815 0.006515 -0.497549 0.129566 0.314946 -0.065908 -0.196390 -0.000555 -0.088852 0.003852 0.030046 0.090383 -0.075778 -0.053493 0.027270 0.088597 0.083906 0.115970 0.090893 0.119452 0.197403 -0.126368 0.054097 0.006946 0.060522 -0.140453 -0.111098 0.001907 -0.091258 0.236032 -0.033642 -0.022662 -0.082878 0.089400 0.055117 0.123766 0.013545 -0.230891 0.079801 -0.234325 0.015292 0.131613 -0.047995 0.101493 0.038912 -0.048685 -0.198597 0.041059 -0.001059 -0.127687 0.043391 -0.069339 -0.059029 -0.043667 -0.000674 -0.153177 -0.218250 0.035010 0.001624 -0.557842 0.014348 -0.128987 -0.255688 0.123227 -0.058298 -0.301842 0.151675 0.222195 -0.135214 -0.073000 0.057460 0.033665 0.033951 -0.075069 -0.098247 0.076233 -0.259040 0.114518 -0.327453 0.022406 0.188975 -0.098883 -0.035760 -0.013392 -0.231482 0.007190 -0.105627 0.163014 0.006414 0.076739 0.195860 -0.057806 -0.044916 0.105672 -0.118386 0.105437 -0.059894 -0.116565 -0.187276 0.153744 0.121335 -0.119667 -0.238790 0.089825 0.024735 
