52 128
</s> 0.003127 0.003453 -0.002992 -0.002561 0.001068 0.002360 0.000735 0.000165 -0.002815 0.001733 -0.003403 0.000976 -0.000587 -0.000748 -0.002590 -0.001470 0.002015 0.002364 0.002320 0.001248 0.001207 -0.002971 -0.003200 0.003883 0.002970 0.002414 -0.000472 0.003137 -0.000387 0.000574 -0.000117 -0.002331 0.001025 -0.001045 -0.002989 0.003714 0.003421 -0.000856 -0.000177 0.000398 -0.002842 -0.003131 0.003558 0.000049 -0.002017 -0.002377 -0.002403 0.001326 0.000157 0.001040 -0.003292 -0.002975 -0.000102 0.000893 0.001992 -0.002477 0.003187 0.000724 0.000875 -0.000475 0.002333 -0.001787 -0.001639 0.001686 -0.000588 0.000805 0.001410 -0.003194 -0.001549 0.002276 0.003306 0.003072 -0.002380 -0.001647 -0.000710 0.001564 -0.002960 0.002342 0.002178 -0.001249 -0.001212 -0.001749 0.003304 0.003056 -0.000922 0.003293 0.003766 0.001418 0.003893 -0.002431 -0.001197 -0.001646 -0.002271 0.002199 0.001234 0.000332 -0.001714 0.001191 0.002390 0.000151 0.001781 -0.003869 0.003371 0.000375 -0.001431 -0.001628 -0.000584 -0.002293 -0.003414 -0.002216 0.003341 -0.001383 -0.002093 0.001810 -0.001331 0.003716 -0.001254 -0.003585 0.002122 -0.000058 -0.002726 0.000762 0.001127 -0.000376 0.001425 -0.003092 0.000688 0.001419 
vknowledgediscoveryanddatamining -0.052292 -0.162899 0.374676 -0.082142 -0.013142 0.216550 0.120992 0.424113 0.013104 -0.101260 -0.070233 0.425472 0.057421 0.124340 -0.287058 0.057159 0.213289 -0.395991 -0.673701 0.054730 0.062278 -0.384517 0.134477 -0.373787 -0.328141 0.171373 -0.367828 0.183829 -0.058824 -0.202018 0.149632 -0.171385 0.076371 -0.174115 0.038276 0.158941 -0.126208 -0.065743 0.127370 0.113497 -0.056071 -0.008246 -0.051553 -0.012379 -0.139291 -0.013760 0.009369 0.189724 -0.054796 -0.018478 0.125297 -0.031912 0.042870 0.012843 -0.000241 0.042990 0.019379 -0.072667 -0.063486 0.206221 0.138997 -0.003921 -0.043940 -0.070247 -0.502465 -0.203753 0.334104 0.097072 0.069745 -0.047320 0.072254 0.780425 -0.308939 -0.097651 -0.201937 -0.156764 -0.024331 0.037464 0.273234 -0.160106 -0.225437 0.082248 0.507163 -0.519361 -0.117807 -0.372930 -0.218334 0.054124 0.290384 -0.259707 0.547050 0.172706 0.143478 0.064275 -0.131943 0.075718 -0.050123 0.162610 0.390486 0.110630 -0.475656 0.335167 -0.001850 -0.344591 -0.028489 -0.071269 0.111179 -0.240474 -0.008377 -0.190478 -0.140168 -0.074254 -0.188437 0.167034 0.111748 -0.052426 -0.250637 -0.063867 0.030788 0.274078 0.081944 0.086538 0.125985 -0.284080 0.096655 -0.070161 0.422352 -0.415665 
vinternationalworldwidewebconferences -0.090400 -0.217928 0.376288 -0.077825 -0.025910 0.254116 0.112879 0.431128 0.027561 -0.099534 -0.083701 0.408944 0.076538 0.112312 -0.295123 0.058308 0.192154 -0.411630 -0.653748 0.049134 0.043646 -0.330561 0.118331 -0.365374 -0.332629 0.181897 -0.338108 0.187082 -0.081878 -0.179492 0.131137 -0.149459 0.059311 -0.169742 0.083298 0.221050 -0.144035 -0.031433 0.167648 0.144836 -0.083178 0.026327 -0.056012 -0.025802 -0.130010 -0.024290 0.020301 0.214036 -0.075435 -0.022514 0.120006 -0.049200 0.062127 0.025302 -0.012238 0.061995 0.066582 -0.049446 -0.033074 0.234783 0.139167 -0.008061 -0.061944 -0.074072 -0.499727 -0.197240 0.340415 0.141097 0.067426 -0.067457 0.057232 0.741032 -0.332852 -0.087153 -0.211609 -0.152710 -0.037326 -0.006142 0.244902 -0.097253 -0.241830 0.128722 0.572736 -0.605893 -0.121320 -0.373625 -0.247862 0.026625 0.295483 -0.221329 0.534161 0.098844 0.181693 0.020925 -0.130549 0.136305 -0.064617 0.154937 0.391067 0.107827 -0.458175 0.312810 0.012185 -0.374649 -0.024090 -0.076181 0.100211 -0.183394 -0.027823 -0.180787 -0.116386 -0.073267 -0.188921 0.169466 0.093578 -0.030300 -0.224592 -0.037562 0.018136 0.277577 0.070055 0.078143 0.123754 -0.279697 0.090892 -0.083235 0.440409 -0.394359 
aChristosFaloutsos 0.104605 0.085552 0.063293 -0.038006 0.058459 0.162521 0.070845 -0.023840 0.039780 0.020582 0.032518 0.204221 0.096783 -0.050157 -0.099083 0.013746 0.175462 -0.120332 -0.165059 -0.029274 0.077626 -0.126277 0.099388 -0.119986 -0.153293 -0.077420 -0.140601 0.076739 -0.038015 -0.044797 0.014942 0.013356 -0.018689 0.057578 -0.047156 0.102705 -0.178730 0.053647 0.074294 0.052071 -0.014511 -0.095587 0.036163 0.037328 0.112925 -0.073137 -0.116733 0.113898 -0.013556 0.119033 0.127012 0.004833 0.030015 0.118322 0.148257 0.262566 -0.116334 -0.107156 -0.154058 -0.061622 0.035315 -0.002783 0.073675 -0.041486 0.202688 0.156813 -0.141935 0.004594 -0.068267 0.064741 0.000618 -0.360506 0.179233 -0.006332 0.122589 0.093400 -0.020919 0.057886 -0.086098 0.096419 0.056667 -0.030752 -0.489101 0.378126 0.071466 0.205444 0.171966 0.051445 -0.261138 0.141822 -0.356953 -0.132970 -0.072037 -0.071165 0.103002 0.008599 0.151734 -0.200775 -0.405432 -0.135638 0.436021 -0.435212 -0.071508 0.466946 -0.049861 0.086706 -0.179213 0.274902 -0.026515 0.197766 0.118866 0.100512 0.153584 -0.135234 -0.072398 -0.031252 0.145000 0.054986 0.033976 -0.310889 -0.096272 -0.154403 -0.076989 0.155184 -0.087249 0.185764 -0.378949 0.311588 
vinternationalconferenceondatamining -0.051757 -0.180644 0.397238 -0.090283 -0.005573 0.273479 0.136566 0.387968 0.039726 -0.109972 -0.062907 0.481291 0.074092 0.093192 -0.282383 0.034987 0.181689 -0.431443 -0.699922 0.075929 0.065959 -0.370735 0.181969 -0.380556 -0.308337 0.170305 -0.347930 0.191264 -0.052822 -0.174394 0.134847 -0.120636 0.049088 -0.130062 0.091765 0.239140 -0.126912 -0.057333 0.147845 0.144987 -0.101965 0.081689 -0.055372 -0.039220 -0.137234 -0.034306 0.031224 0.240542 -0.075187 -0.046893 0.077868 -0.046963 0.099574 0.001073 0.007792 0.068621 0.029718 -0.040981 -0.017634 0.219895 0.143324 -0.002585 -0.089465 -0.056128 -0.457019 -0.167055 0.292439 0.096725 0.059785 -0.019550 0.092950 0.720675 -0.303975 -0.104763 -0.190507 -0.157636 -0.050560 0.057489 0.250021 -0.120800 -0.249994 0.105664 0.423230 -0.541964 -0.097628 -0.324362 -0.176977 0.071417 0.259357 -0.246160 0.515809 0.167021 0.139629 0.057399 -0.101848 0.087664 -0.085944 0.169934 0.436802 0.137647 -0.539786 0.356181 0.005669 -0.387438 -0.050196 -0.081534 0.143526 -0.306962 -0.025270 -0.192527 -0.122002 -0.083259 -0.242904 0.206194 0.105786 -0.046212 -0.241500 -0.060969 0.028572 0.269419 0.116017 0.103257 0.116221 -0.303716 0.072218 -0.097796 0.415670 -0.402523 
aJiaweiHan 0.017543 0.016450 0.074228 -0.038127 0.050856 0.122233 0.034227 0.011227 0.014981 -0.003551 0.031515 0.171535 0.074781 -0.019430 -0.076072 -0.010462 0.150197 -0.149304 -0.201953 -0.007259 0.043997 -0.104478 0.081608 -0.084375 -0.155053 -0.103832 -0.152954 0.098218 -0.009475 -0.060048 0.056038 0.032768 0.029311 -0.005239 -0.071108 0.084212 -0.181710 0.034949 0.036623 0.036271 -0.055692 -0.132690 0.032560 0.047735 0.109042 -0.046071 -0.119006 0.092399 -0.020607 0.122129 0.136968 -0.001575 0.026108 0.092253 0.140735 0.212561 -0.116752 -0.058639 -0.100242 -0.083777 0.008128 0.027183 0.063801 0.010843 0.161395 0.122994 -0.077749 -0.030756 -0.084689 0.070805 0.017055 -0.383548 0.126893 -0.045240 0.098209 0.085833 -0.026317 0.121568 -0.101515 0.088492 0.056732 -0.015379 -0.495939 0.360216 0.058873 0.184444 0.196855 0.057051 -0.312971 0.157022 -0.304728 -0.152181 -0.137092 -0.084147 0.100820 0.032643 0.125934 -0.191309 -0.361469 -0.142765 0.480648 -0.460974 -0.060827 0.507069 -0.068129 0.090179 -0.140737 0.319380 -0.003537 0.203427 0.158991 0.028447 0.214930 -0.155588 -0.029844 -0.041447 0.149437 0.000650 0.002459 -0.282150 -0.131310 -0.156633 -0.080314 0.184600 -0.142227 0.208906 -0.338196 0.296261 
vinternationalconferenceondataengineering -0.033172 -0.094990 0.283329 -0.054447 -0.075866 0.196794 0.155577 0.378069 -0.026393 -0.087657 -0.043313 0.400499 0.031814 0.140671 -0.265570 0.069355 0.286820 -0.334934 -0.623392 0.016074 0.100140 -0.402739 0.093604 -0.386631 -0.391963 0.186265 -0.399970 0.177326 -0.049544 -0.177185 0.126989 -0.129385 0.048581 -0.146972 0.034439 0.257199 -0.147199 -0.064708 0.188630 0.119430 -0.086251 -0.042365 -0.075505 0.050211 -0.129553 -0.059243 -0.060733 0.278559 -0.077958 0.005591 0.192761 -0.022266 0.053661 0.039048 0.051224 0.123665 -0.059466 -0.174506 -0.079220 0.221043 0.158716 -0.003338 -0.038706 -0.063859 -0.451720 -0.196684 0.345008 0.105863 0.073157 -0.059963 0.028255 0.665091 -0.281732 -0.090539 -0.183454 -0.130780 -0.006600 0.014940 0.256707 -0.134417 -0.205454 0.082164 0.680398 -0.512548 -0.093801 -0.218853 -0.139233 0.094344 0.373297 -0.218531 0.478282 0.142721 0.142287 0.086975 -0.070377 0.055056 -0.014887 0.186045 0.363452 0.105636 -0.555771 0.440163 -0.025459 -0.404233 0.011618 -0.096675 0.059860 -0.224776 0.009663 -0.265530 -0.190599 -0.081774 -0.206933 0.160391 0.060582 -0.036102 -0.284389 -0.043844 0.028948 0.307144 0.099223 0.119054 0.138024 -0.280900 0.154297 -0.102745 0.439952 -0.436759 
aWeiWang 0.054954 0.080306 0.091734 -0.027251 0.026429 0.110326 0.097734 -0.009215 -0.080489 -0.036785 0.012890 0.181389 0.023649 0.026320 -0.077243 -0.008697 0.117086 -0.104938 -0.186407 0.044807 0.074425 -0.141745 0.054461 -0.058063 -0.179075 -0.086253 -0.231923 0.088331 -0.016892 -0.040225 0.028106 0.088218 -0.111467 0.175729 -0.049164 0.074368 -0.113036 0.079683 0.089915 0.025382 -0.053662 -0.134705 0.044227 0.128629 0.176448 -0.105448 -0.168887 0.097345 0.036946 0.140130 0.128796 0.041844 0.029249 0.159850 0.194975 0.330282 -0.208488 -0.091878 -0.080351 -0.135563 -0.027006 -0.056642 0.036428 -0.073044 0.216012 0.153081 -0.102851 -0.090314 -0.073244 0.063178 -0.014635 -0.457462 0.146472 -0.083141 0.112804 0.103416 0.008238 0.059379 -0.110387 0.043172 0.065084 -0.011184 -0.447170 0.338906 0.068940 0.201866 0.205127 0.086808 -0.270464 0.178973 -0.316270 -0.151953 -0.067964 -0.039271 0.118678 0.000500 0.119144 -0.219879 -0.401513 -0.071534 0.463922 -0.429596 -0.105991 0.417410 0.022519 0.083942 -0.132321 0.181038 -0.049282 0.180358 0.116419 0.124516 0.128446 -0.131964 -0.060571 -0.069574 0.176730 0.048574 0.037959 -0.327628 -0.086188 -0.108241 -0.051834 0.171811 -0.044817 0.138469 -0.415201 0.332210 
vverylargedatabases -0.021265 -0.050775 0.299456 -0.062858 -0.070180 0.236033 0.162010 0.408543 -0.040524 -0.097762 -0.044278 0.460565 0.034950 0.158439 -0.291929 0.063001 0.261358 -0.337598 -0.634256 0.047274 0.097480 -0.416261 0.103239 -0.396500 -0.349596 0.173922 -0.356242 0.168173 -0.039884 -0.155156 0.107742 -0.127110 0.096162 -0.181721 0.066187 0.262354 -0.136752 -0.115417 0.190856 0.124359 -0.090306 0.070062 -0.095329 0.035037 -0.162053 -0.043122 -0.029885 0.322419 -0.098030 -0.059910 0.147471 -0.007501 0.084629 -0.020922 0.032789 0.077320 -0.043943 -0.165481 -0.041346 0.280986 0.182748 0.003749 -0.075313 -0.047487 -0.432071 -0.189352 0.327696 0.079392 0.068314 -0.040797 0.041783 0.688219 -0.271315 -0.096332 -0.192268 -0.143673 -0.006549 0.028245 0.272548 -0.158223 -0.232525 0.086871 0.639637 -0.498362 -0.081590 -0.190840 -0.113715 0.081749 0.363317 -0.230859 0.436165 0.191482 0.081383 0.101663 -0.070364 0.021169 -0.022639 0.160220 0.344642 0.110587 -0.550502 0.447507 -0.014789 -0.401331 -0.007547 -0.091999 0.098460 -0.317850 -0.004159 -0.261922 -0.183711 -0.086839 -0.226650 0.186302 0.062391 -0.003019 -0.261842 -0.038183 0.039255 0.270739 0.144136 0.144012 0.140512 -0.310005 0.147756 -0.120695 0.390098 -0.391550 
aJureLeskovec 0.069162 0.006803 0.038909 0.015261 0.065095 0.168007 0.045555 -0.012072 0.053169 0.010884 -0.008721 0.110296 0.095839 -0.043799 -0.080007 0.012463 0.196399 -0.135027 -0.104999 -0.065002 0.058926 -0.134602 0.080870 -0.141091 -0.207031 -0.129025 -0.189851 0.099573 -0.087449 -0.093406 0.038305 0.025766 -0.046481 0.080068 0.003506 0.125440 -0.109960 0.087119 0.089017 0.063375 -0.068826 -0.141948 0.030451 0.066815 0.100345 -0.018008 -0.082998 0.081726 0.001890 0.134280 0.172475 -0.000246 -0.014331 0.138511 0.085533 0.199203 -0.079545 -0.064703 -0.138589 -0.098759 0.009647 -0.015720 0.030507 -0.067753 0.189881 0.123788 -0.090460 -0.000525 -0.069939 0.023271 -0.001254 -0.327059 0.183797 -0.000426 0.119593 0.125245 -0.035954 0.036346 -0.070124 0.095505 0.092603 -0.025618 -0.624591 0.367984 0.046483 0.110894 0.120324 0.027882 -0.360871 0.169803 -0.313247 -0.196076 -0.074335 -0.101571 0.042190 0.012524 0.121602 -0.225313 -0.324267 -0.122413 0.430315 -0.471175 -0.075614 0.462993 -0.096868 0.089702 -0.115599 0.273092 -0.013971 0.224112 0.171046 0.061995 0.190122 -0.154819 -0.007772 -0.054985 0.098334 -0.020229 0.039176 -0.294329 -0.147141 -0.184825 -0.071909 0.158596 -0.156292 0.226449 -0.369305 0.311523 
aHanghangTong 0.081517 0.073616 0.103559 -0.050931 0.026238 0.160144 0.074589 0.049054 0.061425 0.036019 0.059643 0.197763 0.119899 -0.029190 -0.139231 0.006184 0.115427 -0.150949 -0.160950 -0.017745 0.036026 -0.085845 0.100153 -0.147349 -0.158242 -0.074349 -0.129339 0.088232 -0.037607 -0.060786 0.068007 0.005632 -0.057555 0.083068 -0.028985 0.106011 -0.129277 0.089214 0.050827 0.053499 -0.045917 -0.120860 0.037183 0.043253 0.097380 -0.058365 -0.108689 0.089207 0.008208 0.173228 0.141213 -0.019839 0.023397 0.111100 0.120913 0.227760 -0.127750 -0.100259 -0.140744 -0.110261 -0.016131 -0.017686 0.053271 -0.049939 0.195098 0.092265 -0.106731 -0.033548 -0.094548 0.023374 -0.013859 -0.441299 0.147703 -0.012869 0.092373 0.099013 -0.008496 0.044626 -0.106219 0.072923 0.088521 0.001226 -0.539859 0.333350 0.074653 0.220017 0.188068 0.070324 -0.366340 0.117813 -0.319735 -0.144387 -0.070435 -0.075186 0.121735 0.006177 0.117499 -0.185432 -0.391243 -0.101341 0.417715 -0.452546 -0.060149 0.409556 -0.047282 0.111171 -0.129828 0.295934 -0.041957 0.179946 0.136496 0.088871 0.186379 -0.164983 -0.068316 -0.068298 0.139352 0.019110 0.035296 -0.287090 -0.130963 -0.126635 -0.086816 0.234638 -0.103794 0.164082 -0.362892 0.313287 
aJianPei 0.144955 0.155023 0.059021 -0.045690 0.076203 0.163920 0.071266 -0.030375 0.000772 0.040688 0.038210 0.192013 0.074308 -0.041699 -0.123125 -0.003888 0.221476 -0.132044 -0.170072 -0.033817 0.095469 -0.173327 0.105056 -0.118281 -0.212495 -0.083762 -0.132938 0.071020 0.001024 -0.069802 0.031975 0.069194 0.003460 0.030040 -0.088167 0.084704 -0.164266 -0.012475 0.047109 0.019770 -0.047029 -0.091332 0.031474 0.065489 0.100129 -0.054223 -0.116235 0.107481 -0.036197 0.134563 0.132094 0.014700 0.059319 0.086851 0.170791 0.254679 -0.175567 -0.121830 -0.105594 -0.062015 0.022164 0.010891 0.074729 0.003429 0.217532 0.133746 -0.108120 -0.012914 -0.061144 0.074196 -0.022370 -0.405302 0.137229 -0.030857 0.094756 0.077885 0.002649 0.054324 -0.130917 0.083681 0.028869 0.005445 -0.294206 0.353315 0.090439 0.318520 0.253329 0.101059 -0.170021 0.190445 -0.407227 -0.139799 -0.165629 -0.060623 0.198107 0.003836 0.168431 -0.157251 -0.402005 -0.151768 0.451068 -0.409099 -0.038957 0.498153 -0.052478 0.075930 -0.157671 0.301531 -0.001401 0.147405 0.102637 0.058260 0.241561 -0.182377 -0.075598 -0.022581 0.154118 0.038988 0.008727 -0.270429 -0.130833 -0.162863 -0.090952 0.217459 -0.106907 0.170872 -0.395146 0.358104 
vdatabasesystemsforadvancedapplications -0.037112 -0.098612 0.344076 -0.043679 -0.052024 0.185254 0.141753 0.478052 -0.058628 -0.165458 -0.040953 0.458686 0.042709 0.212416 -0.344308 0.024474 0.183346 -0.407854 -0.644148 0.139514 0.010327 -0.428219 0.131541 -0.353681 -0.265435 0.216783 -0.322928 0.118542 -0.054431 -0.177405 0.159870 -0.056549 -0.058443 -0.000307 0.101627 0.246549 -0.087000 0.016299 0.235922 0.164538 -0.116482 0.049255 -0.038677 0.056701 -0.080046 -0.060805 -0.010088 0.224029 -0.008515 0.029845 0.140685 0.013812 0.070419 0.083356 0.087734 0.194333 -0.096562 -0.108373 -0.070173 0.126532 0.096921 -0.066426 -0.105925 -0.107055 -0.442985 -0.231599 0.298308 0.067650 0.062394 -0.055657 0.059933 0.703801 -0.304997 -0.123420 -0.201903 -0.125593 -0.001620 -0.027220 0.221504 -0.157742 -0.155415 0.094785 0.421737 -0.515351 -0.088107 -0.271955 -0.178142 0.040533 0.245127 -0.277827 0.503366 0.171214 0.129405 0.090793 -0.099177 0.041523 -0.045732 0.129399 0.402321 0.125980 -0.595759 0.415181 0.013874 -0.443993 -0.043824 -0.063647 0.166761 -0.358643 -0.003882 -0.205208 -0.132603 -0.099860 -0.204607 0.179900 0.129081 -0.019313 -0.268680 -0.110081 0.041990 0.314115 0.127897 0.099943 0.146066 -0.329568 0.085860 -0.101354 0.425281 -0.444913 
aJingGao 0.067010 0.068550 0.122550 -0.060884 0.070281 0.224475 0.063639 -0.003663 0.041976 0.022654 0.050645 0.264098 0.133638 -0.038161 -0.120853 -0.013651 0.097374 -0.153086 -0.172658 -0.006974 0.051343 -0.100233 0.125208 -0.102361 -0.127595 -0.146577 -0.178411 0.138353 -0.020174 -0.059728 0.066605 0.041887 -0.000057 0.046814 -0.059013 0.083119 -0.165312 0.047078 0.050802 0.045576 -0.029492 -0.116023 0.051362 0.055446 0.089761 -0.049867 -0.094673 0.083276 -0.008527 0.139346 0.138712 0.012314 0.030947 0.074671 0.128478 0.197178 -0.154117 -0.108719 -0.139764 -0.107097 0.003172 0.001841 0.069488 -0.032938 0.259844 0.131254 -0.153813 -0.022063 -0.073155 0.061926 -0.010851 -0.421626 0.112855 -0.015537 0.105184 0.058203 -0.001675 0.038130 -0.096391 0.058795 0.089147 -0.063528 -0.490907 0.386866 0.096528 0.264213 0.209815 0.063521 -0.352046 0.161939 -0.371395 -0.155124 -0.095638 -0.073690 0.122491 0.019517 0.078792 -0.173024 -0.366733 -0.112576 0.433028 -0.428591 -0.026589 0.476195 -0.041176 0.108824 -0.106944 0.227211 0.008935 0.194500 0.133763 0.056653 0.165916 -0.118886 -0.057573 -0.003647 0.172400 -0.016410 0.017288 -0.276059 -0.095932 -0.160500 -0.119368 0.234853 -0.101450 0.120037 -0.348479 0.274373 
aFeidaZhu -0.003981 -0.000876 0.109381 -0.082749 -0.007028 0.109568 0.158932 0.040281 -0.108849 -0.065121 0.065021 0.300751 0.060342 0.055443 -0.133952 -0.022418 0.008212 -0.086777 -0.186778 0.093395 0.050903 -0.103990 0.074895 -0.079285 -0.146491 -0.009725 -0.177680 0.032292 -0.011950 -0.001817 0.051889 0.085173 -0.147205 0.164108 -0.011302 0.116666 -0.156045 0.154045 0.103736 0.069484 -0.043965 -0.157438 0.038386 0.076839 0.129489 -0.119597 -0.157186 0.092471 0.031271 0.155211 0.122794 -0.003915 0.026084 0.167762 0.201665 0.321627 -0.146288 -0.077170 -0.086654 -0.110917 -0.066120 -0.061326 0.053747 -0.066974 0.219463 0.124929 -0.107003 -0.099519 -0.080989 0.077877 -0.008394 -0.497323 0.093483 -0.110245 0.067175 0.092590 0.010022 0.079389 -0.148206 0.064490 0.096457 -0.036168 -0.405030 0.371111 0.078477 0.309979 0.245616 0.116359 -0.288095 0.145646 -0.330306 -0.113618 -0.082772 -0.039128 0.177543 0.001756 0.201691 -0.134175 -0.418982 -0.148309 0.536426 -0.367220 -0.051878 0.429911 0.047149 0.061584 -0.131584 0.179481 0.007326 0.186009 0.102562 0.112845 0.108739 -0.124248 -0.038314 -0.076696 0.271624 0.039337 -0.025281 -0.238099 -0.117364 -0.086176 -0.041215 0.183739 -0.040795 0.128686 -0.411825 0.345703 
vpacific-asiaconferenceonknowledgediscoveryanddatamining 0.045862 -0.086253 0.324435 -0.073162 0.032998 0.290101 0.079755 0.375643 0.066192 -0.077497 -0.073842 0.502251 0.113516 0.110955 -0.320924 0.062124 0.221839 -0.347986 -0.548424 0.011296 0.109059 -0.404268 0.147931 -0.404257 -0.340201 0.052735 -0.321221 0.204016 -0.061089 -0.174461 0.095359 -0.151210 0.138325 -0.225440 0.111784 0.265564 -0.151963 -0.115914 0.168383 0.157379 -0.068639 0.147150 -0.074495 -0.018758 -0.175506 -0.010493 0.026216 0.301119 -0.086355 -0.046623 0.102994 -0.023313 0.099826 -0.030730 0.016984 0.068702 -0.002782 -0.098565 -0.020178 0.269443 0.148209 -0.005288 -0.066210 -0.064421 -0.491926 -0.186321 0.336123 0.078063 0.055591 -0.007499 0.086128 0.759120 -0.298519 -0.106018 -0.245149 -0.185027 -0.028152 0.076404 0.321076 -0.179633 -0.335503 0.081661 0.470575 -0.548915 -0.108724 -0.338968 -0.209463 0.069149 0.264110 -0.314747 0.594884 0.225657 0.081176 0.063160 -0.119424 0.040126 -0.066882 0.160005 0.369702 0.127132 -0.566109 0.422972 -0.024365 -0.366497 -0.045387 -0.063694 0.091470 -0.279078 -0.016877 -0.199918 -0.174886 -0.057067 -0.202755 0.190680 0.083844 -0.031986 -0.217254 -0.033362 0.052812 0.203910 0.100565 0.090510 0.111541 -0.296915 0.084010 -0.028201 0.311631 -0.328871 
vinternationalacmsigirconferenceonresearchanddevelopmentininformationretrieval -0.121606 -0.307339 0.306551 -0.069264 0.010532 0.307961 0.080159 0.406130 0.075966 -0.089785 -0.108541 0.382450 0.118425 0.036265 -0.327216 0.063063 0.092625 -0.362812 -0.537485 0.043408 0.051253 -0.423083 0.199364 -0.491334 -0.217238 0.212730 -0.194003 0.131987 -0.078135 -0.196197 0.162087 -0.156185 0.117206 -0.253934 0.108432 0.362918 -0.226950 -0.018838 0.220180 0.195826 -0.082249 0.105754 -0.057514 -0.060017 -0.146292 -0.074091 0.002560 0.323439 -0.125547 -0.047397 0.068022 -0.099374 0.121765 0.013750 -0.017022 0.098519 0.178689 -0.016709 0.057595 0.323025 0.124457 0.000911 -0.062312 -0.062741 -0.514107 -0.172493 0.344121 0.165522 0.039099 -0.015724 0.121044 0.799821 -0.337248 -0.128506 -0.240528 -0.170886 -0.084342 0.125858 0.288303 -0.027966 -0.339293 0.142145 0.442928 -0.534850 -0.143001 -0.378526 -0.235527 0.039981 0.174484 -0.198215 0.510158 0.063169 0.109280 -0.028574 -0.138067 0.177099 -0.071280 0.104177 0.390676 0.151116 -0.536315 0.290576 -0.061425 -0.373957 -0.064811 -0.074878 0.063934 -0.179970 -0.082874 -0.227470 -0.134786 -0.061368 -0.271383 0.214607 0.034387 -0.041835 -0.297365 -0.004566 0.062864 0.289318 0.092717 0.069292 0.102685 -0.281487 0.115319 -0.083100 0.468765 -0.440931 
aXifengYan 0.088875 0.103652 0.041728 -0.018176 0.049310 0.113275 0.071286 -0.026963 -0.027135 -0.011832 0.007298 0.087097 0.031791 -0.016080 -0.058590 0.003666 0.188728 -0.093583 -0.139030 -0.020629 0.071755 -0.168954 0.063943 -0.107527 -0.176623 -0.039765 -0.152584 0.053787 -0.020175 -0.064176 0.026089 0.049355 -0.031241 0.083809 -0.077258 0.138620 -0.158547 0.002857 0.078472 0.024091 -0.089517 -0.140372 0.027762 0.133686 0.154691 -0.079493 -0.163481 0.149345 -0.024131 0.163717 0.182781 0.035221 0.049996 0.123937 0.176140 0.290157 -0.224235 -0.142488 -0.109124 -0.111272 0.006721 -0.013328 0.045594 -0.016402 0.207012 0.115089 -0.073986 -0.001929 -0.065470 0.033541 -0.036242 -0.367648 0.120966 -0.027764 0.084683 0.090884 -0.006845 0.040654 -0.083463 0.084699 0.051599 0.003382 -0.268804 0.322187 0.057623 0.223504 0.206132 0.087662 -0.207651 0.149550 -0.331230 -0.144508 -0.145378 -0.069076 0.127102 0.019816 0.189629 -0.169632 -0.383279 -0.150638 0.477275 -0.426967 -0.059880 0.507087 -0.071993 0.067546 -0.180168 0.300403 0.002521 0.177149 0.124577 0.065025 0.248076 -0.195389 -0.061228 -0.032129 0.169613 0.050176 0.001749 -0.304735 -0.152577 -0.201766 -0.072998 0.204031 -0.093073 0.201821 -0.410321 0.382215 
aLemanAkoglu 0.083952 0.074987 0.130077 -0.057810 0.082988 0.175755 0.026742 -0.010542 0.082490 0.054084 0.033271 0.257713 0.084300 -0.071228 -0.069521 -0.006138 0.172697 -0.155739 -0.222606 -0.028726 0.065865 -0.070373 0.111399 -0.051212 -0.128989 -0.165207 -0.170063 0.143198 0.008646 -0.058105 0.039604 0.004311 0.057954 -0.001552 -0.088343 -0.003848 -0.173365 -0.009685 -0.000769 0.024922 -0.031466 -0.089614 0.055685 0.020921 0.077681 -0.036876 -0.094360 0.099285 0.003509 0.100101 0.110014 0.018782 0.032548 0.037595 0.134951 0.150541 -0.134624 -0.067081 -0.145786 -0.050601 0.047032 0.029944 0.088338 -0.016644 0.138140 0.156368 -0.113173 -0.054788 -0.072620 0.120352 0.033049 -0.389294 0.134949 -0.046273 0.119291 0.052370 -0.016327 0.144294 -0.109760 0.051786 0.016411 -0.047185 -0.573703 0.369435 0.074962 0.192469 0.218958 0.050513 -0.307522 0.160423 -0.331095 -0.133541 -0.122862 -0.067720 0.079511 0.015482 0.111532 -0.236531 -0.421710 -0.126777 0.435560 -0.447895 -0.079835 0.493957 -0.028843 0.089328 -0.126974 0.248693 -0.023413 0.172213 0.129902 0.047439 0.175418 -0.134561 -0.054130 -0.042108 0.118471 0.017070 0.028205 -0.307620 -0.069178 -0.120073 -0.100669 0.189051 -0.119867 0.158195 -0.385886 0.302682 
aLeiLi -0.037389 -0.076688 0.083376 -0.057880 0.065687 0.255452 0.043623 0.012207 0.057263 0.005311 0.030005 0.247556 0.137941 -0.052590 -0.140871 -0.007697 0.026454 -0.116777 -0.185877 0.016433 0.055141 -0.063924 0.080511 -0.099616 -0.104687 -0.048271 -0.108901 0.101450 -0.062736 -0.023459 0.019493 0.042186 -0.031021 0.037186 -0.045384 0.128969 -0.227367 0.107508 0.097017 0.084570 -0.031787 -0.173291 0.068661 0.023295 0.119203 -0.101420 -0.129296 0.118590 -0.008494 0.146208 0.122812 -0.016920 0.014217 0.120378 0.137772 0.222103 -0.045999 -0.051472 -0.115596 -0.064322 -0.036386 -0.022158 0.096970 -0.046887 0.196354 0.145370 -0.121882 -0.024586 -0.107431 0.100384 0.023887 -0.475975 0.146040 -0.044258 0.106591 0.077367 -0.030025 0.090174 -0.123341 0.150833 0.037916 -0.051071 -0.542314 0.415971 0.073512 0.255304 0.178830 0.034090 -0.322659 0.184751 -0.341501 -0.155492 -0.125640 -0.093834 0.086325 0.056353 0.131123 -0.169268 -0.392728 -0.146062 0.474619 -0.354280 -0.044877 0.430819 0.015906 0.065805 -0.136343 0.224502 -0.013478 0.168853 0.097779 0.070237 0.106989 -0.094084 -0.055409 -0.027320 0.229799 0.057390 -0.017455 -0.235905 -0.091451 -0.105597 -0.106108 0.184754 -0.087168 0.120868 -0.350638 0.306622 
vasia-pacificwebconference -0.059959 -0.212864 0.355815 -0.077531 -0.033816 0.259242 0.210704 0.417852 -0.015736 -0.154555 -0.041003 0.451242 0.059885 0.088669 -0.285638 0.048497 0.138950 -0.354131 -0.662583 0.109875 0.081640 -0.506860 0.231929 -0.401861 -0.261877 0.325913 -0.326459 0.102665 0.007779 -0.186287 0.173527 -0.070821 -0.085888 0.040155 0.041513 0.282781 -0.105611 0.014491 0.166607 0.121757 -0.106468 0.055756 -0.042661 0.014182 -0.062676 -0.116479 -0.051312 0.224981 -0.048108 0.007869 0.064755 -0.043674 0.113329 0.067733 0.114711 0.208505 -0.095603 -0.081315 -0.012748 0.107320 0.070317 -0.012714 -0.087090 -0.016545 -0.453449 -0.202193 0.266882 0.055530 0.061747 0.021508 0.113813 0.646755 -0.330148 -0.157057 -0.168439 -0.149268 -0.040024 0.117021 0.202689 -0.102033 -0.167125 0.068200 0.457881 -0.462855 -0.059973 -0.141199 -0.037880 0.141263 0.280987 -0.253729 0.500720 0.208984 0.098352 0.115409 -0.017615 0.038069 -0.070653 0.218011 0.456239 0.174217 -0.633924 0.420959 -0.076273 -0.371803 -0.012531 -0.104986 0.088563 -0.348331 -0.026139 -0.279834 -0.213775 -0.041685 -0.291588 0.178736 0.034560 -0.093432 -0.345839 -0.069823 0.054617 0.376779 0.134173 0.121784 0.065522 -0.222574 0.119242 -0.148023 0.473067 -0.537564 
aYizhouSun 0.086954 0.052797 0.041692 -0.041414 0.054706 0.147680 0.058191 -0.004068 0.054487 0.047860 0.033578 0.192463 0.109238 -0.055340 -0.090672 0.011124 0.165078 -0.126982 -0.158703 -0.047967 0.031643 -0.081908 0.092236 -0.109834 -0.160344 -0.104916 -0.150321 0.083359 -0.021662 -0.049735 0.040893 -0.006746 -0.010048 0.052860 -0.044181 0.150030 -0.159873 0.066284 0.058280 0.036537 -0.030387 -0.106985 0.024796 0.048369 0.123346 -0.061621 -0.120853 0.077364 -0.029441 0.158876 0.162544 -0.007026 0.024966 0.122360 0.136530 0.268553 -0.153925 -0.130500 -0.172291 -0.121356 0.005560 0.004210 0.059593 -0.018267 0.216090 0.102855 -0.121014 -0.003252 -0.057681 0.035672 -0.005348 -0.351293 0.159604 0.000032 0.101269 0.093172 -0.012989 0.017029 -0.108492 0.101228 0.090880 -0.036392 -0.491795 0.341534 0.075030 0.213755 0.140215 0.036646 -0.300956 0.153007 -0.326137 -0.146753 -0.068993 -0.080988 0.053028 -0.037640 0.122497 -0.221068 -0.390377 -0.129639 0.436851 -0.467447 -0.079872 0.442736 -0.079454 0.100863 -0.135274 0.240230 -0.028349 0.175583 0.127597 0.081425 0.126636 -0.123486 -0.060456 -0.013105 0.070622 0.008109 0.049491 -0.268638 -0.135882 -0.175740 -0.109540 0.206030 -0.165993 0.217637 -0.377810 0.304857 
aJimengSun 0.093862 0.069859 0.093242 -0.050598 0.045512 0.133403 0.047961 0.003311 0.059342 0.023742 0.023596 0.259667 0.104196 -0.049338 -0.073568 0.017489 0.139444 -0.163613 -0.211850 -0.003824 0.049834 -0.113287 0.105499 -0.113269 -0.129813 -0.100784 -0.198293 0.114605 -0.045531 -0.059088 0.039556 0.014773 -0.039763 0.081539 0.011426 0.147652 -0.121817 0.050807 0.070269 0.055735 -0.014780 -0.060733 0.036625 0.041548 0.074173 -0.049079 -0.061366 0.075278 -0.010095 0.104404 0.118033 0.009309 0.022684 0.102162 0.103764 0.208191 -0.099952 -0.088427 -0.139084 -0.063376 0.031725 -0.022055 0.041362 -0.075061 0.213779 0.139953 -0.134968 -0.005086 -0.062279 0.072599 -0.003232 -0.391487 0.141417 -0.013366 0.103435 0.079490 -0.014338 0.045869 -0.101308 0.076399 0.066959 -0.037614 -0.580915 0.375423 0.079080 0.214604 0.170537 0.040317 -0.391219 0.159037 -0.398775 -0.168264 -0.067773 -0.093122 0.092077 0.018547 0.147832 -0.178469 -0.377103 -0.138814 0.453153 -0.438577 -0.028086 0.479976 -0.063645 0.098370 -0.148328 0.272443 0.013878 0.215323 0.133360 0.075299 0.167676 -0.127105 -0.050207 -0.023031 0.169799 0.020355 0.010619 -0.285758 -0.107774 -0.197477 -0.078870 0.192507 -0.067838 0.133978 -0.340142 0.272160 
aManishGupta -0.033726 -0.105470 -0.046303 -0.015752 0.043587 0.250516 -0.067651 -0.039315 0.053234 0.022207 -0.044163 0.184287 0.180715 -0.101654 -0.200486 0.016336 0.082161 -0.149630 -0.146348 -0.051060 0.075560 -0.108996 0.074896 -0.145249 -0.166611 -0.086092 -0.088955 0.110603 -0.072060 -0.038825 -0.016452 0.018642 0.022441 -0.058012 -0.011366 0.171618 -0.281292 0.071455 0.103030 0.086309 -0.030128 -0.060879 -0.008043 -0.013053 0.084169 -0.066594 -0.130210 0.104638 -0.035656 -0.005065 -0.004451 -0.036945 0.026742 0.127838 0.148648 0.274436 0.033142 -0.000357 -0.048828 -0.021278 -0.017232 0.030584 0.061468 0.016506 0.203585 0.173164 -0.088092 -0.031374 -0.088322 0.082469 0.049039 -0.410595 0.208254 -0.055295 0.103927 0.103122 -0.056157 0.068524 -0.140936 0.205418 -0.053860 0.096791 -0.428644 0.363777 0.062149 0.194200 0.138349 0.063743 -0.389353 0.244948 -0.320249 -0.251918 -0.135638 -0.161819 0.103572 0.084663 0.177838 -0.215942 -0.424891 -0.149980 0.532245 -0.508242 -0.155992 0.520197 -0.026271 0.081702 -0.257654 0.322535 -0.094222 0.182409 0.068149 0.184250 0.041313 -0.071302 -0.091295 -0.048897 0.070716 0.148471 0.058091 -0.246777 -0.120714 -0.142553 -0.067446 0.093974 -0.046067 0.193200 -0.330328 0.284797 
veuropeanconferenceonprinciplesofdataminingandknowledgediscovery -0.111271 -0.189175 0.372804 -0.086892 -0.044501 0.226645 0.123551 0.499853 0.066013 -0.005434 -0.088822 0.440949 0.008595 0.028719 -0.238106 0.065817 0.256378 -0.423906 -0.762455 0.024841 0.047049 -0.220983 0.154065 -0.303838 -0.272467 0.086607 -0.388053 0.242892 0.017651 -0.161109 0.146112 -0.253788 0.273617 -0.324600 -0.025907 0.081727 -0.201952 -0.160464 0.057002 0.094378 -0.091658 0.085002 -0.086568 -0.047223 -0.163012 0.019555 -0.049083 0.288233 -0.047281 -0.168226 0.044742 -0.021127 0.064687 -0.088575 0.024750 -0.034311 0.084529 0.010390 -0.008315 0.306481 0.227840 0.119466 -0.036464 -0.003927 -0.503807 -0.121895 0.354337 0.050623 0.033614 -0.031984 0.108430 0.722824 -0.255058 -0.155935 -0.182229 -0.114590 -0.067232 0.164565 0.308377 -0.157842 -0.270698 0.116923 0.158128 -0.511293 -0.144752 -0.436757 -0.161860 0.117380 0.185441 -0.281527 0.603238 0.132090 0.172857 0.026528 -0.153590 0.101217 -0.029585 0.016404 0.356905 0.133070 -0.622064 0.266661 -0.082935 -0.429092 -0.082553 -0.070413 0.113754 -0.198440 -0.064335 -0.239323 -0.090857 -0.120253 -0.269132 0.209048 0.138582 -0.110628 -0.451097 -0.098567 0.100097 0.214981 0.098041 0.117957 0.198940 -0.411277 0.092120 -0.037795 0.496990 -0.496325 
aXinLi 0.010392 0.010901 0.100740 -0.020355 0.020083 0.110171 0.117945 0.043945 -0.081956 -0.066882 -0.004880 0.148607 0.028992 0.038928 -0.111077 -0.008466 0.117502 -0.127680 -0.191200 0.039771 0.057628 -0.155057 0.048949 -0.097914 -0.206769 -0.069949 -0.228485 0.068839 -0.028510 -0.055716 0.048796 0.063399 -0.087297 0.111650 -0.039637 0.078384 -0.116993 0.095936 0.084444 0.036173 -0.079818 -0.170098 0.034086 0.117906 0.154243 -0.071759 -0.153885 0.079606 0.034018 0.158863 0.156828 0.021294 0.017100 0.156736 0.163532 0.291269 -0.169642 -0.062766 -0.064811 -0.140635 -0.055393 -0.052810 0.016745 -0.059868 0.215386 0.148814 -0.083059 -0.103533 -0.089398 0.042186 -0.007322 -0.470468 0.169186 -0.084473 0.106836 0.125361 -0.003211 0.066654 -0.120659 0.073366 0.071671 0.006381 -0.487992 0.353347 0.053925 0.168540 0.178117 0.076993 -0.306069 0.166682 -0.267744 -0.138754 -0.094879 -0.057985 0.095478 -0.003286 0.137675 -0.235965 -0.438392 -0.090025 0.450328 -0.446273 -0.106913 0.385237 0.002913 0.089700 -0.124301 0.210931 -0.064412 0.174072 0.132725 0.113624 0.144898 -0.149827 -0.047062 -0.087755 0.147617 0.031406 0.046870 -0.313840 -0.144263 -0.119491 -0.058972 0.189713 -0.081226 0.179263 -0.407849 0.350518 
aWeiLu -0.000386 0.000130 -0.004346 -0.036001 0.028330 0.213937 0.085240 -0.051474 -0.093382 -0.011301 -0.017899 0.226119 0.072327 -0.015862 -0.134454 -0.002627 0.053506 -0.026216 -0.137312 0.031821 0.088728 -0.121804 0.036862 -0.071438 -0.133933 0.001724 -0.133082 0.030541 -0.000504 0.029321 -0.033870 0.058416 -0.112155 0.132937 -0.057481 0.198199 -0.187775 0.102937 0.136619 0.053135 -0.080171 -0.136580 0.007111 0.106247 0.150012 -0.150978 -0.201157 0.135702 -0.009761 0.085887 0.084970 -0.001932 0.045350 0.192518 0.227373 0.390855 -0.109784 -0.066444 -0.043423 -0.069980 -0.037875 -0.022383 0.037637 0.001235 0.147664 0.124447 -0.034476 -0.052639 -0.066898 0.095470 0.006435 -0.416983 0.085449 -0.142002 0.056203 0.085130 -0.002268 0.078512 -0.146883 0.122090 0.008489 0.032232 -0.312719 0.325192 0.072881 0.320254 0.243330 0.147358 -0.157308 0.200677 -0.284810 -0.157874 -0.128130 -0.057296 0.145092 0.010419 0.196374 -0.168341 -0.439954 -0.137942 0.551020 -0.380550 -0.119851 0.464618 0.078799 0.036950 -0.195877 0.177649 -0.034782 0.142732 0.052582 0.136203 0.076439 -0.112666 -0.082613 -0.068903 0.229290 0.100185 -0.011974 -0.243945 -0.087635 -0.096544 -0.071283 0.164368 -0.084268 0.208054 -0.527260 0.439726 
aDanRoth 0.051575 0.010854 0.080095 -0.009240 0.066801 0.109778 0.001847 -0.043758 0.094309 0.018416 0.017173 0.238793 0.070337 -0.042452 -0.034876 -0.006647 0.201246 -0.193172 -0.187508 -0.037409 0.031178 -0.078282 0.084989 -0.073082 -0.175425 -0.181775 -0.184166 0.118173 -0.027521 -0.062008 0.043417 0.026401 -0.001105 0.042999 -0.049266 0.090088 -0.137914 0.059863 0.021453 0.034178 -0.097512 -0.182558 0.037459 0.055132 0.112783 -0.051854 -0.135665 0.105443 0.016652 0.142676 0.162455 -0.013461 0.017712 0.128057 0.146428 0.238704 -0.085001 -0.034413 -0.137954 -0.114721 0.004853 0.025650 0.042553 -0.016376 0.194875 0.144381 -0.101703 -0.020532 -0.078447 0.048772 0.020903 -0.368040 0.150414 -0.033862 0.093552 0.104516 -0.039891 0.075633 -0.093609 0.109257 0.090186 -0.004845 -0.563126 0.393911 0.048341 0.143923 0.156892 0.051837 -0.368381 0.163183 -0.278425 -0.195080 -0.096546 -0.087335 0.066240 0.021292 0.102977 -0.197810 -0.398453 -0.137332 0.418458 -0.410716 -0.066988 0.477324 -0.033884 0.083815 -0.119864 0.213063 0.010151 0.211277 0.160565 0.049571 0.164194 -0.146235 -0.034632 -0.009448 0.156771 -0.029288 0.021530 -0.278317 -0.090774 -0.126857 -0.127510 0.213698 -0.155935 0.164892 -0.387575 0.313927 
aHongCheng 0.164108 0.200446 0.069155 -0.015388 0.019367 0.183815 0.077806 -0.074675 -0.066438 -0.007375 0.020819 0.197009 0.072455 0.010053 -0.116109 0.001232 0.191163 -0.109838 -0.113842 -0.020758 0.108140 -0.155041 0.074388 -0.097044 -0.195437 -0.141378 -0.164027 0.078102 0.002217 -0.030092 0.010081 0.025351 -0.036005 0.103393 -0.105465 0.031914 -0.168289 0.035040 0.082525 0.022107 -0.012087 -0.076519 0.041118 0.088497 0.139469 -0.107681 -0.156426 0.108449 0.004385 0.109391 0.105828 0.043670 0.058161 0.117588 0.222825 0.348688 -0.223958 -0.155587 -0.130803 -0.093585 0.017441 -0.024350 0.076400 -0.031258 0.211336 0.175199 -0.134807 -0.081212 -0.048986 0.085000 -0.016319 -0.405647 0.145214 -0.088937 0.135725 0.069393 0.023596 0.047191 -0.105970 0.012288 0.007890 -0.006534 -0.296786 0.311038 0.110532 0.281190 0.254580 0.138271 -0.118098 0.151270 -0.301013 -0.099205 -0.061174 -0.009365 0.173091 -0.019460 0.096002 -0.225484 -0.445570 -0.062996 0.410779 -0.444195 -0.110857 0.448791 0.025971 0.105643 -0.170935 0.189244 -0.067243 0.157052 0.071063 0.140339 0.141077 -0.132390 -0.106624 -0.047309 0.156630 0.068467 0.057174 -0.357815 -0.043832 -0.099057 -0.083971 0.171562 -0.072889 0.186921 -0.501219 0.376153 
vextendingdatabasetechnology 0.032385 -0.107283 0.281574 -0.020584 0.008529 0.224278 0.045774 0.366337 0.038056 -0.087283 -0.131710 0.365064 0.046374 0.124542 -0.280580 0.082193 0.271511 -0.408887 -0.660886 0.011280 0.174075 -0.400580 0.077220 -0.342954 -0.478377 0.111125 -0.439170 0.292809 -0.076126 -0.190641 0.047949 -0.136983 0.127224 -0.195552 0.083279 0.162148 -0.143069 -0.173602 0.155156 0.092537 -0.037672 0.080539 -0.100812 0.034965 -0.122792 0.036532 0.001962 0.256703 -0.127410 0.009371 0.167051 0.008460 0.080228 -0.061761 -0.003808 0.040722 -0.041505 -0.137111 0.010072 0.216551 0.127271 0.025083 -0.063243 0.011559 -0.480207 -0.240125 0.404111 0.110900 0.043822 -0.016071 0.054717 0.580526 -0.341624 -0.086948 -0.268542 -0.201976 -0.014119 0.051414 0.240983 -0.126094 -0.323784 0.085436 0.723988 -0.593063 -0.097164 -0.274639 -0.187039 0.050818 0.360012 -0.296055 0.655085 0.224034 0.080238 0.045458 -0.155987 0.042335 0.002414 0.185433 0.308847 0.081978 -0.551065 0.412433 -0.077328 -0.369004 -0.019015 -0.062382 0.012581 -0.170102 -0.022529 -0.207332 -0.166216 -0.060759 -0.192218 0.182239 0.066328 -0.012313 -0.296158 -0.007775 0.066286 0.206969 0.053114 0.077540 0.122939 -0.234376 0.147310 -0.040643 0.366611 -0.346442 
aDengCai -0.001486 0.167678 0.092547 -0.122464 -0.021609 0.171171 0.186599 -0.071100 -0.148087 0.075547 0.084416 0.109344 0.019535 -0.013788 -0.021943 -0.043513 0.155181 -0.048712 -0.118237 -0.060120 0.031935 0.146477 -0.038179 0.023155 -0.222178 -0.113995 -0.095321 -0.032732 -0.020880 -0.019145 0.042153 -0.016497 -0.042976 -0.009470 -0.067505 0.037814 -0.201262 0.128551 0.108793 0.106695 -0.125037 -0.301068 0.045451 0.023785 -0.013096 0.022763 -0.058772 0.069708 0.006949 0.208831 0.369651 -0.003766 -0.010405 0.213580 0.203508 0.299006 -0.114423 -0.055847 -0.240888 -0.035903 0.089594 0.039282 0.114071 -0.106633 0.162491 0.053023 0.007659 -0.033822 -0.021030 -0.060485 -0.072942 -0.177504 0.004629 -0.113351 0.029327 0.114562 0.003420 -0.067186 -0.001124 -0.127818 0.105935 0.126462 -0.453567 0.232331 0.092796 0.180060 0.252030 0.317715 -0.360833 0.193537 -0.423027 -0.285956 0.037248 -0.095057 0.355881 0.122659 0.212900 -0.108045 -0.302056 -0.175590 0.570796 -0.526846 0.026322 0.532879 -0.057348 0.061544 -0.112837 0.380753 0.018158 0.181335 0.110252 0.062185 0.264222 -0.252714 0.055417 -0.218827 0.161850 -0.054446 -0.040912 -0.189429 -0.345486 -0.202846 -0.027275 0.176797 -0.197844 0.276914 -0.311757 0.299459 
aChenChen 0.046780 0.058251 0.112321 -0.068763 0.067626 0.152821 0.123272 0.046798 0.020773 0.009366 0.070385 0.224435 0.058646 -0.014543 -0.120351 -0.008259 0.131875 -0.119571 -0.192166 0.007216 0.057782 -0.140251 0.095946 -0.126561 -0.214657 0.014192 -0.120831 0.043680 -0.020539 -0.067015 0.054797 0.065465 -0.055004 0.091022 -0.060005 0.087167 -0.130445 0.059193 0.058943 0.041448 -0.061779 -0.146702 0.052350 0.062847 0.106035 -0.056630 -0.113331 0.105430 0.006052 0.172705 0.169335 -0.000836 0.025076 0.093779 0.124350 0.178815 -0.133795 -0.097713 -0.146404 -0.083312 -0.001376 -0.008545 0.062711 -0.042565 0.170393 0.093005 -0.089110 -0.008365 -0.078101 0.045553 -0.012318 -0.404226 0.146921 0.004006 0.069366 0.110355 -0.015868 0.046949 -0.113980 0.089983 0.101265 -0.012072 -0.471813 0.373160 0.051147 0.216552 0.173316 0.047030 -0.276758 0.133692 -0.373911 -0.123802 -0.117538 -0.049229 0.155727 -0.006537 0.151388 -0.157830 -0.417882 -0.167925 0.434139 -0.360885 0.013922 0.433104 -0.039272 0.074802 -0.132345 0.317299 0.018869 0.144393 0.140193 0.029377 0.254687 -0.229230 -0.085925 -0.032101 0.184035 0.004958 -0.013275 -0.235845 -0.163409 -0.127878 -0.142625 0.312261 -0.137287 0.113881 -0.373439 0.367936 
aSpirosPapadimitriou 0.051403 0.016203 0.042102 -0.013547 0.057707 0.103202 0.071361 0.007839 -0.014291 -0.015316 0.014370 0.079456 0.053289 -0.009587 -0.073285 -0.005688 0.165890 -0.121034 -0.124994 -0.019111 0.036127 -0.147374 0.080889 -0.111567 -0.193784 -0.080181 -0.169144 0.059638 -0.032675 -0.079237 0.060303 0.053835 -0.001835 0.026831 -0.051968 0.131047 -0.198639 0.085932 0.100844 0.060198 -0.067796 -0.162635 0.030871 0.079438 0.158891 -0.054887 -0.148227 0.106064 -0.032436 0.165630 0.198092 0.002396 0.015037 0.151137 0.160509 0.285462 -0.137845 -0.087850 -0.119121 -0.110441 -0.013023 0.010551 0.059679 -0.004640 0.216231 0.104667 -0.084403 -0.013305 -0.068542 0.033792 -0.004903 -0.348021 0.139889 -0.023935 0.094342 0.107566 -0.023681 0.049860 -0.098439 0.103964 0.102141 -0.033066 -0.465179 0.350435 0.050959 0.178291 0.149647 0.032195 -0.289074 0.167256 -0.320483 -0.154569 -0.124808 -0.083684 0.059922 -0.005187 0.149300 -0.201858 -0.337967 -0.151381 0.502228 -0.485112 -0.059549 0.500441 -0.111813 0.081154 -0.116898 0.265548 0.003193 0.189820 0.168785 0.024167 0.175136 -0.141378 -0.018821 -0.007273 0.104867 -0.021374 0.020385 -0.272251 -0.162219 -0.187656 -0.077913 0.180339 -0.166916 0.207864 -0.323594 0.298709 
aLingLiu 0.005895 0.019040 0.092757 -0.073118 0.055880 0.144235 0.118128 0.028262 -0.030411 -0.012787 0.067822 0.230955 0.070205 0.023666 -0.104516 -0.024825 0.033863 -0.057567 -0.185821 0.058522 0.048612 -0.127195 0.092551 -0.087904 -0.063393 -0.010150 -0.128977 0.060276 0.004136 -0.010460 0.048631 0.076775 -0.094218 0.129025 -0.054841 0.174395 -0.160075 0.077269 0.074965 0.040114 -0.056597 -0.184123 0.040842 0.093994 0.147134 -0.128158 -0.162104 0.130646 -0.011888 0.214487 0.172448 -0.003320 0.046164 0.140367 0.171592 0.299644 -0.195050 -0.133436 -0.099842 -0.127794 -0.047747 -0.054525 0.057840 -0.036965 0.210917 0.099905 -0.096948 -0.010197 -0.096125 0.060377 -0.023051 -0.426183 0.060360 -0.069248 0.066516 0.063100 0.000714 0.080738 -0.086491 0.102632 0.080389 -0.068357 -0.259177 0.345831 0.072400 0.340081 0.240604 0.094914 -0.174169 0.150632 -0.300514 -0.119172 -0.137850 -0.031670 0.134141 0.018142 0.183833 -0.145755 -0.415625 -0.162777 0.489632 -0.337988 -0.067076 0.470590 -0.000968 0.067303 -0.137588 0.203097 0.019513 0.187175 0.115357 0.063057 0.207126 -0.151109 -0.036006 -0.038021 0.265283 0.024903 -0.021298 -0.275614 -0.144717 -0.185726 -0.089513 0.230729 -0.098306 0.202742 -0.441461 0.377337 
aFlipKorn 0.101883 0.138096 0.068897 -0.021570 0.036515 0.153385 0.076617 -0.059374 -0.051919 -0.029096 0.017152 0.134044 0.028737 0.016388 -0.074667 0.007041 0.177406 -0.070180 -0.123036 -0.018626 0.093954 -0.181591 0.040845 -0.098780 -0.207648 0.034246 -0.130761 0.044763 -0.009382 -0.035978 -0.008172 0.064280 -0.054694 0.137578 -0.110624 0.142790 -0.145875 -0.011604 0.073284 0.010149 -0.086473 -0.127762 0.031966 0.158120 0.153209 -0.108940 -0.173597 0.164836 -0.025194 0.138699 0.138896 0.040113 0.059446 0.096979 0.175669 0.264475 -0.234770 -0.177020 -0.104327 -0.110702 0.011387 -0.013341 0.047327 -0.001307 0.155768 0.110524 -0.054401 0.014506 -0.053349 0.053404 -0.043837 -0.357292 0.065253 -0.041585 0.064940 0.061749 -0.001874 0.043834 -0.074918 0.082299 0.021379 0.022312 -0.121418 0.292805 0.058779 0.259208 0.232348 0.107444 -0.127296 0.146114 -0.346804 -0.140672 -0.151719 -0.021735 0.192405 0.028102 0.192752 -0.136215 -0.429470 -0.169245 0.493849 -0.384820 -0.040288 0.558294 -0.022396 0.050266 -0.215871 0.304282 0.028718 0.175945 0.104914 0.075440 0.260354 -0.208372 -0.105780 -0.005512 0.263770 0.083853 -0.028784 -0.326073 -0.101673 -0.161724 -0.098319 0.239143 -0.065073 0.160967 -0.486174 0.454167 
aWen-tauYih 0.026329 -0.080396 -0.021932 0.023096 0.057752 0.218733 0.005680 0.016410 0.052215 0.023272 -0.023859 0.054640 0.141002 -0.074938 -0.167461 0.009464 0.110764 -0.122144 -0.045902 -0.057026 0.055444 -0.141017 0.107826 -0.184301 -0.184121 -0.081603 -0.118644 0.090736 -0.105396 -0.080692 0.032310 0.048042 -0.018047 0.010021 0.003443 0.178405 -0.228995 0.125920 0.161188 0.115695 -0.056383 -0.105661 0.003811 0.030048 0.122633 -0.055982 -0.135265 0.145371 -0.035839 0.065710 0.100393 -0.031349 0.003862 0.145185 0.113612 0.246440 0.001461 -0.029751 -0.066361 -0.036818 -0.010963 0.023321 0.045972 -0.006350 0.201906 0.100027 -0.055572 0.010536 -0.099671 0.032511 0.023185 -0.360089 0.182657 -0.032548 0.099696 0.131982 -0.057988 0.058469 -0.084335 0.165268 0.043519 0.026284 -0.568704 0.346766 0.044487 0.158118 0.128422 0.035769 -0.365080 0.179504 -0.293963 -0.213465 -0.114206 -0.148479 0.043539 0.041611 0.180627 -0.236515 -0.328544 -0.135579 0.543710 -0.572389 -0.126416 0.513199 -0.112777 0.072240 -0.155656 0.297656 -0.060527 0.221397 0.163143 0.107095 0.073665 -0.079436 -0.021978 -0.066243 0.066105 0.038635 0.057007 -0.288471 -0.146051 -0.180516 -0.009637 0.071798 -0.102960 0.237813 -0.320143 0.291423 
vWorldWideWeb -0.026245 -0.141437 0.408599 -0.088329 0.005410 0.234156 0.138471 0.412821 -0.004059 -0.148636 -0.028252 0.499734 0.091059 0.150486 -0.308550 0.043638 0.156521 -0.406842 -0.671100 0.134032 0.036102 -0.462462 0.177230 -0.413808 -0.225452 0.206096 -0.275050 0.119431 -0.049012 -0.189852 0.170189 -0.119612 0.039469 -0.098263 0.093767 0.277887 -0.098237 -0.034386 0.164115 0.141701 -0.092385 0.125787 -0.051815 -0.002767 -0.121743 -0.056080 0.010045 0.253423 -0.058073 -0.036668 0.085632 -0.026529 0.095984 0.016683 0.042523 0.109602 -0.019019 -0.079194 -0.034419 0.207599 0.114523 -0.028522 -0.092033 -0.067902 -0.431823 -0.182663 0.258015 0.066782 0.057518 -0.021532 0.103764 0.846789 -0.253615 -0.096258 -0.180254 -0.132966 -0.027483 0.046243 0.295395 -0.170400 -0.203922 0.067686 0.378529 -0.480082 -0.106154 -0.320010 -0.200793 0.029308 0.217720 -0.290574 0.484644 0.206252 0.095642 0.101977 -0.130174 0.045200 -0.056697 0.179493 0.441215 0.143040 -0.531095 0.429875 0.003674 -0.342855 -0.065032 -0.075998 0.169236 -0.441576 0.016307 -0.191336 -0.147952 -0.088262 -0.247440 0.209313 0.117445 -0.026390 -0.214401 -0.098188 0.035935 0.280594 0.158962 0.111660 0.105391 -0.312081 0.071809 -0.104892 0.362376 -0.407456 
aPeixiangZhao 0.049318 0.097525 0.078109 -0.030068 0.045776 0.085560 0.115726 0.012306 -0.108739 -0.046141 -0.001743 0.022770 -0.034200 0.004168 -0.082967 -0.016174 0.133955 -0.105844 -0.138568 0.023072 0.059216 -0.180331 0.053402 -0.100452 -0.278379 0.050597 -0.181044 0.031540 -0.018001 -0.094541 0.050061 0.124973 -0.015252 0.044120 -0.103831 0.153889 -0.169851 -0.006218 0.107858 0.037789 -0.155357 -0.203731 0.031380 0.178875 0.154656 -0.066785 -0.182266 0.185173 -0.042754 0.194145 0.248080 0.039164 0.060975 0.094904 0.162135 0.222389 -0.218391 -0.126281 -0.054581 -0.090466 -0.021469 0.013862 0.033687 0.007196 0.199211 0.050242 0.006440 -0.001149 -0.070552 0.013813 -0.063034 -0.432968 0.031005 -0.050540 0.007350 0.082628 -0.009521 0.012938 -0.114854 0.105932 0.042587 0.069698 -0.132770 0.297285 0.052745 0.296357 0.258932 0.119573 -0.242252 0.175267 -0.391197 -0.163897 -0.246467 -0.091212 0.224104 0.046257 0.271789 -0.072241 -0.359731 -0.209014 0.569274 -0.414106 0.035436 0.544307 -0.076420 0.008166 -0.166934 0.349138 0.059082 0.151553 0.132994 0.035943 0.261712 -0.215579 -0.065976 -0.022341 0.267230 0.064368 -0.063964 -0.259880 -0.214365 -0.203466 -0.041842 0.246512 -0.035913 0.101589 -0.390615 0.461525 
aThomasHofmann -0.029701 -0.082423 -0.041803 -0.005398 0.032390 0.214836 -0.042156 0.007125 0.049525 0.028452 -0.028720 0.091825 0.142535 -0.090054 -0.151437 0.013108 0.093660 -0.140744 -0.120238 -0.045412 0.042476 -0.065188 0.054676 -0.152276 -0.163879 -0.077305 -0.093192 0.093155 -0.105061 -0.039185 -0.000939 0.010023 0.000687 -0.048373 0.000966 0.187287 -0.251471 0.112091 0.159858 0.120365 -0.052120 -0.115182 0.011629 0.000133 0.103331 -0.066804 -0.122582 0.141814 -0.039433 0.061334 0.088344 -0.040028 0.019053 0.159651 0.123845 0.281665 0.052160 -0.004746 -0.055266 -0.009711 -0.010417 0.005391 0.052257 -0.027691 0.210177 0.126215 -0.051923 0.023070 -0.118024 0.030692 0.027785 -0.383121 0.224666 -0.041689 0.108682 0.147290 -0.067967 0.033267 -0.076180 0.199006 -0.003053 0.091208 -0.549952 0.349105 0.041357 0.131121 0.079118 0.039179 -0.352214 0.187887 -0.286467 -0.233205 -0.077395 -0.164196 0.064061 0.085737 0.171213 -0.224261 -0.356532 -0.121810 0.513830 -0.562234 -0.117633 0.487178 -0.086653 0.086815 -0.202092 0.339366 -0.089081 0.207551 0.129538 0.132332 0.072904 -0.077935 -0.052226 -0.072632 0.079433 0.088806 0.063290 -0.293965 -0.157705 -0.195454 -0.023630 0.073415 -0.076144 0.238605 -0.306861 0.283366 
aHwanjoYu 0.075219 -0.009214 0.017464 0.016597 0.052285 0.140279 0.017193 0.008691 0.054836 0.020395 -0.006373 0.138812 0.081408 -0.059077 -0.076802 -0.001330 0.210052 -0.176196 -0.109922 -0.055711 0.030543 -0.078717 0.076798 -0.125891 -0.234203 -0.158991 -0.158130 0.078542 -0.076821 -0.067444 0.040829 0.022718 -0.040119 0.043207 -0.008693 0.124852 -0.143568 0.117761 0.109461 0.086410 -0.083222 -0.174952 0.044855 0.038924 0.092617 -0.022958 -0.087438 0.085800 0.002834 0.157123 0.200959 -0.013299 -0.001640 0.151240 0.110915 0.230699 -0.048408 -0.036291 -0.130851 -0.073420 -0.007732 -0.013515 0.047587 -0.066761 0.204543 0.111478 -0.068910 -0.013141 -0.089933 0.034330 0.016781 -0.374431 0.213306 -0.028438 0.108932 0.151837 -0.043933 0.039394 -0.104537 0.125524 0.074244 0.011350 -0.627254 0.361720 0.047244 0.141003 0.109353 0.026395 -0.291228 0.153589 -0.280528 -0.162991 -0.081851 -0.111795 0.057554 0.000815 0.125324 -0.221629 -0.333513 -0.116554 0.452994 -0.493969 -0.052313 0.436981 -0.092510 0.097780 -0.102624 0.283910 -0.022412 0.200667 0.173844 0.046639 0.189300 -0.157981 -0.011725 -0.059861 0.083770 -0.027791 0.037317 -0.271454 -0.174873 -0.186559 -0.070717 0.182068 -0.166520 0.215373 -0.350093 0.315444 
aXinJin -0.095095 -0.068365 0.111270 -0.080768 0.126226 0.264211 -0.014229 0.090321 0.059335 0.093340 -0.013166 0.138130 0.084317 -0.113463 -0.154012 -0.023607 0.020400 -0.101265 -0.304699 0.034863 0.083934 -0.079434 0.098481 -0.003794 -0.036709 -0.065845 -0.138910 0.179954 0.045791 -0.056502 0.025622 0.062805 0.107085 -0.078529 -0.123122 0.007040 -0.232348 -0.063107 -0.007196 0.014990 -0.056881 -0.076812 0.046038 0.017796 0.113871 -0.035823 -0.136726 0.125961 -0.003798 -0.003321 0.007707 0.012938 0.030391 0.017879 0.132135 0.113546 -0.032424 0.090925 0.032942 0.044167 0.025429 0.073821 0.088184 0.047104 0.051425 0.126209 -0.001081 -0.102969 -0.117445 0.156489 0.075532 -0.435277 0.121541 -0.100458 0.098281 0.047145 -0.030717 0.256896 -0.131662 0.097650 -0.095372 0.039100 -0.683465 0.358199 0.042315 0.158755 0.244785 0.041049 -0.337955 0.250109 -0.305590 -0.195242 -0.256919 -0.134243 0.050952 0.075846 0.144090 -0.364111 -0.512149 -0.116912 0.523540 -0.542744 -0.207929 0.469416 -0.003011 0.072556 -0.174571 0.342491 -0.148239 0.123369 0.119442 0.088066 0.096883 -0.078872 -0.083476 -0.114171 0.033277 0.130192 0.055968 -0.324822 -0.082938 -0.095856 -0.043623 0.133630 -0.048255 0.157049 -0.296675 0.268440 
aBolinDing 0.080443 0.160949 0.020728 -0.053751 0.061970 0.231227 0.100079 -0.114570 -0.105679 -0.045777 0.028817 0.157170 0.083513 -0.010449 -0.099093 0.005043 0.151404 0.009967 -0.109027 -0.024307 0.129466 -0.186263 0.059274 -0.088143 -0.164697 -0.044454 -0.183665 0.081976 0.002628 -0.008251 -0.024232 0.042090 0.000398 0.076966 -0.145725 0.122464 -0.225434 -0.003589 0.098566 0.010141 -0.012885 -0.097683 0.018853 0.130811 0.180815 -0.134959 -0.191981 0.147189 -0.064770 0.098659 0.107175 0.053934 0.061033 0.092727 0.204136 0.307055 -0.262723 -0.217376 -0.123484 -0.132719 0.021854 0.000376 0.072746 0.037529 0.145120 0.131321 -0.065809 0.005715 -0.043293 0.071383 -0.041579 -0.343236 0.062746 -0.061871 0.095371 0.041143 0.007071 0.049823 -0.056473 0.069577 0.026106 -0.031343 -0.122849 0.331482 0.076057 0.271009 0.224765 0.109516 -0.116917 0.159164 -0.328950 -0.125283 -0.115791 -0.018951 0.147767 0.011127 0.164567 -0.124423 -0.351989 -0.154555 0.495065 -0.393924 -0.042419 0.565249 -0.022690 0.044439 -0.237909 0.293822 0.025022 0.199105 0.096129 0.083115 0.222160 -0.173930 -0.099007 -0.018293 0.248082 0.091832 -0.023570 -0.326863 -0.103087 -0.180946 -0.084583 0.188715 -0.101039 0.257307 -0.548688 0.478291 
aDavidM.Blei 0.072558 0.016869 0.068175 -0.006888 0.047288 0.110664 0.043804 -0.003114 0.028478 0.001464 0.008339 0.156525 0.076138 -0.035620 -0.059871 -0.012949 0.180548 -0.176251 -0.128734 -0.038787 0.024870 -0.077309 0.094616 -0.121710 -0.197718 -0.195803 -0.198788 0.100301 -0.065667 -0.080056 0.073866 0.020620 -0.008799 0.014774 -0.011724 0.097973 -0.161431 0.106665 0.092425 0.078276 -0.078143 -0.181537 0.035033 0.051490 0.104151 -0.027436 -0.101849 0.094635 -0.001416 0.169713 0.211795 -0.006654 0.004333 0.138600 0.115921 0.230607 -0.083250 -0.059830 -0.129990 -0.093419 -0.012648 -0.012716 0.046280 -0.061628 0.252952 0.142769 -0.095796 -0.024282 -0.092663 0.019144 0.006354 -0.382514 0.196814 -0.044396 0.118598 0.150164 -0.046910 0.047807 -0.075452 0.104790 0.094692 -0.003402 -0.580908 0.368365 0.046174 0.118088 0.118444 0.046947 -0.372689 0.149979 -0.269673 -0.191530 -0.061230 -0.116768 0.049520 0.025120 0.142703 -0.194698 -0.320870 -0.128925 0.465563 -0.483717 -0.054033 0.464225 -0.087351 0.089872 -0.106446 0.254713 0.000754 0.230255 0.179866 0.053058 0.179024 -0.143311 0.010553 -0.050354 0.126167 -0.035730 0.028356 -0.286563 -0.170628 -0.196221 -0.053562 0.156150 -0.141024 0.225299 -0.365680 0.316970 
aAnthonyK.H.Tung 0.066882 0.143597 0.048670 -0.048594 0.047498 0.177512 0.122878 -0.069618 -0.110156 -0.042009 0.030344 0.102783 0.041916 0.022754 -0.076938 0.004123 0.134052 -0.018204 -0.148702 0.000865 0.091177 -0.166086 0.048259 -0.071510 -0.134437 -0.002498 -0.146611 0.041647 0.020491 -0.018001 0.002881 0.037548 -0.002828 0.056355 -0.146608 0.130060 -0.232423 -0.004827 0.108769 0.014715 -0.040108 -0.139804 0.023337 0.144564 0.181847 -0.132332 -0.195150 0.149900 -0.069082 0.169754 0.183504 0.048677 0.072574 0.122477 0.219705 0.355079 -0.299524 -0.229819 -0.132003 -0.139455 0.012420 -0.008296 0.068261 0.027860 0.212395 0.120046 -0.089194 0.016802 -0.056669 0.040144 -0.053891 -0.358668 0.052909 -0.050361 0.083637 0.043857 0.013684 0.022093 -0.055451 0.062722 0.060383 -0.034761 -0.127261 0.315410 0.090242 0.296508 0.241600 0.134324 -0.154872 0.161978 -0.363768 -0.133517 -0.108446 -0.026670 0.163715 0.017624 0.153610 -0.139117 -0.369834 -0.141317 0.494082 -0.419734 -0.045584 0.556844 -0.046862 0.072233 -0.191101 0.264193 0.013838 0.175549 0.097810 0.061119 0.243443 -0.182440 -0.080865 -0.010027 0.228096 0.046046 -0.007757 -0.317597 -0.132538 -0.205295 -0.105128 0.221272 -0.114622 0.222223 -0.468328 0.401296 
vTheVldbJournal 0.033929 -0.078106 0.142571 -0.109748 -0.093795 0.397918 0.241763 0.134283 0.059888 -0.007209 0.016716 0.418165 0.194409 -0.025594 -0.110249 0.143831 0.419141 -0.195546 -0.405608 -0.247326 0.052529 -0.088738 0.066139 -0.347781 -0.593389 0.017871 -0.492409 0.194546 -0.141437 -0.105460 0.061059 -0.275099 -0.072757 -0.046133 -0.007806 0.290553 -0.187582 0.093201 0.097790 0.128999 -0.161742 -0.312089 -0.033836 -0.057001 -0.137893 -0.045511 -0.036190 0.170824 -0.057799 -0.000195 0.263345 -0.111869 -0.017094 0.203920 0.048899 0.173015 -0.022827 -0.102319 -0.377572 0.059059 0.302703 0.005698 -0.008261 -0.155973 -0.511159 -0.094347 0.337124 0.269861 0.149111 -0.150824 0.002056 0.961126 -0.314899 -0.107797 -0.056415 -0.049470 -0.102029 -0.108372 0.358092 -0.105957 -0.163769 0.218693 0.607552 -0.684200 -0.075585 -0.280496 -0.167372 0.272575 0.422152 -0.063517 0.372683 -0.046139 0.370635 0.077990 0.032636 0.204448 -0.017737 0.278399 0.544065 -0.020252 -0.681342 0.400691 0.123960 -0.337163 -0.083290 -0.143487 0.108386 -0.078244 0.089257 -0.269509 -0.195888 -0.148520 -0.114689 0.073296 0.180397 -0.102250 -0.294178 -0.209313 -0.033618 0.378684 -0.076546 -0.080936 0.040047 -0.310707 -0.098682 0.041313 0.600404 -0.575838 
vProceedingsofTheVldbEndowment -0.045245 -0.138823 0.386826 -0.019358 -0.110711 0.126849 0.123404 0.499120 -0.006912 -0.145907 -0.003140 0.501840 0.046319 0.261945 -0.361401 0.023983 0.257248 -0.452433 -0.653653 0.126053 -0.027141 -0.381569 0.103884 -0.386487 -0.254658 0.193963 -0.348394 0.137858 -0.071943 -0.165512 0.188357 -0.034251 -0.051179 -0.015206 0.147837 0.306566 -0.022539 0.049162 0.262112 0.181671 -0.137635 0.071358 -0.041438 0.085027 -0.086440 -0.074097 -0.014686 0.245787 0.018031 0.023521 0.158114 0.018941 0.055172 0.099861 0.074218 0.198585 -0.082031 -0.138757 -0.053341 0.172221 0.105088 -0.093147 -0.117812 -0.155418 -0.348369 -0.196256 0.241567 0.062680 0.056633 -0.108229 0.021590 0.672815 -0.209621 -0.061751 -0.191269 -0.077478 0.010401 -0.081900 0.243677 -0.144736 -0.102540 0.037746 0.410948 -0.523406 -0.122923 -0.317968 -0.261274 -0.018596 0.255068 -0.325597 0.544866 0.139959 0.204056 0.090499 -0.138119 0.028796 -0.074362 0.087515 0.412191 0.159174 -0.585961 0.456549 0.052099 -0.494966 -0.028249 -0.038054 0.202660 -0.352769 0.060969 -0.189544 -0.082173 -0.157951 -0.196807 0.189487 0.147299 0.008181 -0.201668 -0.161075 0.012084 0.288469 0.182044 0.132083 0.178739 -0.355672 0.075544 -0.132033 0.402375 -0.436416 
aVivekSrikumar -0.062657 0.077390 0.168884 -0.167426 0.149001 0.078032 0.159716 0.147463 0.101636 0.103273 0.031031 0.088528 -0.048065 -0.199903 -0.050586 0.034893 0.103744 -0.034961 -0.485071 0.035162 0.062504 -0.021955 0.152177 0.084043 0.103189 0.019388 -0.208790 0.131004 0.193990 -0.035510 0.029085 -0.103040 0.240512 -0.178990 -0.250182 -0.135520 -0.233580 -0.246835 -0.132511 -0.079967 -0.113056 -0.023888 -0.053420 0.057560 0.118522 -0.007730 -0.249865 0.240636 -0.006912 -0.028240 0.058235 0.055888 0.112826 -0.079109 0.191992 0.102397 -0.300792 0.009314 -0.036818 -0.048158 0.177824 0.247199 -0.021290 0.221116 0.038412 0.116594 0.006293 -0.098278 -0.162792 0.059043 0.039928 -0.538658 0.168744 -0.029371 0.069399 0.072643 -0.021648 0.323384 -0.105347 0.052830 0.055766 0.061130 -0.872331 0.521804 0.029234 0.106611 0.372705 0.148560 -0.481892 0.005472 -0.217080 -0.045869 -0.239027 -0.159569 0.069827 0.018558 0.141393 -0.255374 -0.384900 -0.036758 0.332203 -0.571136 -0.194565 0.365266 -0.075114 0.047906 -0.215360 0.366746 -0.182715 0.162980 0.191454 0.147118 0.110875 -0.156342 -0.132185 -0.197460 -0.063410 0.123485 0.126625 -0.414612 -0.118002 -0.110789 0.015992 0.142676 0.012823 0.188713 -0.340289 0.310960 
aDeepayanChakrabarti 0.042789 -0.069028 -0.015698 0.060466 0.043261 0.167554 0.017494 -0.050794 0.027603 -0.027961 -0.039444 0.061639 0.105720 -0.026152 -0.101612 0.021043 0.251333 -0.134381 -0.052017 -0.105417 0.063379 -0.157195 0.056561 -0.144995 -0.271212 -0.133249 -0.170006 0.068390 -0.071077 -0.073882 0.015763 -0.000321 -0.021580 0.065893 -0.031068 0.126912 -0.154043 0.117712 0.101294 0.066655 -0.117435 -0.144357 0.000403 0.092317 0.124477 -0.014121 -0.132851 0.081440 -0.013537 0.070752 0.138836 -0.009551 -0.022330 0.156703 0.137806 0.246637 -0.085237 -0.053394 -0.135853 -0.136965 0.004172 0.050161 0.019382 0.040298 0.115000 0.107674 -0.032645 -0.039758 -0.052086 0.032989 0.022477 -0.289742 0.170267 -0.039388 0.103672 0.130063 -0.036393 0.074853 -0.098014 0.097250 0.107567 0.005390 -0.678876 0.404586 0.032188 0.075406 0.127733 0.048382 -0.382788 0.166056 -0.279851 -0.193200 -0.101483 -0.096847 0.026562 -0.030000 0.087585 -0.217924 -0.258854 -0.100997 0.445264 -0.512689 -0.102275 0.479884 -0.101914 0.081078 -0.120944 0.263926 -0.021274 0.219651 0.183497 0.045898 0.151297 -0.145051 -0.006152 -0.054867 0.044137 -0.044347 0.043817 -0.265044 -0.114709 -0.112791 -0.061066 0.121097 -0.231828 0.294966 -0.419113 0.347358 
aLeiXu 0.082534 -0.006055 0.018158 0.032959 0.053907 0.161446 0.027675 -0.055501 0.049935 0.012844 -0.029996 0.077820 0.101473 -0.057556 -0.057414 0.008557 0.192670 -0.130090 -0.044197 -0.077475 0.048334 -0.120708 0.095026 -0.133508 -0.168404 -0.181211 -0.190755 0.097991 -0.078868 -0.078938 0.040798 0.012820 -0.052729 0.091721 0.011302 0.162707 -0.151977 0.105943 0.101903 0.084996 -0.121645 -0.181208 0.018288 0.101860 0.101489 -0.018132 -0.114965 0.116041 0.011557 0.139829 0.196708 0.002876 -0.011789 0.155219 0.113238 0.236223 -0.119484 -0.067754 -0.145543 -0.128896 -0.004229 -0.001976 0.019510 -0.045352 0.218912 0.125396 -0.076040 -0.016022 -0.080933 0.011890 0.005789 -0.331724 0.157200 -0.033037 0.105211 0.119933 -0.039870 0.059705 -0.056374 0.092070 0.085221 -0.006669 -0.564594 0.337686 0.037536 0.090401 0.129536 0.053470 -0.415604 0.149948 -0.252379 -0.216756 -0.074330 -0.115482 0.007645 0.023807 0.160977 -0.211760 -0.311315 -0.123089 0.465634 -0.490856 -0.116053 0.499208 -0.104038 0.089554 -0.141814 0.237531 -0.004432 0.247345 0.167353 0.078910 0.159515 -0.129132 0.016444 -0.059940 0.101259 -0.018637 0.035356 -0.294621 -0.129441 -0.204972 -0.029633 0.098132 -0.116645 0.245413 -0.376947 0.296739 
aGertR.G.Lanckriet 0.120315 0.107654 0.065484 -0.088924 0.040177 0.076704 0.034155 0.021127 0.048373 0.046093 0.056022 0.341107 0.082259 -0.071483 -0.046782 0.000277 0.201855 -0.153669 -0.275726 -0.007185 0.023145 -0.029376 0.083909 -0.072510 -0.156134 -0.136881 -0.181982 0.095906 0.008635 -0.016399 0.037429 -0.022546 -0.012226 0.058089 -0.024670 0.118204 -0.099302 0.019885 0.009776 0.023094 -0.036277 -0.086156 0.053346 0.034798 0.068039 -0.030208 -0.053709 0.045597 -0.006528 0.178361 0.169660 0.011114 0.040643 0.067652 0.110321 0.190851 -0.167415 -0.124468 -0.176862 -0.090955 0.008349 -0.042297 0.058474 -0.074307 0.226104 0.113433 -0.117160 -0.025626 -0.076537 0.072651 0.001880 -0.437136 0.209903 -0.006518 0.102532 0.114149 -0.010069 0.053118 -0.142408 0.098496 0.072507 -0.035621 -0.509147 0.389032 0.074555 0.251728 0.154250 0.024298 -0.269846 0.106221 -0.346570 -0.083996 -0.098332 -0.081935 0.091086 -0.048305 0.148815 -0.147632 -0.349446 -0.133146 0.417957 -0.418132 -0.006134 0.409857 -0.061064 0.093952 -0.131528 0.266759 0.008858 0.154304 0.116624 0.048012 0.209001 -0.163650 -0.064799 -0.017922 0.088772 0.016994 0.016369 -0.250311 -0.156856 -0.188197 -0.098182 0.244369 -0.145329 0.217566 -0.406152 0.347188 
aMing-WeiChang 0.079705 -0.039144 0.004172 0.045540 0.041153 0.094789 0.011547 -0.001736 0.086664 0.030357 -0.025116 0.073404 0.093564 -0.052843 -0.069302 0.021139 0.195648 -0.150657 -0.062789 -0.072875 0.026709 -0.115309 0.086079 -0.169888 -0.166040 -0.121462 -0.132338 0.064574 -0.107619 -0.082572 0.037104 0.004901 -0.080968 0.103371 0.039374 0.196981 -0.137859 0.137147 0.125775 0.096600 -0.102880 -0.154711 0.011597 0.075446 0.119887 -0.043004 -0.115185 0.127222 0.004103 0.154364 0.184278 -0.025494 -0.003363 0.182799 0.100383 0.271890 -0.061873 -0.069962 -0.139861 -0.101183 0.001756 -0.022238 0.010776 -0.073078 0.198814 0.132072 -0.082833 0.009710 -0.089356 0.013597 0.014743 -0.315561 0.206497 -0.028013 0.114864 0.154404 -0.055260 0.057368 -0.064275 0.134999 0.079051 0.007301 -0.638746 0.335492 0.024670 0.076514 0.092083 0.023080 -0.365276 0.142388 -0.251255 -0.201202 -0.057198 -0.110243 -0.008470 0.006954 0.156775 -0.239991 -0.339085 -0.113171 0.449189 -0.510330 -0.128416 0.452747 -0.100888 0.085617 -0.122982 0.241341 -0.039978 0.236584 0.178346 0.089879 0.136073 -0.127126 0.003243 -0.072402 0.080563 -0.009454 0.061027 -0.307250 -0.139799 -0.190986 -0.033078 0.109028 -0.141464 0.264870 -0.388336 0.324992 
aMichalRosen-Zvi 0.097500 0.119319 0.059978 -0.064649 0.083122 0.175086 0.025704 0.014927 0.045107 0.053646 0.076689 0.301659 0.111740 -0.032362 -0.108552 -0.026604 0.192293 -0.174863 -0.238017 -0.004514 0.044950 -0.108222 0.094414 -0.100395 -0.178651 -0.165828 -0.179826 0.126277 0.005825 -0.043050 0.058413 0.062930 -0.009873 0.024916 -0.051709 0.132308 -0.075726 0.027782 0.006309 0.015354 -0.048606 -0.123804 0.046050 0.021870 0.066179 -0.021125 -0.053458 0.032562 -0.022156 0.149112 0.146934 -0.016177 0.031448 0.100070 0.107068 0.206238 -0.095130 -0.051151 -0.094417 -0.075117 -0.000874 -0.012244 0.048709 -0.030803 0.236509 0.085692 -0.092357 0.005038 -0.090876 0.043169 -0.014791 -0.415762 0.163878 -0.011192 0.095480 0.113830 -0.009336 0.034822 -0.116263 0.101565 0.088796 -0.001297 -0.510349 0.398410 0.080096 0.289921 0.185888 0.054189 -0.231459 0.184939 -0.375045 -0.158793 -0.144044 -0.086553 0.144103 -0.004188 0.080349 -0.175881 -0.358490 -0.119820 0.403357 -0.444075 -0.016557 0.447879 -0.068765 0.115616 -0.093473 0.305864 -0.002228 0.180774 0.166057 0.007008 0.257320 -0.168154 -0.043324 -0.019142 0.109250 -0.045574 0.025856 -0.266805 -0.164223 -0.187038 -0.119908 0.266455 -0.190397 0.218498 -0.322380 0.287292 
