67 128
</s> 0.003127 0.003453 -0.002992 -0.002561 0.001068 0.002360 0.000735 0.000165 -0.002815 0.001733 -0.003403 0.000976 -0.000587 -0.000748 -0.002590 -0.001470 0.002015 0.002364 0.002320 0.001248 0.001207 -0.002971 -0.003200 0.003883 0.002970 0.002414 -0.000472 0.003137 -0.000387 0.000574 -0.000117 -0.002331 0.001025 -0.001045 -0.002989 0.003714 0.003421 -0.000856 -0.000177 0.000398 -0.002842 -0.003131 0.003558 0.000049 -0.002017 -0.002377 -0.002403 0.001326 0.000157 0.001040 -0.003292 -0.002975 -0.000102 0.000893 0.001992 -0.002477 0.003187 0.000724 0.000875 -0.000475 0.002333 -0.001787 -0.001639 0.001686 -0.000588 0.000805 0.001410 -0.003194 -0.001549 0.002276 0.003306 0.003072 -0.002380 -0.001647 -0.000710 0.001564 -0.002960 0.002342 0.002178 -0.001249 -0.001212 -0.001749 0.003304 0.003056 -0.000922 0.003293 0.003766 0.001418 0.003893 -0.002431 -0.001197 -0.001646 -0.002271 0.002199 0.001234 0.000332 -0.001714 0.001191 0.002390 0.000151 0.001781 -0.003869 0.003371 0.000375 -0.001431 -0.001628 -0.000584 -0.002293 -0.003414 -0.002216 0.003341 -0.001383 -0.002093 0.001810 -0.001331 0.003716 -0.001254 -0.003585 0.002122 -0.000058 -0.002726 0.000762 0.001127 -0.000376 0.001425 -0.003092 0.000688 0.001419 
vknowledgediscoveryanddatamining -0.037680 -0.058451 0.176584 -0.372334 0.086583 0.071772 -0.113230 -0.573423 -0.040361 0.159613 0.055759 -0.752786 -0.024726 -0.065927 0.288729 0.313727 -0.214095 0.343321 0.662062 -0.303834 0.061568 0.355819 -0.212647 -0.084807 -0.051471 0.382034 -0.025702 -0.344348 0.361624 0.228208 -0.050840 -0.102559 0.268804 -0.107349 0.353790 -0.460835 0.103414 -0.048653 0.142304 -0.086524 0.078961 -0.171126 0.147232 -0.358729 0.026885 -0.057513 0.212047 -0.380298 0.039911 -0.285202 -0.008814 -0.023046 -0.167274 -0.081434 -0.373935 -0.123738 -0.027646 -0.191455 0.166627 0.193786 0.382727 -0.108029 0.072806 0.146909 -0.233693 0.165572 0.000842 0.101293 0.205059 0.036689 -0.161413 0.157935 -0.147148 0.079167 0.073771 -0.395817 0.085352 0.251477 0.090013 -0.095543 -0.125586 -0.040064 0.693109 -0.095806 0.202160 -0.152968 0.000918 0.067823 1.189241 -0.008015 0.199802 0.165016 -0.149020 -0.021322 0.027561 0.133732 -0.117960 0.354983 0.141838 -0.197762 -0.208148 0.502402 0.263789 -0.271490 0.231857 0.064782 -0.070578 0.017554 0.063334 -0.080350 -0.147330 0.071711 0.263328 0.152123 -0.026403 0.034506 -0.088302 0.094003 -0.210662 0.219910 -0.057970 0.023091 0.141897 -0.063356 0.126899 0.076889 0.360164 0.131226 
vinternationalconferenceondataengineering -0.032425 -0.043823 0.153045 -0.300886 0.139573 0.086528 -0.132211 -0.607054 -0.006101 0.128010 0.049981 -0.629266 -0.031631 -0.036359 0.286292 0.333946 -0.191632 0.342964 0.707598 -0.348476 0.072063 0.382190 -0.243065 -0.098155 -0.040984 0.382826 -0.046650 -0.325235 0.373634 0.229739 -0.046321 -0.129593 0.267595 -0.120202 0.362851 -0.468504 0.119134 -0.023296 0.136997 -0.058877 0.082784 -0.144887 0.137902 -0.369175 -0.013822 -0.042858 0.248584 -0.398927 0.017772 -0.325975 0.006452 -0.034193 -0.158092 -0.097846 -0.385206 -0.135805 0.005058 -0.158900 0.163703 0.219710 0.370352 -0.144771 0.098361 0.120686 -0.217236 0.161193 -0.018120 0.093845 0.218075 0.039099 -0.182544 0.213214 -0.138244 0.051988 0.063745 -0.375533 0.061404 0.287768 0.110648 -0.085980 -0.155498 -0.007972 0.714014 -0.093535 0.207881 -0.192491 -0.002380 0.063065 1.207195 -0.009996 0.223069 0.180897 -0.137593 -0.010909 0.017613 0.167942 -0.095805 0.335977 0.093050 -0.142154 -0.148480 0.482254 0.242725 -0.231750 0.176574 0.078223 -0.014926 0.068010 0.091548 -0.108039 -0.160849 0.065358 0.224542 0.124172 0.028288 0.063022 -0.046792 0.093867 -0.285325 0.235016 -0.094643 -0.007757 0.124601 -0.081795 0.125812 0.099341 0.358409 0.148908 
aJiaweiHan 0.130038 0.125496 0.027972 0.006202 0.082154 0.122261 0.151138 -0.139596 -0.028254 0.243044 -0.062382 0.132611 -0.031986 -0.103124 0.096760 -0.088178 0.029834 -0.189138 0.078020 -0.038275 0.145246 0.000226 0.145659 -0.070077 -0.118920 -0.279960 -0.079938 0.011905 0.135757 0.080353 0.109081 -0.064201 -0.015255 0.070998 -0.024565 0.024408 -0.025978 -0.020523 0.034148 0.023343 -0.086215 -0.147658 0.118105 0.031461 0.089734 -0.080489 0.022748 -0.090323 0.060095 0.029019 -0.080250 0.005516 0.136913 0.076563 -0.003880 -0.067136 -0.014282 0.007735 -0.022308 -0.062982 -0.271342 0.033432 0.045242 -0.039328 0.229325 -0.072454 0.023915 0.015935 0.045370 0.147637 -0.014436 -0.109387 -0.062604 0.114682 0.147972 0.083759 -0.164256 -0.036050 -0.134015 0.126016 0.105632 -0.083124 -0.363131 0.116846 0.029700 0.084174 0.290526 -0.108911 -0.404183 0.055491 -0.219449 -0.010508 -0.086669 -0.143955 0.101805 0.014168 -0.031578 -0.238995 -0.032778 -0.084737 0.224112 -0.528839 0.047603 0.321818 -0.122574 -0.133610 0.126723 -0.099375 -0.101312 -0.039110 0.147394 -0.084144 -0.001172 0.017013 -0.128115 -0.131545 0.114487 0.088550 -0.094572 -0.249844 0.172647 0.139635 -0.010576 0.181258 -0.051177 -0.195626 -0.197868 0.155012 
vinternationalconferenceondatamining -0.017733 -0.043875 0.182009 -0.358746 0.090733 0.064507 -0.115958 -0.605718 -0.031456 0.150595 0.067873 -0.786911 -0.028197 -0.052031 0.290308 0.344700 -0.222173 0.375336 0.691982 -0.335051 0.058703 0.375510 -0.231063 -0.087929 -0.038030 0.427371 -0.019881 -0.353004 0.358475 0.213752 -0.057226 -0.101618 0.266261 -0.140476 0.326695 -0.457265 0.121920 -0.051822 0.135013 -0.098179 0.100285 -0.142314 0.129593 -0.375707 0.017330 -0.053207 0.235684 -0.413612 0.027944 -0.319151 0.018387 -0.026384 -0.175510 -0.099401 -0.424750 -0.144627 -0.023917 -0.185969 0.203479 0.204994 0.426097 -0.110500 0.083779 0.164335 -0.221913 0.153693 0.002151 0.086218 0.212249 0.037591 -0.163433 0.169209 -0.163776 0.072037 0.075394 -0.398687 0.074265 0.270450 0.099545 -0.096456 -0.130913 -0.040357 0.647679 -0.095503 0.218512 -0.180340 0.007268 0.077664 1.079554 -0.010782 0.190606 0.160822 -0.165953 -0.017774 0.031652 0.153394 -0.129724 0.346439 0.130847 -0.208196 -0.218704 0.519369 0.261285 -0.276759 0.204833 0.058779 -0.057569 0.028004 0.062033 -0.102238 -0.154818 0.076962 0.275970 0.159200 -0.021640 0.036550 -0.087733 0.088273 -0.223966 0.217019 -0.079128 0.019775 0.137389 -0.089534 0.136931 0.081725 0.370411 0.128598 
vverylargedatabases 0.001847 -0.016495 0.139046 -0.309035 0.131693 0.113671 -0.094700 -0.560260 -0.000716 0.162458 0.038252 -0.607075 -0.020486 -0.019805 0.293289 0.315073 -0.126542 0.284825 0.696835 -0.364149 0.064278 0.386461 -0.197874 -0.083168 -0.038426 0.339971 -0.073995 -0.325531 0.390324 0.245300 -0.038210 -0.114113 0.270240 -0.125028 0.352316 -0.481152 0.121473 -0.016950 0.144194 -0.058302 0.080651 -0.173181 0.149630 -0.350613 -0.010896 -0.039894 0.278442 -0.424963 0.040938 -0.331151 0.013046 -0.054369 -0.163962 -0.105429 -0.434278 -0.138277 0.021514 -0.172537 0.127055 0.247146 0.341956 -0.180119 0.111122 0.097596 -0.210876 0.166795 -0.020266 0.107460 0.209205 0.023412 -0.179402 0.217098 -0.136552 0.050293 0.070846 -0.389691 0.074076 0.290401 0.124452 -0.102050 -0.153958 -0.030491 0.727349 -0.081489 0.198597 -0.200131 -0.033073 0.075962 1.197554 -0.016275 0.215013 0.166764 -0.145346 -0.008083 0.001626 0.188188 -0.082362 0.347880 0.090811 -0.122323 -0.175612 0.502893 0.266672 -0.236209 0.194897 0.087959 -0.018149 0.087356 0.112045 -0.122677 -0.163625 0.058648 0.232706 0.111039 0.048476 0.076538 -0.055460 0.085203 -0.280396 0.227905 -0.110623 -0.046508 0.143562 -0.106134 0.115434 0.112860 0.363248 0.139759 
vinternationalworldwidewebconferences 0.057363 0.019546 0.161082 -0.269404 0.094489 0.031548 -0.097628 -0.571356 -0.019936 0.211419 0.041554 -0.681367 -0.064278 -0.091417 0.293395 0.331349 -0.227219 0.313019 0.655595 -0.297795 0.110869 0.364060 -0.198444 -0.104941 -0.014526 0.445474 0.011753 -0.335699 0.368742 0.195102 -0.040424 -0.118687 0.277631 -0.208191 0.270674 -0.469276 0.129578 -0.049601 0.136443 -0.087432 0.142278 -0.102935 0.126762 -0.400128 -0.001878 -0.057964 0.235527 -0.435103 0.018194 -0.373098 0.042211 -0.032825 -0.149890 -0.102396 -0.468967 -0.200937 -0.027864 -0.169507 0.228378 0.176187 0.446043 -0.088448 0.042345 0.176335 -0.255039 0.117990 0.015113 0.025990 0.218758 0.035769 -0.158230 0.142652 -0.170705 0.062648 0.058506 -0.394567 0.091219 0.305729 0.100597 -0.122607 -0.156294 -0.056913 0.628107 -0.118895 0.210469 -0.205163 0.003211 0.084827 1.141646 -0.050395 0.289802 0.198055 -0.189098 -0.028979 0.048124 0.171617 -0.119528 0.288024 0.113701 -0.224718 -0.188338 0.526016 0.182518 -0.269400 0.206883 0.087246 -0.061775 0.018906 0.043275 -0.123820 -0.166129 0.077510 0.263010 0.135067 -0.014876 -0.005017 -0.103183 0.061937 -0.237458 0.199588 -0.075125 0.033685 0.116804 -0.090105 0.138934 0.076031 0.373085 0.118922 
aChristosFaloutsos 0.092770 0.108550 0.025569 0.036447 0.099643 0.095801 0.103115 -0.093116 -0.015064 0.228558 -0.055843 0.136526 -0.055130 -0.108588 0.081586 -0.089885 -0.014273 -0.147694 0.098152 -0.036616 0.102717 -0.006410 0.114653 -0.083025 -0.151441 -0.261843 -0.081105 0.002966 0.112873 0.079961 0.111946 -0.083617 -0.031264 0.114187 -0.024173 0.052172 -0.013352 -0.004614 0.050965 0.045483 -0.084724 -0.121725 0.121656 0.020860 0.094794 -0.086276 0.033250 -0.083003 0.026056 0.009060 -0.087686 -0.012780 0.112261 0.087683 -0.033541 -0.082355 -0.043251 -0.052838 -0.039082 -0.042067 -0.290298 0.034044 0.066180 -0.039257 0.238575 -0.094936 0.029269 0.016394 0.011359 0.194969 -0.021208 -0.142170 -0.052437 0.147899 0.151692 0.076575 -0.173286 -0.010342 -0.170370 0.143197 0.105937 -0.067109 -0.457506 0.119669 0.032746 0.078765 0.343944 -0.124368 -0.439908 0.043268 -0.201948 -0.022837 -0.096456 -0.145813 0.110159 0.019258 -0.036942 -0.255077 -0.043553 -0.095491 0.214730 -0.506651 0.023804 0.297420 -0.108477 -0.113520 0.112451 -0.094249 -0.077850 -0.068098 0.131516 -0.054386 0.046022 0.006888 -0.083360 -0.174299 0.083636 0.062197 -0.122418 -0.203051 0.148482 0.130353 0.033974 0.185804 -0.047445 -0.162462 -0.144771 0.192920 
aJianPei 0.156134 0.145260 0.025670 0.031357 0.113719 0.162715 0.179829 -0.147444 -0.014095 0.171674 -0.074128 0.147270 -0.004653 -0.101188 0.053079 -0.091777 0.061391 -0.151616 0.074528 -0.040775 0.082058 -0.066393 0.125605 -0.033617 -0.120864 -0.252616 -0.112534 -0.026593 0.113344 0.087902 0.129023 -0.077790 -0.015942 0.109246 -0.019579 0.044384 -0.076883 -0.007570 0.050682 0.037816 -0.100384 -0.150631 0.165031 -0.003789 0.115053 -0.104664 0.047626 -0.100305 0.013240 0.025108 -0.108543 -0.016746 0.124001 0.106709 -0.028078 -0.059002 -0.010006 -0.043833 -0.100302 -0.047414 -0.360486 -0.018673 0.068915 -0.048523 0.191418 -0.070849 0.018252 0.024003 0.070881 0.167233 -0.016017 -0.162931 -0.040337 0.116791 0.148114 0.073887 -0.123319 -0.056687 -0.127924 0.105720 0.097338 -0.098438 -0.352996 0.096925 0.004291 0.079027 0.268336 -0.125087 -0.358360 0.111999 -0.246434 -0.027173 -0.075526 -0.222084 0.176382 0.027030 0.005094 -0.195412 -0.038208 -0.033686 0.271905 -0.562287 -0.006986 0.309968 -0.090930 -0.110065 0.119433 -0.091344 -0.087587 -0.039933 0.146326 -0.070281 -0.024081 -0.038547 -0.065468 -0.102048 0.156802 0.075298 -0.112586 -0.228265 0.143245 0.109438 -0.017688 0.171370 -0.069271 -0.159616 -0.207847 0.139148 
aWeiWang 0.170278 0.132412 0.020486 0.029510 0.045964 0.102727 0.144889 -0.118340 -0.022815 0.267266 -0.076350 0.174635 -0.029292 -0.088906 0.074880 -0.068791 0.049107 -0.209817 0.097973 -0.060420 0.095719 -0.004817 0.135333 -0.053575 -0.134120 -0.247061 -0.115061 -0.027324 0.165397 0.106847 0.125024 -0.105076 -0.049584 0.092110 -0.075590 0.020838 -0.046420 -0.030542 0.013241 0.020575 -0.088808 -0.179189 0.161132 0.010423 0.109613 -0.077041 0.039368 -0.097517 0.036152 0.033198 -0.122475 -0.064028 0.136330 0.101685 -0.030958 -0.052547 -0.038759 -0.033496 -0.078234 -0.066763 -0.379559 0.041692 0.101220 -0.012831 0.154837 -0.083518 0.026993 0.008137 0.076123 0.178200 -0.020662 -0.173913 -0.067250 0.108276 0.122586 0.075276 -0.154430 -0.029747 -0.158742 0.104481 0.090532 -0.081851 -0.368764 0.100185 0.022801 0.070037 0.259822 -0.099251 -0.371662 0.067904 -0.177326 -0.036802 -0.085724 -0.173089 0.138418 0.028416 0.010222 -0.202043 -0.071803 -0.054161 0.247471 -0.562561 0.048716 0.336556 -0.086754 -0.060776 0.124651 -0.062655 -0.076746 -0.005533 0.144387 -0.075567 -0.019904 -0.049294 -0.079812 -0.099831 0.171469 0.054891 -0.110556 -0.292659 0.160638 0.118495 -0.026693 0.138367 -0.056856 -0.166375 -0.175867 0.128554 
aXifengYan 0.131270 0.112243 0.018007 0.004016 0.111115 0.121873 0.128803 -0.140596 -0.006245 0.230112 -0.026091 0.213230 -0.012499 -0.005241 0.079567 -0.024072 0.094562 -0.191798 0.086365 -0.085073 0.093605 0.056686 0.081050 -0.052903 -0.120937 -0.248889 -0.105782 0.016347 0.135105 0.100340 0.054793 -0.074160 -0.025353 0.141864 0.018455 0.007820 -0.010306 -0.054295 0.023297 0.048830 -0.110793 -0.167097 0.137823 0.024237 0.090741 -0.069078 0.039105 -0.080745 0.031019 0.045475 -0.137982 -0.033990 0.105675 0.063787 0.006431 -0.034924 -0.034549 -0.046271 -0.063308 -0.041736 -0.347272 0.016821 0.097717 -0.047833 0.196725 -0.077348 0.047718 0.026392 0.058933 0.143241 -0.040656 -0.073804 -0.088844 0.128797 0.183245 0.101855 -0.170007 -0.030093 -0.120725 0.129662 0.090442 -0.112832 -0.433608 0.110113 0.016223 0.077138 0.264379 -0.102544 -0.417441 0.032163 -0.211609 -0.040593 -0.064316 -0.137272 0.115092 0.008154 -0.045724 -0.256233 -0.053982 -0.093907 0.206130 -0.547445 0.077992 0.353325 -0.125600 -0.117147 0.131418 -0.061707 -0.051493 -0.033584 0.129355 -0.069931 0.021743 0.028242 -0.112366 -0.126475 0.129316 0.077968 -0.103232 -0.208700 0.165023 0.124655 -0.000656 0.181432 -0.030262 -0.182221 -0.166664 0.181444 
vinternationalacmsigirconferenceonresearchanddevelopmentininformationretrieval 0.091378 0.041233 0.140591 -0.215615 0.057941 0.034568 -0.101232 -0.593144 -0.026852 0.171628 0.018964 -0.602036 -0.007017 0.001437 0.230094 0.321924 -0.161062 0.276989 0.558129 -0.262573 0.073114 0.298091 -0.176032 -0.047467 0.012673 0.397503 0.000722 -0.316463 0.290049 0.168685 -0.042781 -0.038450 0.276379 -0.155807 0.275775 -0.459895 0.136270 -0.049570 0.189666 -0.117524 0.117392 -0.189376 0.162993 -0.409930 0.056951 -0.089978 0.301144 -0.542829 0.040138 -0.361652 0.032429 -0.004479 -0.173810 -0.081798 -0.554513 -0.201562 -0.052424 -0.201730 0.204029 0.191589 0.475011 -0.144098 0.088153 0.194803 -0.288595 0.109770 0.007366 0.053159 0.207919 -0.005737 -0.155772 0.143441 -0.156064 0.049529 0.023742 -0.394760 0.113321 0.323720 0.111939 -0.154050 -0.132119 -0.046810 0.718243 -0.100050 0.280739 -0.229451 -0.041713 0.114636 1.131425 -0.052063 0.272393 0.182292 -0.224587 0.009662 0.021152 0.189748 -0.075447 0.312834 0.085422 -0.199719 -0.178681 0.518163 0.222580 -0.281670 0.224904 0.092262 -0.039246 0.012577 0.046327 -0.073271 -0.132221 0.076478 0.333623 0.119920 -0.053044 -0.024652 -0.095866 0.103654 -0.284517 0.214255 -0.026300 0.095516 0.160485 -0.059195 0.146270 0.049613 0.426470 0.176451 
aAnthonyK.H.Tung 0.192034 0.146970 0.027194 -0.023970 0.082437 0.154333 0.129742 -0.138486 -0.002985 0.243390 -0.063188 0.172358 -0.029853 -0.038768 0.092464 -0.049973 0.104031 -0.224607 0.121328 -0.099120 0.104199 0.044028 0.182210 -0.054205 -0.096014 -0.227708 -0.116806 -0.017145 0.177993 0.121581 0.106365 -0.051621 -0.048459 0.123958 -0.045173 0.049938 -0.043119 0.002079 0.038634 0.082323 -0.117971 -0.203640 0.152864 0.058109 0.059353 -0.062229 0.071036 -0.082120 0.031458 0.025829 -0.085929 -0.060519 0.145159 0.057773 -0.039857 -0.048306 0.026814 -0.028559 -0.126117 0.011367 -0.388245 -0.035381 0.112005 -0.107608 0.283660 -0.077550 0.012299 0.053547 0.017460 0.181369 -0.017183 -0.113983 -0.042218 0.097052 0.126404 0.066009 -0.180370 -0.070056 -0.123302 0.124851 0.069508 -0.100199 -0.363500 0.128885 -0.012712 0.067736 0.253828 -0.131324 -0.399404 0.066187 -0.210284 -0.049668 -0.087740 -0.158109 0.092474 0.059765 0.025899 -0.178678 -0.086974 0.007359 0.238139 -0.533126 0.046892 0.352106 -0.139815 -0.044471 0.146296 -0.023325 -0.021656 -0.023739 0.119034 -0.096194 -0.027708 -0.034935 -0.034949 -0.050638 0.164060 0.032325 -0.114774 -0.219251 0.155103 0.073947 -0.028305 0.158198 -0.081796 -0.161552 -0.228569 0.163498 
aLingLiu 0.169978 0.152060 0.008813 -0.039395 0.125605 0.163266 0.176452 -0.150699 0.008045 0.258686 -0.071987 0.100952 -0.011434 -0.072484 0.124446 -0.090498 0.061364 -0.231220 0.088290 -0.011489 0.178457 -0.018376 0.247390 -0.051483 -0.111182 -0.255392 -0.079185 -0.009555 0.118853 0.098807 0.120008 -0.082570 -0.024827 0.091509 -0.085615 0.067149 -0.027698 -0.041317 0.070531 0.097157 -0.073733 -0.200866 0.134265 0.015823 0.060730 -0.113766 0.068212 -0.105981 0.049991 0.035506 -0.115141 -0.038885 0.145644 0.050482 -0.061429 -0.064585 0.003628 -0.032227 -0.143363 -0.017579 -0.331302 -0.005869 0.019290 -0.110374 0.212882 -0.057765 0.062780 0.029968 0.049390 0.168749 -0.011695 -0.109138 -0.056483 0.103091 0.105248 0.069337 -0.118292 -0.048173 -0.097621 0.087230 0.078106 -0.039376 -0.384784 0.114351 0.016013 0.056697 0.217955 -0.084240 -0.438076 0.039849 -0.173835 -0.025807 -0.113963 -0.171190 0.116454 0.005748 0.018445 -0.240333 -0.035025 -0.060694 0.207054 -0.533384 0.051446 0.344503 -0.116391 -0.054789 0.130609 -0.065148 -0.069325 -0.045158 0.079655 -0.094851 -0.002776 -0.011508 -0.060886 -0.107090 0.152155 0.053299 -0.123986 -0.263339 0.217970 0.111056 -0.035585 0.183836 -0.003230 -0.132059 -0.120815 0.115597 
aJingGao 0.105194 0.142720 0.026847 0.043088 0.135908 0.143010 0.189671 -0.196135 -0.030251 0.145857 -0.036803 0.121777 0.021668 -0.082931 0.065405 -0.057667 0.027225 -0.127528 0.023956 0.002979 0.091159 -0.017824 0.052069 -0.058748 -0.121452 -0.235983 -0.061340 0.023070 0.081599 0.070942 0.075304 -0.071161 0.022028 0.092639 0.016340 0.008715 -0.028281 -0.081765 0.039154 0.043357 -0.077801 -0.158103 0.135596 0.008880 0.102818 -0.131189 0.021279 -0.137025 0.091851 0.043137 -0.144955 0.011984 0.132073 0.043389 -0.023841 -0.082126 -0.019664 -0.018242 -0.082924 -0.133378 -0.259357 0.036209 0.008637 -0.086315 0.262508 -0.043471 0.033239 0.020469 0.081907 0.144097 -0.022930 -0.051455 -0.075849 0.130559 0.192243 0.081552 -0.155807 -0.066157 -0.119700 0.142064 0.095955 -0.097840 -0.436287 0.114482 0.008945 0.087216 0.316329 -0.104015 -0.416249 0.083867 -0.287648 -0.019537 -0.083851 -0.178540 0.142177 0.007481 -0.071919 -0.274043 0.004175 -0.141687 0.209527 -0.528383 0.074182 0.331215 -0.116728 -0.127342 0.098923 -0.092757 -0.097118 -0.064263 0.114092 -0.082457 0.020067 0.090401 -0.148228 -0.102919 0.109934 0.082914 -0.053513 -0.221086 0.141843 0.091672 -0.028863 0.172938 -0.030737 -0.175641 -0.189554 0.109912 
aHongCheng 0.171010 0.162654 0.008279 0.016371 0.064572 0.093620 0.151367 -0.096816 -0.002938 0.219162 -0.043596 0.114105 -0.034553 -0.073778 0.098267 -0.054596 0.024059 -0.146116 0.095657 -0.079028 0.110670 0.026494 0.119965 -0.059129 -0.094184 -0.187709 -0.082989 -0.004581 0.121378 0.075450 0.094646 -0.083271 -0.027144 0.062670 -0.063348 0.025390 -0.034824 -0.031116 0.014696 0.027057 -0.056920 -0.123204 0.112652 0.028170 0.099591 -0.078014 0.025003 -0.093409 0.037406 0.034188 -0.075881 -0.030073 0.120114 0.062658 0.002625 -0.051281 -0.038755 -0.005964 -0.024126 -0.073092 -0.267696 0.069875 0.070589 -0.006669 0.178717 -0.067508 0.024976 -0.012404 0.063815 0.185644 -0.012257 -0.143485 -0.067777 0.119711 0.120399 0.055303 -0.184816 -0.028586 -0.146910 0.115591 0.079650 -0.112321 -0.385320 0.080293 0.019984 0.075132 0.330129 -0.130742 -0.425533 0.053942 -0.203571 -0.024538 -0.111027 -0.177220 0.130280 0.023809 -0.025600 -0.241672 -0.060844 -0.110215 0.245251 -0.578533 0.030279 0.334140 -0.109582 -0.097537 0.129410 -0.077018 -0.092722 -0.080940 0.139702 -0.075491 -0.030448 -0.022597 -0.089319 -0.145999 0.139292 0.076692 -0.171944 -0.296372 0.203369 0.171769 -0.028045 0.202108 -0.042791 -0.168317 -0.168239 0.141604 
aJureLeskovec 0.136962 0.113820 0.010158 0.011404 0.060085 0.065801 0.126798 -0.084658 -0.001963 0.204158 -0.065750 0.107533 -0.031312 -0.089309 0.096296 -0.075676 0.005381 -0.130535 0.076758 -0.037275 0.145190 -0.004251 0.123995 -0.061618 -0.101560 -0.199400 -0.080339 0.006109 0.116330 0.071662 0.121082 -0.095944 -0.002533 0.057821 -0.054295 0.018190 -0.043768 -0.030446 0.036626 0.035609 -0.051007 -0.123404 0.124704 0.018239 0.106375 -0.099175 0.035776 -0.134362 0.052530 0.019109 -0.104164 -0.014067 0.151188 0.079296 -0.025700 -0.091100 -0.046658 -0.028538 -0.075810 -0.121665 -0.363188 0.055624 0.036661 -0.033591 0.229014 -0.079888 0.056221 -0.009044 0.071507 0.200273 -0.025796 -0.149584 -0.063570 0.161154 0.159345 0.074192 -0.166827 -0.035682 -0.155451 0.110596 0.097719 -0.124898 -0.442121 0.095285 0.015998 0.068340 0.285650 -0.118844 -0.446066 0.055364 -0.204287 0.000523 -0.065081 -0.160524 0.111079 -0.004741 -0.049773 -0.234905 -0.024479 -0.099863 0.191779 -0.463397 0.015848 0.281110 -0.067772 -0.125111 0.105796 -0.112022 -0.104215 -0.072093 0.092972 -0.072814 0.037882 0.029479 -0.152385 -0.191223 0.089004 0.084223 -0.119538 -0.234595 0.211900 0.159499 -0.019955 0.186256 -0.049607 -0.198434 -0.178858 0.154840 
aJimengSun 0.064193 0.097371 0.021581 0.026451 0.124218 0.116481 0.126000 -0.139940 -0.054767 0.189936 -0.025008 0.079518 -0.038829 -0.166455 0.061791 -0.103346 -0.018528 -0.139964 0.072310 0.007995 0.154294 -0.032105 0.125630 -0.089742 -0.158337 -0.282056 -0.057250 0.008649 0.132153 0.076295 0.107848 -0.085396 0.003692 0.113419 0.016926 0.060141 -0.014559 -0.038474 0.048021 0.034939 -0.108234 -0.142718 0.159567 0.027688 0.114222 -0.102127 0.010689 -0.090213 0.049605 0.049616 -0.149363 0.019000 0.118926 0.064262 -0.011922 -0.106144 -0.033247 -0.034000 -0.032261 -0.091636 -0.244352 -0.012377 0.046500 -0.055780 0.260302 -0.068415 0.024146 0.011988 0.075584 0.196845 -0.029054 -0.100901 -0.030390 0.172746 0.150114 0.060313 -0.118849 -0.105333 -0.152439 0.127137 0.134707 -0.079388 -0.436134 0.123965 0.065249 0.118941 0.379037 -0.177496 -0.400170 0.112355 -0.281489 0.011360 -0.109082 -0.191315 0.138898 -0.020129 -0.064559 -0.294172 -0.004744 -0.127877 0.236303 -0.457359 -0.008421 0.288399 -0.105667 -0.097327 0.101810 -0.114315 -0.103265 -0.019615 0.120912 -0.094643 0.012369 0.066873 -0.064290 -0.076763 0.131705 0.080964 -0.067534 -0.225794 0.169724 0.117470 -0.012796 0.194912 -0.071234 -0.152605 -0.228189 0.158513 
aYizhouSun 0.083585 0.089932 0.011506 -0.000823 0.091081 0.117629 0.138854 -0.133614 -0.021472 0.160451 -0.033796 0.075405 -0.010247 -0.125044 0.080570 -0.076743 -0.011540 -0.125736 0.048292 0.018457 0.109677 -0.025180 0.092415 -0.050882 -0.119619 -0.219207 -0.046490 -0.003417 0.079711 0.056733 0.066505 -0.077490 -0.009811 0.092931 -0.003249 0.021105 -0.026835 -0.047302 0.041550 0.039182 -0.078691 -0.151711 0.131467 0.007588 0.089323 -0.101814 0.008921 -0.104302 0.059348 0.018174 -0.112741 -0.012120 0.137858 0.065580 -0.019554 -0.076563 -0.005902 -0.012767 -0.047181 -0.078008 -0.304986 0.025124 0.042084 -0.034332 0.269287 -0.063287 0.043773 0.039357 0.082217 0.215227 -0.037505 -0.159775 -0.058951 0.141706 0.185717 0.074865 -0.163680 -0.057771 -0.188116 0.159643 0.100666 -0.069303 -0.411205 0.105342 0.026793 0.087090 0.358934 -0.115246 -0.377156 0.094521 -0.248477 -0.007771 -0.105122 -0.214787 0.171335 0.007086 -0.068929 -0.306119 0.002449 -0.117058 0.238523 -0.519841 0.027162 0.319070 -0.129999 -0.147046 0.096426 -0.133391 -0.114095 -0.033241 0.110157 -0.084649 0.003768 0.084005 -0.144211 -0.132746 0.121148 0.082247 -0.040479 -0.242007 0.142312 0.106667 -0.035691 0.151402 -0.030410 -0.187898 -0.200403 0.151015 
vextendingdatabasetechnology -0.020153 -0.024736 0.163869 -0.322206 0.115963 0.096705 -0.112659 -0.549332 -0.021758 0.170281 0.085754 -0.708620 -0.068859 -0.089958 0.304476 0.308986 -0.215914 0.379102 0.708837 -0.374891 0.081885 0.394527 -0.167119 -0.128860 -0.070998 0.406523 -0.040661 -0.340677 0.406201 0.215614 -0.020280 -0.135138 0.277923 -0.122385 0.384222 -0.523358 0.143864 -0.037559 0.089026 -0.073016 0.105166 -0.115266 0.132974 -0.354308 -0.017375 -0.024596 0.249836 -0.389079 0.033482 -0.352184 0.015042 -0.088206 -0.165412 -0.155772 -0.429460 -0.135574 0.033686 -0.174163 0.181182 0.282718 0.415333 -0.160627 0.152132 0.156711 -0.168751 0.143640 -0.005014 0.091393 0.248834 0.116946 -0.202183 0.182045 -0.164766 0.071796 0.094915 -0.380045 0.030778 0.286968 0.069497 -0.046508 -0.177378 0.000238 0.738404 -0.155135 0.229192 -0.206701 0.034107 0.062683 1.186510 0.040972 0.128162 0.184429 -0.192710 0.017970 0.028491 0.192508 -0.139707 0.255548 0.050758 -0.164595 -0.125151 0.546480 0.167441 -0.251964 0.134585 0.123407 -0.024583 0.134700 0.098072 -0.116044 -0.213620 0.074029 0.162250 0.123368 0.081461 0.085167 -0.042155 0.043963 -0.260695 0.250071 -0.142033 -0.031524 0.062261 -0.152827 0.129280 0.109974 0.316533 0.116331 
aLeiLi 0.130390 0.090183 0.011471 0.096955 0.071619 0.170657 0.300443 -0.207303 -0.094321 0.280804 -0.109054 0.130799 0.021884 -0.024396 -0.019570 -0.125255 -0.010165 -0.110252 0.034577 0.055971 0.020997 -0.198890 0.134619 0.086068 -0.106866 -0.269771 -0.052236 -0.029051 0.040794 0.066502 0.082342 0.036823 -0.024105 0.219144 0.031594 0.021291 -0.078382 -0.043227 0.150840 0.026398 -0.109703 -0.210626 0.191509 -0.007133 0.197472 -0.169600 0.040959 -0.164261 0.093208 0.049262 -0.155307 0.002355 0.114725 0.155718 -0.013026 -0.059424 -0.057918 -0.057416 -0.089078 -0.025516 -0.271668 0.047117 0.027724 0.025692 0.069630 -0.086595 0.018163 0.039032 0.047795 0.085002 -0.014332 -0.162015 -0.065523 0.130320 0.177510 0.096328 -0.094912 -0.017862 -0.132767 0.100344 0.160094 -0.107081 -0.376487 0.131515 0.039165 0.087504 0.187662 -0.068233 -0.330809 0.088092 -0.292536 0.004103 -0.054340 -0.171168 0.159414 -0.014655 0.056942 -0.234159 -0.036983 -0.030440 0.270450 -0.592087 -0.036295 0.303489 -0.072419 -0.118076 0.118689 -0.189011 -0.074061 0.032051 0.151691 -0.026814 0.098594 -0.046568 -0.173317 -0.208824 0.180540 0.104934 -0.153252 -0.219948 0.162655 0.188483 0.057106 0.230216 -0.057320 -0.223150 -0.164838 0.210379 
aHanghangTong 0.105789 0.082422 0.016129 0.046563 0.082634 0.076779 0.116076 -0.093016 -0.045041 0.165757 -0.044310 0.113189 -0.056099 -0.131738 0.095451 -0.085901 -0.024791 -0.094075 0.043296 -0.007836 0.174240 0.017417 0.124479 -0.083565 -0.103558 -0.239773 -0.051095 0.027049 0.094821 0.040392 0.072027 -0.053492 -0.014857 0.129543 -0.005286 0.019859 -0.024128 -0.006495 0.058535 0.040211 -0.063183 -0.123740 0.141467 0.018163 0.096008 -0.108011 0.037360 -0.123774 0.050477 0.027344 -0.132260 -0.016613 0.098449 0.060575 -0.009535 -0.065278 -0.047777 -0.058085 -0.036425 -0.063813 -0.309266 0.032734 0.052012 -0.009517 0.237512 -0.062563 0.031986 -0.001070 0.087110 0.219128 -0.059560 -0.156576 -0.041479 0.160832 0.185505 0.069603 -0.190264 -0.044966 -0.205132 0.150404 0.108103 -0.123285 -0.416338 0.101094 0.026822 0.088405 0.344624 -0.151242 -0.438993 0.063019 -0.308441 0.018149 -0.071625 -0.178438 0.136404 0.011759 -0.091920 -0.220396 -0.004920 -0.141172 0.243757 -0.464672 0.021583 0.293533 -0.062739 -0.133503 0.044833 -0.101937 -0.119335 -0.098477 0.131897 -0.067226 0.030502 0.090481 -0.128724 -0.160958 0.063634 0.097677 -0.041501 -0.193785 0.135436 0.109077 -0.021463 0.116937 -0.056698 -0.232956 -0.226171 0.174997 
aWeiLu 0.150167 0.072400 -0.034280 0.075328 0.011294 0.190084 0.270748 -0.142217 -0.101707 0.222428 -0.099350 0.172021 -0.011826 -0.067003 -0.014768 -0.155470 0.018367 -0.082398 0.047084 0.008222 0.008015 -0.202223 0.199490 0.114276 -0.079611 -0.296541 -0.102786 -0.054999 0.081509 0.081235 0.092983 0.027791 -0.045210 0.245827 0.052139 -0.029423 -0.126890 0.010201 0.136976 0.026470 -0.102879 -0.231825 0.234506 0.008692 0.157392 -0.123822 0.027345 -0.137581 0.098936 0.040852 -0.160185 -0.056181 0.138280 0.152995 0.018811 -0.046424 -0.029479 -0.073312 -0.106963 -0.032316 -0.353758 0.043243 0.072097 0.090090 0.098950 -0.038012 -0.007681 0.034339 0.053781 0.069164 -0.002735 -0.228736 -0.012655 0.140287 0.187438 0.035425 -0.078761 -0.092405 -0.144071 0.080346 0.078720 -0.158587 -0.199353 -0.010769 -0.043976 0.081949 0.180128 -0.095026 -0.297989 0.083642 -0.272871 -0.007800 0.027438 -0.191064 0.137942 -0.048180 0.040788 -0.267765 -0.047085 -0.013073 0.343407 -0.534194 -0.117715 0.288803 -0.076407 -0.124335 0.105366 -0.248880 -0.044188 -0.008758 0.127614 -0.023220 0.065733 -0.027667 -0.170310 -0.236493 0.172190 0.088784 -0.197378 -0.254447 0.181151 0.217525 -0.010441 0.205932 -0.116715 -0.240167 -0.241272 0.230689 
aLemanAkoglu 0.095618 0.111282 0.025717 0.036108 0.108311 0.120343 0.126641 -0.158676 -0.069479 0.165086 -0.006462 0.064064 -0.054665 -0.194596 0.071828 -0.100638 -0.071386 -0.086089 0.008928 0.037509 0.142951 0.002633 0.090743 -0.107857 -0.174546 -0.298297 -0.019971 0.035834 0.113283 0.064143 0.074179 -0.073098 -0.008861 0.124602 0.040198 0.034883 -0.034281 -0.045322 0.068574 0.012134 -0.134553 -0.186661 0.156807 0.031405 0.131153 -0.094287 -0.005427 -0.081272 0.077615 0.038554 -0.107125 0.032610 0.095417 0.078221 0.011367 -0.064313 -0.031902 -0.030326 -0.011079 -0.074144 -0.227028 0.039040 0.036581 -0.023142 0.237761 -0.043207 0.006867 0.006490 0.068121 0.152451 -0.015986 -0.108211 -0.059142 0.148598 0.156730 0.073300 -0.164086 -0.081010 -0.167237 0.155734 0.125828 -0.066787 -0.403835 0.114638 0.040208 0.112956 0.384210 -0.125649 -0.424431 0.075689 -0.253416 -0.023246 -0.113917 -0.152466 0.120256 -0.021430 -0.088936 -0.298596 -0.004188 -0.162573 0.244253 -0.505421 0.033886 0.291776 -0.122776 -0.123407 0.095561 -0.120978 -0.114443 -0.032950 0.141224 -0.070201 0.061016 0.092467 -0.140335 -0.113789 0.110385 0.075705 -0.035762 -0.233511 0.127439 0.069752 -0.005158 0.156279 -0.063249 -0.154352 -0.206003 0.119972 
aDeepayanChakrabarti 0.160796 0.128304 0.001975 0.061963 0.016240 -0.037792 0.107770 -0.005987 -0.026727 0.293988 -0.048210 0.113999 -0.038969 -0.113333 0.031864 -0.073193 0.024773 -0.172004 0.047876 -0.004511 0.153429 -0.010020 0.165697 -0.026706 -0.043393 -0.070580 0.008771 -0.008571 0.128354 0.071008 0.077388 -0.068291 -0.055526 0.090129 -0.143753 0.066831 -0.002486 -0.068921 0.038882 0.051839 -0.006578 -0.173558 0.169887 0.036879 0.153412 -0.115073 0.010935 -0.205875 0.054129 0.038024 -0.094835 -0.045716 0.202451 0.095264 -0.068665 -0.148304 -0.079382 -0.036254 -0.054656 -0.193303 -0.392290 0.042960 0.053743 -0.018505 0.225765 -0.106702 0.042903 -0.029107 0.043793 0.169337 -0.027087 -0.185102 -0.039137 0.157237 0.149464 0.036171 -0.153969 -0.022175 -0.255529 0.088709 0.066229 -0.154512 -0.391033 0.041531 0.037398 0.044293 0.333518 -0.121822 -0.339343 0.017819 -0.139352 0.025787 -0.090636 -0.188721 0.141340 0.009087 -0.042328 -0.309688 -0.033190 -0.114667 0.199560 -0.510848 -0.036753 0.308552 -0.060234 -0.106462 0.088904 -0.132287 -0.117420 -0.091671 0.131446 -0.097807 0.037565 0.040820 -0.125448 -0.206699 0.121202 0.085959 -0.133034 -0.314187 0.183943 0.191489 0.007942 0.177175 -0.055237 -0.186587 -0.176831 0.218621 
vWorldWideWeb 0.006107 0.004728 0.110709 -0.261030 0.003940 0.120643 -0.081666 -0.568589 -0.083133 0.187296 0.062405 -0.625974 -0.030288 -0.098610 0.297185 0.273625 -0.198704 0.367799 0.566260 -0.276288 0.039876 0.309833 -0.084711 -0.070840 -0.076872 0.320215 -0.031264 -0.358321 0.348418 0.192764 -0.039821 -0.035263 0.235624 -0.003151 0.373696 -0.501016 0.115228 -0.050434 0.130743 -0.113680 0.088033 -0.227949 0.178271 -0.317006 0.085305 -0.075447 0.234368 -0.425336 0.115786 -0.294979 -0.011748 -0.069139 -0.178089 -0.098682 -0.426477 -0.083220 -0.037994 -0.254309 0.122142 0.278017 0.404821 -0.179545 0.158562 0.203449 -0.293197 0.170919 -0.006389 0.139917 0.265899 0.102850 -0.207878 0.102869 -0.131478 0.056071 0.037890 -0.452820 0.101923 0.261385 0.018427 -0.078234 -0.145528 0.044124 0.929569 -0.211084 0.274996 -0.181822 -0.031908 0.107344 1.207213 0.044931 0.111890 0.160176 -0.199847 0.068762 0.011060 0.136583 -0.109720 0.227778 0.050160 -0.231172 -0.066511 0.593763 0.168312 -0.315636 0.191148 0.154733 -0.035455 0.064583 0.056905 -0.034887 -0.188889 0.089775 0.263370 0.148340 -0.008651 0.002783 -0.016116 0.093439 -0.314318 0.228768 -0.046586 0.100715 0.101845 -0.080025 0.143334 0.036809 0.357365 0.212511 
aDongXin 0.202074 0.163908 0.015350 -0.078246 0.071324 0.168735 0.084150 -0.092289 0.025572 0.211588 -0.052995 0.194044 -0.031582 -0.032490 0.121175 -0.078687 0.184116 -0.245615 0.099978 -0.113625 0.120565 0.029217 0.268187 -0.037075 -0.040093 -0.194506 -0.138263 -0.027391 0.158934 0.124539 0.113599 -0.060454 -0.059984 0.112540 -0.036443 0.047121 -0.061001 0.021495 0.031386 0.088011 -0.101061 -0.191200 0.135517 0.044612 0.026294 -0.046473 0.079508 -0.056506 0.016778 0.030950 -0.063616 -0.053540 0.138424 0.068425 -0.027836 -0.026164 0.033457 -0.009974 -0.117492 0.003059 -0.342231 -0.036577 0.092510 -0.085292 0.278189 -0.047356 0.012407 0.061319 0.005744 0.170697 -0.004239 -0.142238 -0.037650 0.118759 0.174272 0.042278 -0.195118 -0.078966 -0.151555 0.140336 0.043431 -0.105997 -0.292389 0.094304 -0.005164 0.080700 0.351973 -0.143224 -0.419237 0.032518 -0.191214 -0.046780 -0.092944 -0.205581 0.107634 0.056236 0.010364 -0.204177 -0.084174 -0.017901 0.222400 -0.506959 0.086196 0.345003 -0.155767 -0.084416 0.158425 -0.047215 -0.001192 -0.062858 0.096550 -0.076516 0.007755 -0.021899 -0.075759 -0.129889 0.135759 0.039293 -0.153787 -0.219229 0.203977 0.112824 -0.028054 0.187800 -0.058996 -0.161050 -0.182533 0.193602 
aManishGupta 0.240005 0.170549 0.047552 0.078953 0.010931 0.035051 0.200452 -0.097350 -0.058470 0.340533 -0.141545 0.057632 -0.023207 -0.050362 0.037910 -0.088691 0.008384 -0.145440 0.042081 0.028928 0.154421 -0.115019 0.209434 -0.008717 -0.006497 -0.078852 -0.008021 -0.030183 0.098192 0.045833 0.139166 0.015435 -0.028302 0.078103 -0.151388 0.086983 -0.051930 -0.009668 0.128367 0.039809 -0.010351 -0.166745 0.164811 0.008742 0.131761 -0.141248 0.079738 -0.179679 0.075533 0.015370 -0.079871 -0.007152 0.128187 0.123385 -0.118614 -0.108212 -0.074238 -0.049304 -0.163332 -0.098467 -0.306510 0.017787 -0.056752 -0.085952 0.138753 -0.102890 0.040140 -0.024648 0.020885 0.126507 -0.004429 -0.145217 -0.048210 0.144452 0.096451 0.045984 -0.110643 0.007874 -0.141028 0.032266 0.130767 -0.143467 -0.442668 0.173949 0.038025 0.045710 0.158060 -0.076951 -0.463904 0.023013 -0.167726 0.002455 -0.090749 -0.152485 0.089795 0.047783 0.030955 -0.197644 -0.068853 -0.113727 0.212297 -0.528409 0.022362 0.309175 -0.039695 -0.075527 0.139833 -0.126685 -0.110620 -0.094787 0.150056 -0.057218 0.138855 -0.071260 -0.167501 -0.271777 0.126873 0.086521 -0.177581 -0.291620 0.219442 0.156166 0.049208 0.216782 -0.068254 -0.189817 -0.132907 0.151741 
aFlipKorn 0.202003 0.169144 0.037201 -0.034236 0.093684 0.146589 0.137212 -0.152174 0.014545 0.241269 -0.050913 0.185628 -0.032937 -0.055186 0.127133 -0.029050 0.114032 -0.214610 0.088254 -0.116295 0.094205 0.072531 0.139860 -0.080855 -0.123448 -0.268573 -0.132021 0.000125 0.198074 0.127713 0.114416 -0.098776 -0.057143 0.082711 -0.019837 0.006027 -0.042590 -0.004429 0.047922 0.067528 -0.103439 -0.170087 0.122348 0.021799 0.083050 -0.056254 0.072029 -0.091636 0.036375 0.000865 -0.059603 -0.056426 0.086831 0.083524 -0.035037 -0.021267 0.000517 -0.036655 -0.105980 -0.001304 -0.357971 0.027112 0.104780 -0.067567 0.217075 -0.015092 -0.002274 0.022944 0.039746 0.116340 -0.007785 -0.083653 -0.056872 0.097991 0.138896 0.100307 -0.212905 -0.063423 -0.123335 0.135937 0.071754 -0.096102 -0.385057 0.101152 -0.059147 0.048533 0.212178 -0.102509 -0.435685 0.039235 -0.201807 -0.065380 -0.060232 -0.133219 0.090990 0.043998 0.010203 -0.168963 -0.076154 -0.011949 0.266617 -0.613524 0.062201 0.373458 -0.129867 -0.086739 0.175808 -0.025988 -0.031983 -0.074725 0.136595 -0.072261 0.012687 -0.056170 -0.061105 -0.080712 0.162919 0.024948 -0.131704 -0.238861 0.157192 0.065456 -0.004300 0.182490 -0.086833 -0.121391 -0.182884 0.108236 
aHwanjoYu 0.190393 0.138882 0.048440 -0.009637 0.100753 0.150953 0.118106 -0.189975 -0.047096 0.248362 -0.048751 0.138700 -0.038890 -0.129218 0.076985 -0.073408 0.020641 -0.165234 0.049528 -0.014129 0.162338 0.018120 0.127450 -0.073119 -0.135276 -0.287756 -0.038768 0.048544 0.123560 0.071530 0.073734 -0.044573 0.001661 0.100136 0.038306 0.017299 -0.038366 -0.048499 0.048496 0.025606 -0.095870 -0.165927 0.117637 0.016580 0.090248 -0.065869 0.018559 -0.062576 0.024368 0.021416 -0.088077 -0.005723 0.094746 0.042616 -0.000524 -0.041164 -0.011591 -0.063745 -0.064360 -0.004326 -0.271934 -0.017744 0.040503 -0.047634 0.242793 -0.072919 0.059337 0.027371 0.075390 0.195285 -0.034799 -0.100887 -0.088852 0.156114 0.167272 0.083806 -0.131268 -0.065517 -0.117960 0.114405 0.117176 -0.087938 -0.433928 0.115093 0.046424 0.101313 0.271533 -0.110521 -0.378982 0.090737 -0.207025 -0.017344 -0.117985 -0.159144 0.132819 -0.024409 -0.023389 -0.292659 -0.042093 -0.075002 0.210553 -0.547028 0.003039 0.305554 -0.127145 -0.092926 0.095068 -0.076628 -0.127123 0.022870 0.163122 -0.089328 -0.035404 0.018836 -0.089042 -0.104736 0.162091 0.089123 -0.060582 -0.259422 0.159057 0.083080 -0.036880 0.142639 -0.032737 -0.172317 -0.211792 0.132078 
aBolinDing 0.142653 0.119932 0.031656 -0.029194 0.109036 0.149037 0.090665 -0.105009 -0.005885 0.297776 -0.080601 0.238609 -0.068283 -0.063403 0.111828 -0.077927 0.093337 -0.245119 0.097152 -0.076813 0.088237 0.038219 0.162384 -0.047648 -0.105290 -0.286436 -0.108695 0.031048 0.128184 0.094173 0.094568 -0.054472 -0.057927 0.156573 0.020801 0.014065 -0.037349 0.003833 0.038616 0.080825 -0.087575 -0.166481 0.134159 0.021336 0.050748 -0.062042 0.061827 -0.048003 0.023661 0.012987 -0.108486 -0.078713 0.108668 0.036336 -0.031251 -0.039468 0.015869 -0.039487 -0.075057 0.076539 -0.301096 -0.012805 0.114034 -0.049935 0.283580 -0.079192 0.012396 0.059467 0.009071 0.213232 -0.032933 -0.105487 -0.061487 0.112924 0.149271 0.085330 -0.211318 -0.022994 -0.122249 0.148155 0.072766 -0.088736 -0.399952 0.112609 -0.001350 0.066135 0.260341 -0.117103 -0.339733 0.056181 -0.206284 -0.025764 -0.086130 -0.163823 0.102527 0.061092 -0.027205 -0.179137 -0.082028 -0.045582 0.233793 -0.603982 0.057388 0.377009 -0.157821 -0.084086 0.123347 -0.018872 -0.047914 -0.058111 0.141228 -0.069049 -0.049942 -0.015747 -0.023232 -0.095507 0.141875 0.058812 -0.108088 -0.209568 0.121509 0.076677 -0.027198 0.126286 -0.032327 -0.138437 -0.171549 0.152440 
aDengCai 0.190373 0.184813 0.045464 0.020204 0.106239 0.117343 0.268244 -0.174755 -0.011750 0.298161 -0.112468 0.098387 0.112272 0.090732 -0.015270 -0.028306 0.141564 -0.193987 0.067599 0.008070 0.112556 -0.186544 0.139132 0.068082 -0.011645 -0.112548 -0.068968 -0.066298 0.077701 0.071633 0.132991 0.038812 0.026338 0.071930 -0.082935 0.093775 -0.020567 -0.033272 0.108812 0.039592 -0.087417 -0.211610 0.185070 -0.022247 0.141165 -0.145044 0.061510 -0.162880 0.082386 0.031799 -0.081481 0.096167 0.150942 0.135474 -0.109448 -0.129733 -0.019469 0.038844 -0.172956 -0.137214 -0.323778 -0.076377 -0.079405 -0.176494 0.125552 -0.144028 0.046577 0.025281 0.021912 0.051105 -0.001097 -0.073597 -0.057091 0.131716 0.180729 0.119122 -0.107817 -0.013991 -0.118898 0.082980 0.180631 -0.147598 -0.447320 0.256946 0.094634 0.080766 0.272767 -0.120591 -0.444705 0.047645 -0.195900 0.005091 -0.095214 -0.202617 0.139010 0.071158 0.061300 -0.148708 -0.023710 -0.014126 0.163591 -0.516710 0.082458 0.303074 -0.057517 -0.145278 0.172756 -0.119660 -0.079700 -0.003705 0.159879 -0.075530 0.163149 -0.040349 -0.193704 -0.144854 0.151612 0.128464 -0.102969 -0.188907 0.199500 0.155793 0.086703 0.280304 -0.059711 -0.203236 -0.146811 0.194415 
veuropeanconferenceonprinciplesofdataminingandknowledgediscovery 0.000081 -0.052732 0.216143 -0.348268 0.162890 0.033960 -0.175181 -0.622231 0.017281 0.037615 0.050186 -0.719218 0.046899 0.133303 0.145381 0.328154 -0.109180 0.320340 0.654646 -0.374661 0.026728 0.336206 -0.309580 -0.045431 0.007597 0.378378 -0.062984 -0.271317 0.238330 0.185723 -0.061511 -0.075455 0.237327 -0.100718 0.296296 -0.328392 0.125310 -0.038416 0.174981 -0.079654 0.026563 -0.188851 0.140971 -0.380194 0.034917 -0.069660 0.313230 -0.494145 -0.041582 -0.274186 -0.017208 0.037191 -0.162824 -0.068834 -0.471820 -0.177114 -0.026807 -0.148738 0.223709 0.169156 0.427033 -0.167832 0.168569 0.133587 -0.135794 0.165825 -0.030421 0.118748 0.172753 -0.021637 -0.161090 0.289905 -0.171369 0.065275 0.065530 -0.373198 0.003557 0.309169 0.160411 -0.094489 -0.130748 -0.013419 0.725739 -0.004341 0.320445 -0.239072 0.041348 0.065799 1.151137 -0.000701 0.172225 0.170011 -0.204815 -0.014013 0.007768 0.233974 -0.105076 0.478528 0.122048 -0.093693 -0.303464 0.395707 0.422993 -0.203575 0.143510 -0.056561 0.020401 0.046385 0.108769 -0.111850 -0.089901 0.056518 0.346258 0.176396 -0.035440 0.102043 -0.086057 0.156226 -0.237431 0.241969 -0.076039 -0.000103 0.215829 -0.079185 0.154826 0.101865 0.459847 0.203170 
aXinLi 0.307837 0.195479 0.010766 0.028934 -0.005476 0.036897 0.211443 -0.063766 -0.032244 0.366646 -0.070602 0.078486 0.008323 0.019383 0.040984 -0.051843 0.060044 -0.187574 0.101036 -0.052094 0.189330 -0.058979 0.202918 0.030077 0.008277 -0.053219 0.004745 -0.022882 0.093381 0.050135 0.056266 0.036996 -0.025304 0.055979 -0.166602 0.070517 -0.031530 -0.035774 0.087819 0.035114 -0.043853 -0.188350 0.137682 0.055415 0.184679 -0.106171 0.044703 -0.199201 0.065454 0.043340 -0.023740 0.016365 0.164694 0.129454 -0.045318 -0.107068 -0.082751 -0.007839 -0.082824 -0.167940 -0.324406 0.042180 -0.021113 -0.036533 0.066539 -0.118547 0.040357 -0.043686 0.007302 0.067732 -0.003108 -0.155323 -0.053938 0.094433 0.106280 0.069869 -0.135647 0.019560 -0.164092 0.048243 0.117711 -0.208190 -0.406065 0.132404 0.047595 0.057355 0.246890 -0.088156 -0.456494 -0.036187 -0.158370 0.028056 -0.130297 -0.173002 0.120801 0.037420 0.048432 -0.252482 -0.081228 -0.085718 0.182954 -0.528475 -0.001433 0.301625 -0.032845 -0.072403 0.136739 -0.105239 -0.084128 -0.065004 0.131789 -0.068118 0.122988 -0.072911 -0.157267 -0.260218 0.126468 0.090405 -0.200339 -0.284623 0.230918 0.194136 0.054544 0.235376 -0.072552 -0.207229 -0.147592 0.208953 
aChenChen 0.126511 0.106418 0.000733 -0.001023 0.095290 0.204731 0.204186 -0.144545 -0.053727 0.265784 -0.080521 0.119926 -0.018686 -0.052702 0.055605 -0.113973 0.032332 -0.149954 0.141244 -0.047928 0.115523 -0.120232 0.209495 0.014218 -0.099264 -0.270366 -0.105988 -0.039288 0.119920 0.087132 0.107963 0.010445 -0.032109 0.194856 0.003633 0.059790 -0.069360 0.046078 0.109559 0.055581 -0.142488 -0.254180 0.220422 0.041254 0.087007 -0.069891 0.033034 -0.030634 0.082046 0.047618 -0.114971 -0.003263 0.104962 0.085462 -0.002087 -0.045922 0.020456 -0.031093 -0.149443 0.016200 -0.338064 -0.066577 0.039258 -0.080454 0.123029 -0.059946 -0.014884 0.032403 0.013116 0.094263 0.001582 -0.116964 -0.009857 0.111386 0.126552 0.060133 -0.130706 -0.078355 -0.103857 0.111489 0.112593 -0.121095 -0.266224 0.117514 0.010106 0.096560 0.260758 -0.150616 -0.365526 0.070838 -0.244092 -0.021953 -0.055474 -0.177000 0.098160 0.018715 0.048299 -0.207837 -0.069585 -0.033404 0.310541 -0.557614 0.005697 0.343931 -0.116546 -0.089639 0.157989 -0.114083 -0.025703 -0.037222 0.141623 -0.066574 0.026369 -0.039768 -0.062098 -0.099908 0.167169 0.093525 -0.181954 -0.247247 0.161408 0.134783 -0.006671 0.194816 -0.102151 -0.186406 -0.218862 0.200348 
aSpirosPapadimitriou 0.183358 0.180430 0.026708 0.016916 0.090426 0.154227 0.173599 -0.178156 0.001074 0.150897 -0.062276 0.168366 -0.004321 -0.041553 0.111575 -0.060960 0.107341 -0.212867 0.079790 -0.075675 0.068760 0.024312 0.121672 -0.068761 -0.124910 -0.294430 -0.158577 -0.014031 0.128680 0.111462 0.123646 -0.087884 -0.009581 0.049721 -0.033666 0.011653 -0.062001 -0.034413 0.007141 0.017997 -0.096685 -0.149868 0.127707 0.012676 0.091787 -0.095337 0.063658 -0.110029 0.040682 0.034285 -0.111075 -0.035925 0.148827 0.099817 -0.016291 -0.037942 0.000655 0.006508 -0.044047 -0.065018 -0.329498 0.047204 0.090424 -0.045407 0.242015 -0.049389 0.012475 0.054006 0.042960 0.174576 -0.007572 -0.130872 -0.065463 0.108039 0.155901 0.042251 -0.218255 -0.061172 -0.154044 0.166095 0.087627 -0.097150 -0.344872 0.122622 0.004395 0.084828 0.320506 -0.102909 -0.399726 0.091872 -0.233057 -0.062795 -0.095087 -0.205531 0.119159 0.050635 -0.012827 -0.254779 -0.072860 -0.051290 0.194161 -0.523619 0.089602 0.316225 -0.141379 -0.104237 0.131058 -0.057292 -0.040154 -0.014729 0.120858 -0.062684 0.000065 -0.018736 -0.117201 -0.112792 0.119545 0.045247 -0.081138 -0.213652 0.144475 0.083521 -0.028200 0.152049 -0.058417 -0.179220 -0.197626 0.137714 
aChiranjibBhattacharyya 0.247802 0.202564 0.039113 0.056314 0.042397 0.144277 0.198100 -0.183412 -0.075431 0.182768 -0.036535 0.035219 -0.002822 -0.079819 0.043025 -0.084816 -0.015432 -0.078845 0.027425 -0.010196 0.106092 -0.042288 0.076887 -0.032345 -0.097521 -0.264554 -0.027127 0.007724 0.078649 0.044029 0.077157 -0.018642 0.008060 0.084045 -0.052033 0.031929 -0.075637 -0.036471 0.082077 -0.030810 -0.117100 -0.183762 0.146235 0.030769 0.182201 -0.124296 0.028116 -0.152681 0.071128 0.044632 -0.077721 0.055561 0.164547 0.141616 -0.018655 -0.088289 -0.052944 -0.010115 0.002496 -0.126838 -0.284783 0.048008 0.017568 -0.005225 0.208975 -0.095564 0.006875 0.007848 0.037270 0.115694 0.009632 -0.176676 -0.082974 0.093727 0.136484 0.020262 -0.137928 -0.018931 -0.121418 0.096103 0.159471 -0.158445 -0.384311 0.149064 0.056532 0.098837 0.316219 -0.052664 -0.440381 0.031105 -0.237324 -0.029682 -0.171460 -0.193316 0.132004 0.029096 -0.025656 -0.272539 -0.044659 -0.124976 0.187488 -0.494756 0.030269 0.261159 -0.097826 -0.120059 0.114384 -0.130953 -0.120348 -0.009574 0.175518 -0.060216 0.060491 0.001410 -0.170812 -0.222080 0.092556 0.095755 -0.109112 -0.305635 0.194830 0.170218 0.001758 0.203389 -0.084351 -0.200338 -0.217806 0.156865 
aXinJin 0.164184 0.144200 0.009178 0.048129 0.025230 0.073638 0.178819 -0.058119 -0.004860 0.221782 -0.062206 0.041508 0.008678 -0.056332 0.038983 -0.035009 0.028148 -0.131319 0.128534 -0.058791 0.091022 -0.066479 0.180463 -0.016680 -0.070008 -0.108182 -0.091804 -0.123895 0.140752 0.077598 0.125026 -0.048186 -0.066023 0.085696 -0.169545 0.092847 -0.029064 0.006515 0.058252 0.045274 -0.089372 -0.190099 0.190929 0.020155 0.109671 -0.108958 0.046964 -0.124604 0.031155 0.023417 -0.066232 -0.018246 0.152484 0.141049 -0.072691 -0.086377 -0.055863 -0.042632 -0.138940 -0.113889 -0.462552 0.012274 0.047306 -0.085712 0.122891 -0.103505 0.029430 -0.022371 0.069862 0.125611 -0.003179 -0.210066 -0.024443 0.108165 0.100416 0.046965 -0.083219 -0.019724 -0.169823 0.049980 0.092898 -0.084618 -0.334900 0.106603 0.028254 0.056206 0.288871 -0.128730 -0.457181 0.031222 -0.148658 -0.040037 -0.080846 -0.159686 0.138879 0.050257 0.018953 -0.213597 -0.048167 -0.063180 0.296982 -0.524244 0.003644 0.313216 -0.073770 -0.090109 0.144017 -0.127061 -0.088175 -0.077072 0.158721 -0.079545 0.045605 -0.044237 -0.107263 -0.142212 0.136393 0.049614 -0.154564 -0.249487 0.176071 0.134150 0.003691 0.192361 -0.078476 -0.177013 -0.177796 0.160578 
aXiaoleiLi 0.224474 0.211682 0.045273 -0.058021 0.162561 0.198597 0.099131 -0.147125 0.008608 0.244326 -0.072135 0.227467 -0.030369 -0.071269 0.076402 -0.118174 0.184081 -0.260894 0.126372 -0.111082 0.083699 0.004507 0.195717 -0.034997 -0.087970 -0.282716 -0.119913 0.013620 0.133118 0.139527 0.126210 -0.074584 -0.040065 0.138412 -0.035600 0.080993 -0.071225 0.011908 0.058415 0.118313 -0.130823 -0.224820 0.169392 0.042174 0.073405 -0.077869 0.078966 -0.097784 0.006615 0.027129 -0.090806 -0.055087 0.182129 0.062695 -0.063723 -0.097231 0.055999 -0.028783 -0.120382 -0.011982 -0.386076 -0.092452 0.124942 -0.129210 0.367938 -0.088231 -0.018208 0.065522 -0.055546 0.131727 0.026693 -0.120506 -0.032188 0.079192 0.136201 0.027390 -0.169462 -0.058392 -0.104683 0.120784 0.071203 -0.106152 -0.315684 0.130354 -0.011088 0.054956 0.309007 -0.105744 -0.363389 0.049188 -0.203049 -0.051186 -0.109330 -0.211050 0.106199 0.074388 0.052714 -0.153788 -0.075460 0.049939 0.156207 -0.528150 0.026250 0.308466 -0.168319 -0.078254 0.161191 -0.024988 0.010539 -0.068159 0.129802 -0.075529 -0.028950 -0.060844 0.029877 -0.091867 0.155406 0.038958 -0.168991 -0.240277 0.124395 0.060710 -0.003068 0.166421 -0.085566 -0.070931 -0.185421 0.167229 
aDanRoth 0.057400 0.036518 0.005306 0.014946 0.056346 0.070954 0.096665 -0.071888 -0.036846 0.233777 -0.071298 0.096893 -0.065700 -0.156061 0.070627 -0.129526 -0.038588 -0.174496 0.080878 0.014352 0.173109 -0.052577 0.152819 -0.069952 -0.103689 -0.212135 -0.031849 0.015626 0.115155 0.048754 0.106617 -0.079364 -0.026544 0.109913 -0.060525 0.064144 -0.015269 -0.004098 0.039910 0.038990 -0.046938 -0.090523 0.115962 0.039442 0.084317 -0.076999 0.007190 -0.084491 0.037664 0.017185 -0.126176 -0.031358 0.141716 0.064895 -0.027815 -0.113965 -0.024128 -0.004932 -0.009563 -0.062770 -0.254205 0.007854 0.048264 -0.010731 0.242469 -0.086901 0.053471 0.019501 0.068860 0.252435 -0.051164 -0.166091 -0.047891 0.163875 0.137507 0.082786 -0.139915 -0.030035 -0.177843 0.123477 0.104437 -0.044604 -0.419779 0.115087 0.051560 0.080148 0.279105 -0.128092 -0.382511 0.097001 -0.223338 0.024577 -0.080961 -0.161515 0.125916 -0.003344 -0.071033 -0.309157 -0.032827 -0.135375 0.226352 -0.455454 0.036455 0.317036 -0.113766 -0.141116 0.122749 -0.140453 -0.114615 -0.024953 0.107705 -0.095835 0.023341 0.062249 -0.130343 -0.172640 0.094165 0.082429 -0.046760 -0.242695 0.211309 0.161318 -0.011888 0.183169 -0.058365 -0.203212 -0.207071 0.186583 
aZhijunYin 0.179047 0.150207 0.006926 0.043545 0.061412 0.037689 0.145749 -0.096419 -0.010123 0.173736 -0.032401 0.104167 -0.005502 -0.096476 0.075170 -0.076453 0.065174 -0.164447 0.002054 0.005989 0.144535 0.004614 0.158514 -0.043292 -0.047354 -0.105518 -0.022076 0.000763 0.079297 0.067653 0.063739 -0.078649 -0.032188 0.062361 -0.100021 0.055887 -0.041952 -0.091611 0.067656 0.053861 -0.020786 -0.130014 0.113042 0.012290 0.140489 -0.148255 0.047330 -0.218382 0.033591 0.052649 -0.115851 -0.033001 0.145098 0.101892 -0.025513 -0.069306 -0.085336 -0.068554 -0.051445 -0.184581 -0.339404 0.093870 0.034833 0.003518 0.183965 -0.015066 0.060271 -0.008937 0.092467 0.165561 -0.034171 -0.175627 -0.060071 0.152407 0.154718 0.027370 -0.148772 -0.064589 -0.211847 0.098873 0.060449 -0.108003 -0.367563 0.033196 0.012851 0.046958 0.282067 -0.084379 -0.447531 0.042845 -0.219555 -0.009846 -0.088867 -0.207716 0.154073 -0.033761 -0.055699 -0.317503 -0.004688 -0.132274 0.175920 -0.455616 0.005746 0.275919 -0.062964 -0.133488 0.095359 -0.144859 -0.113755 -0.085279 0.085195 -0.083544 0.064320 0.065645 -0.182965 -0.226916 0.115373 0.083135 -0.117453 -0.290796 0.271554 0.206417 -0.006847 0.238676 -0.030665 -0.200813 -0.169541 0.199878 
aFeidaZhu 0.189993 0.178618 0.037636 -0.000999 0.071492 0.192322 0.233165 -0.201373 -0.001384 0.175836 -0.019364 0.122972 0.011789 -0.086642 0.137920 -0.012230 -0.003750 -0.114294 0.097660 -0.096742 0.103479 0.043175 0.017644 -0.115715 -0.164994 -0.277416 -0.124699 0.009019 0.104128 0.062866 0.076300 -0.123100 -0.009493 0.002305 -0.030659 -0.000529 -0.076444 -0.026320 0.015117 -0.006699 -0.182065 -0.188823 0.127652 0.046788 0.134238 -0.094502 0.032871 -0.095389 0.038476 0.035220 -0.027765 0.027135 0.141066 0.159395 0.046191 -0.000843 -0.031996 -0.025067 -0.037882 -0.129516 -0.389939 0.130887 0.035914 -0.020989 0.246046 -0.069242 0.022574 0.024356 0.092912 0.063841 0.007831 -0.088773 -0.098815 0.050734 0.193915 0.086592 -0.166415 -0.035951 -0.094530 0.123021 0.068490 -0.178690 -0.423348 0.084628 -0.044637 0.082684 0.274852 -0.047792 -0.469604 0.033691 -0.258008 -0.064429 -0.113219 -0.205910 0.190597 0.067269 -0.024992 -0.280536 -0.030729 -0.155186 0.203890 -0.501740 0.034916 0.268576 -0.096481 -0.077039 0.101219 -0.083010 -0.095980 -0.094070 0.130309 -0.044156 0.058454 -0.007781 -0.177485 -0.184521 0.110729 0.053208 -0.152211 -0.268182 0.020572 0.002397 -0.026121 0.075259 -0.065999 -0.227002 -0.224961 0.119017 
aPeixiangZhao 0.206248 0.168628 0.023228 0.049458 0.101327 0.179994 0.250694 -0.180812 -0.051146 0.219547 -0.108950 0.049586 -0.013376 -0.014811 0.069114 -0.116203 -0.011056 -0.160127 0.059714 0.029996 0.135009 -0.076259 0.214324 -0.050688 -0.098056 -0.258991 -0.077371 -0.019320 0.100088 0.093280 0.147637 -0.003338 0.003272 0.116245 -0.064245 0.099229 -0.052141 0.016057 0.107952 0.035309 -0.152347 -0.221345 0.173519 0.043418 0.095878 -0.121727 0.074087 -0.107837 0.067385 0.037192 -0.104665 0.036890 0.152476 0.129294 -0.053923 -0.063171 0.002791 -0.000554 -0.094583 -0.040176 -0.341065 -0.006618 0.027295 -0.124832 0.254338 -0.094272 0.013853 0.069829 -0.033819 0.126903 0.002750 -0.109996 -0.043393 0.092893 0.106690 0.030791 -0.163807 -0.033364 -0.098914 0.124140 0.119365 -0.092017 -0.355859 0.200599 0.033389 0.073439 0.245295 -0.069364 -0.432139 0.060722 -0.230171 -0.065724 -0.100927 -0.139848 0.044154 0.053797 0.020559 -0.231952 -0.065751 -0.065786 0.182024 -0.454870 0.094404 0.290557 -0.144106 -0.106136 0.152843 -0.124709 -0.035549 -0.035725 0.115762 -0.053699 0.129989 -0.011058 -0.168617 -0.187700 0.080276 0.053347 -0.100543 -0.221855 0.121152 0.067585 0.037151 0.152903 -0.077929 -0.214237 -0.179111 0.185140 
aXiaoxinYin 0.192348 0.127028 0.021609 0.012332 0.090428 0.059329 0.101630 -0.055631 -0.014851 0.231856 -0.073851 0.110399 -0.056158 -0.112857 0.071701 -0.102023 0.056891 -0.198908 0.110765 -0.058291 0.231637 0.014609 0.254147 -0.064593 -0.062967 -0.188258 -0.061836 -0.006360 0.143737 0.085380 0.125541 -0.033758 0.000671 0.067828 -0.070585 0.069024 -0.022940 0.000041 0.040532 0.072289 -0.051127 -0.124568 0.124794 0.032439 0.055723 -0.071586 0.047086 -0.122381 0.002714 0.011592 -0.065683 -0.013811 0.150978 0.039538 -0.045670 -0.104070 0.007764 -0.010798 -0.076432 -0.079814 -0.325152 -0.046373 0.047589 -0.080606 0.241809 -0.086404 0.043996 -0.000081 0.049017 0.198773 -0.037900 -0.162535 -0.044345 0.145659 0.148944 0.040204 -0.165306 -0.041703 -0.165008 0.103630 0.068530 -0.124691 -0.317517 0.103768 0.031679 0.060903 0.330898 -0.165226 -0.438169 0.067184 -0.253319 0.016092 -0.097435 -0.194914 0.116810 0.028590 -0.032204 -0.242339 -0.039144 -0.067647 0.235069 -0.488919 0.010809 0.310735 -0.103457 -0.138127 0.109156 -0.106180 -0.094329 -0.093050 0.126991 -0.098731 0.001597 0.038777 -0.099169 -0.132252 0.095384 0.092133 -0.106422 -0.213882 0.192085 0.137333 -0.007557 0.182033 -0.052425 -0.206832 -0.214498 0.197226 
aMichaelI.Jordan 0.190592 0.177175 0.036900 0.000944 0.066259 0.184628 0.206441 -0.208703 -0.018792 0.141802 -0.050165 0.102184 0.004206 -0.085489 0.150055 -0.063376 0.019715 -0.139723 0.093030 -0.082601 0.098626 0.027296 0.066083 -0.090892 -0.173106 -0.384391 -0.158485 0.001306 0.084571 0.073322 0.110058 -0.087487 -0.005681 -0.019199 -0.027986 -0.004156 -0.098001 -0.027350 0.042985 -0.023692 -0.140365 -0.156633 0.090913 0.016761 0.106262 -0.103497 0.041776 -0.089087 0.061137 0.032173 -0.038522 0.029990 0.111053 0.124242 0.050354 0.011491 -0.019089 -0.008045 -0.030322 -0.099256 -0.297073 0.129408 0.017020 -0.006836 0.219880 -0.018441 0.002322 0.022285 0.082241 0.116701 0.013997 -0.141748 -0.090932 0.069649 0.183082 0.065332 -0.216279 -0.050911 -0.119258 0.164376 0.119774 -0.122916 -0.358574 0.125760 -0.014660 0.093137 0.304331 -0.054430 -0.472653 0.057999 -0.273717 -0.061973 -0.103066 -0.184277 0.121410 0.039529 -0.018496 -0.246873 -0.024309 -0.102853 0.187324 -0.508173 0.056947 0.251099 -0.104355 -0.108962 0.087172 -0.080716 -0.100682 -0.039688 0.133461 -0.035834 0.012131 -0.007433 -0.180260 -0.151863 0.095299 0.068779 -0.103130 -0.241370 0.098038 0.044054 -0.046965 0.103499 -0.048500 -0.200083 -0.200803 0.071383 
aHectorGonzalez 0.145515 0.159097 -0.001925 -0.087625 0.142648 0.230755 0.195083 -0.132571 0.029490 0.236761 -0.040630 0.195737 -0.001742 -0.002563 0.130222 -0.076846 0.182186 -0.269082 0.131183 -0.126266 0.123848 0.002689 0.227359 -0.035961 -0.092268 -0.323447 -0.171022 -0.019545 0.185947 0.137213 0.130116 -0.079406 -0.048926 0.101196 -0.039599 0.043330 -0.033514 0.031222 0.042889 0.095065 -0.127598 -0.209680 0.145711 0.051715 0.064009 -0.051512 0.064644 -0.063652 0.053259 0.040333 -0.070288 -0.026965 0.162908 0.087911 -0.023771 -0.059790 0.042444 0.014976 -0.103459 -0.017112 -0.379379 -0.043821 0.105603 -0.115810 0.286302 -0.030044 -0.024417 0.060323 -0.025046 0.104609 0.014826 -0.065495 -0.000591 0.078564 0.127365 0.051062 -0.210526 -0.108412 -0.112482 0.153457 0.062335 -0.104397 -0.257342 0.098241 -0.036847 0.057812 0.280204 -0.134446 -0.408063 0.032167 -0.231474 -0.042572 -0.073114 -0.178838 0.065983 0.052824 0.026544 -0.181147 -0.062030 0.035676 0.221612 -0.507527 0.046843 0.339293 -0.158387 -0.098923 0.187417 -0.035442 0.022131 -0.068286 0.095602 -0.089710 -0.015366 -0.034426 0.002914 -0.034431 0.130356 0.040473 -0.151823 -0.210488 0.142739 0.090373 -0.016554 0.186822 -0.100740 -0.112547 -0.205801 0.163795 
aMaryMcGlohon 0.092382 0.102643 0.028667 0.043780 0.117575 0.130603 0.139827 -0.155415 -0.062200 0.147967 -0.042809 0.083132 -0.054690 -0.184756 0.099835 -0.123823 -0.024465 -0.097456 -0.011668 0.049345 0.175279 -0.025958 0.167178 -0.099559 -0.156598 -0.339860 -0.060507 0.031700 0.111450 0.064487 0.115501 -0.087177 0.010465 0.127632 0.036902 0.023108 -0.027916 -0.018477 0.069130 0.027634 -0.079194 -0.113596 0.133495 0.005529 0.121420 -0.122367 0.037920 -0.124989 0.037854 0.015923 -0.122936 0.014938 0.115861 0.103172 -0.041689 -0.087939 -0.023152 -0.048947 -0.022220 -0.049118 -0.243413 0.002992 0.032102 -0.023120 0.278593 -0.029886 0.025536 0.026792 0.064873 0.175945 -0.030868 -0.118008 -0.040666 0.180059 0.197542 0.039443 -0.156359 -0.069343 -0.185178 0.149099 0.109871 -0.080497 -0.398622 0.094778 0.019411 0.089175 0.337593 -0.118196 -0.397898 0.076924 -0.288920 -0.007751 -0.106908 -0.189910 0.144374 -0.000865 -0.102021 -0.325511 -0.003173 -0.154869 0.266558 -0.523180 0.032372 0.316333 -0.111132 -0.158682 0.077844 -0.135626 -0.115751 -0.091647 0.139285 -0.063073 0.073185 0.094059 -0.117621 -0.168122 0.063290 0.077146 -0.041730 -0.199321 0.103726 0.056738 0.003644 0.117949 -0.060840 -0.189701 -0.204970 0.156635 
aZhengShao 0.121176 0.155905 0.032140 -0.084696 0.169911 0.070523 0.116078 -0.135802 0.029738 0.217856 -0.088228 0.307935 0.090940 0.124230 0.021146 -0.001162 0.328061 -0.244400 0.052202 -0.115828 0.057904 -0.040658 0.035046 0.073747 -0.014605 -0.255968 -0.198516 0.018366 0.142620 0.127903 0.127857 -0.055370 0.031598 0.085184 0.064642 -0.020974 -0.022255 -0.009780 0.020366 0.067576 -0.061489 -0.172504 0.193115 -0.058600 0.060541 -0.061021 0.046101 -0.112585 0.099365 0.018106 -0.165375 0.013158 0.130623 0.026175 -0.060264 -0.131194 0.075975 0.126286 -0.126191 -0.113102 -0.351701 -0.136769 0.068727 -0.140777 0.223735 -0.047559 -0.021967 0.026750 0.043169 0.039111 -0.002299 -0.005282 -0.052032 0.180558 0.266198 0.131119 -0.278050 -0.094737 -0.152103 0.177134 0.143697 -0.207546 -0.386581 0.205981 0.030827 0.061776 0.345304 -0.202183 -0.462741 0.069483 -0.230590 -0.018224 0.051018 -0.204676 0.064469 0.055744 -0.041093 -0.001986 -0.011586 0.069843 0.132915 -0.514466 0.183809 0.355851 -0.088638 -0.260963 0.183746 -0.051918 0.015571 -0.054754 0.131371 -0.087176 0.084890 0.070614 -0.133500 0.025349 0.140482 0.164978 -0.038035 -0.107893 0.211819 0.147214 0.031300 0.254375 -0.093533 -0.120419 -0.163098 0.154116 
aSangkyumKim 0.196898 0.174176 0.023288 -0.058658 0.105523 0.211854 0.153782 -0.170971 0.000222 0.179957 -0.031177 0.127638 -0.002768 -0.074600 0.122901 -0.071695 0.107077 -0.178186 0.121717 -0.119884 0.113978 0.039131 0.173193 -0.050358 -0.123098 -0.307321 -0.135307 -0.024745 0.125697 0.109210 0.085753 -0.076726 -0.051525 0.076393 -0.052112 0.042326 -0.086840 -0.017815 0.044716 0.055775 -0.178404 -0.257288 0.153394 0.052109 0.079857 -0.084241 0.046795 -0.069357 0.043357 0.058061 -0.056423 -0.008617 0.155300 0.091414 0.038221 -0.009850 0.009364 -0.038101 -0.113424 -0.063324 -0.455662 0.021887 0.079266 -0.079412 0.258747 -0.074918 0.009324 0.025115 0.068303 0.098395 0.015684 -0.145506 -0.077691 0.069233 0.189204 0.063908 -0.164011 -0.053706 -0.105791 0.125388 0.083174 -0.127267 -0.312976 0.105002 0.007760 0.090185 0.359540 -0.101726 -0.429360 0.010140 -0.196379 -0.054341 -0.090713 -0.159917 0.118503 0.040291 0.016784 -0.206256 -0.033558 -0.057527 0.188079 -0.502485 0.064574 0.274353 -0.131815 -0.078480 0.113715 -0.050628 -0.044021 -0.042907 0.136158 -0.062480 -0.017865 -0.017020 -0.101223 -0.102505 0.140299 0.060187 -0.137296 -0.236509 0.125108 0.060947 -0.047530 0.120367 -0.046542 -0.154269 -0.188356 0.122027 
vasia-pacificwebconference 0.026353 0.016713 0.082342 -0.229795 -0.088467 0.129821 -0.049838 -0.621318 -0.126511 0.207014 0.026105 -0.624896 0.036174 -0.039810 0.252425 0.256603 -0.194087 0.374928 0.511613 -0.204046 -0.003726 0.192857 -0.023928 0.019845 -0.038864 0.328297 -0.010396 -0.407091 0.275141 0.173988 -0.050352 0.081355 0.223743 0.065388 0.348232 -0.470048 0.096715 -0.054724 0.203475 -0.154785 0.069915 -0.330283 0.213832 -0.317027 0.154399 -0.110147 0.255546 -0.492943 0.155109 -0.233768 -0.010606 -0.015617 -0.206639 -0.043700 -0.438843 -0.049936 -0.097158 -0.310899 0.077230 0.266575 0.445139 -0.200942 0.128805 0.227301 -0.409602 0.146671 0.002414 0.154253 0.230544 0.025886 -0.176638 0.044508 -0.083408 0.036275 -0.031750 -0.437117 0.180853 0.239490 0.012282 -0.138530 -0.096061 0.030016 1.026726 -0.197423 0.301449 -0.154281 -0.119632 0.142041 1.251780 0.004504 0.168272 0.142816 -0.199356 0.103511 -0.021202 0.092760 -0.032301 0.198978 0.041033 -0.237535 -0.035168 0.582732 0.176088 -0.354931 0.246877 0.169798 -0.036959 -0.016573 0.019267 0.052016 -0.125346 0.086428 0.351330 0.115682 -0.099198 -0.086380 -0.014052 0.138755 -0.343836 0.199630 0.065206 0.219707 0.159107 0.020686 0.137041 -0.028936 0.389803 0.272627 
aWen-tauYih 0.228226 0.195718 0.067581 0.140393 0.131584 0.135904 0.292311 -0.217149 -0.081791 0.287866 -0.139453 0.033877 0.013893 -0.096591 -0.036509 -0.146630 -0.075008 -0.192206 0.020180 0.110112 0.153778 -0.185602 0.148027 -0.047268 -0.139947 -0.253195 0.016638 0.005393 0.068475 0.063296 0.167801 0.009286 -0.010226 0.118403 -0.125024 0.192217 -0.042350 -0.022155 0.170273 0.008327 -0.123259 -0.206673 0.181022 0.010220 0.174169 -0.162086 0.040346 -0.155884 0.033869 0.031742 -0.065860 0.085839 0.113703 0.151468 -0.089731 -0.107599 -0.058796 -0.039180 -0.066320 -0.092236 -0.238603 -0.015215 -0.033859 -0.106951 0.099290 -0.116627 0.019868 0.017355 -0.011350 0.114423 -0.002554 -0.156485 -0.052717 0.080801 0.030444 0.063219 -0.072860 0.033003 -0.120419 0.060182 0.169095 -0.018810 -0.364730 0.242121 0.117212 0.070992 0.223531 -0.057805 -0.378914 0.114199 -0.217391 -0.028309 -0.148273 -0.135816 0.111177 0.043565 0.054235 -0.203430 -0.030105 -0.063035 0.214089 -0.558086 0.041525 0.278427 -0.054360 -0.117018 0.128833 -0.150758 -0.159463 -0.000842 0.195687 -0.074983 0.152062 -0.039672 -0.176486 -0.193107 0.130613 0.113529 -0.095864 -0.259071 0.161963 0.128963 0.112591 0.208673 -0.043808 -0.190779 -0.101046 0.190512 
aFanGuo 0.131630 0.140008 -0.002725 0.023973 0.025346 0.028111 0.142818 -0.030192 -0.003984 0.291163 -0.033979 0.090674 -0.033028 -0.133704 0.076614 -0.084252 0.010953 -0.178530 0.050902 -0.001894 0.126873 -0.031837 0.139870 -0.050223 -0.082833 -0.076036 -0.015413 -0.028262 0.165788 0.085198 0.116278 -0.113333 -0.055976 0.050122 -0.130200 0.058378 -0.018883 -0.065603 0.041685 0.026705 -0.000319 -0.159031 0.146087 0.035040 0.151474 -0.089324 0.014897 -0.150976 0.080646 0.040767 -0.063162 -0.020098 0.180510 0.122025 -0.081925 -0.134568 -0.082963 -0.028710 -0.058721 -0.167330 -0.297701 0.066422 0.009424 -0.017384 0.248946 -0.054266 0.040160 -0.016826 0.043725 0.215272 -0.021999 -0.155615 -0.026405 0.191846 0.129428 0.065061 -0.179312 -0.094376 -0.246141 0.120631 0.071273 -0.117069 -0.468927 0.031581 -0.004866 0.057648 0.314627 -0.129874 -0.366430 0.042470 -0.139514 0.028282 -0.112108 -0.220346 0.137921 -0.031602 -0.069796 -0.314025 -0.010865 -0.141152 0.224472 -0.449136 -0.048448 0.287410 -0.051446 -0.072140 0.114566 -0.129246 -0.130487 -0.059359 0.059059 -0.106470 0.036975 0.038079 -0.111000 -0.158930 0.112230 0.043024 -0.096733 -0.290402 0.274375 0.235582 0.009029 0.271871 -0.062898 -0.157430 -0.174186 0.181393 
aTianyiWu 0.104583 0.114234 0.028615 -0.114690 0.114278 0.250442 0.097243 -0.111842 0.029446 0.211805 -0.048513 0.185771 -0.005812 -0.093468 0.153487 -0.120857 0.166940 -0.228306 0.157101 -0.128129 0.132656 -0.054072 0.260583 -0.035224 -0.075112 -0.240365 -0.149356 -0.043531 0.157401 0.123749 0.095781 -0.092591 -0.107952 0.194491 -0.055117 0.112797 -0.073433 0.106290 0.095541 0.142481 -0.153031 -0.259588 0.177494 0.097044 0.039813 -0.039595 0.057140 -0.026232 0.043984 0.037962 -0.039412 -0.037039 0.152657 0.100045 -0.034324 -0.049381 0.075319 -0.052451 -0.225802 -0.015441 -0.516009 -0.122084 0.085587 -0.165092 0.334314 -0.018426 -0.045983 0.076673 -0.040467 0.067756 0.012141 -0.128157 0.020682 0.074996 0.202816 0.045116 -0.195840 -0.059771 -0.195059 0.174823 0.044874 -0.095064 -0.204663 0.108779 -0.062101 0.039746 0.326780 -0.110927 -0.343476 -0.000935 -0.254639 -0.020197 -0.064959 -0.201642 0.127582 0.108072 0.045424 -0.137921 -0.055231 0.027906 0.284931 -0.529789 0.082544 0.377054 -0.134744 -0.111700 0.183926 -0.018777 0.052178 -0.168928 0.075177 -0.082786 0.009396 -0.013464 0.005659 -0.109136 0.113182 0.036651 -0.193306 -0.218515 0.115255 0.066060 -0.017362 0.128490 -0.115544 -0.137969 -0.207252 0.257185 
aMichalRosen-Zvi 0.016904 0.032805 0.039642 0.079906 0.094654 0.073566 0.096589 -0.110451 -0.050730 0.244169 -0.065106 0.146455 -0.064219 -0.178049 0.049280 -0.126092 -0.082153 -0.181432 0.062818 0.036372 0.113334 -0.045128 0.079078 -0.097230 -0.164133 -0.206186 -0.010566 0.047996 0.101984 0.055149 0.077551 -0.082389 -0.039072 0.189164 -0.005571 0.099768 -0.015550 -0.031555 0.061401 0.058924 -0.097955 -0.121871 0.137184 0.071827 0.102645 -0.090605 -0.003086 -0.086117 0.056275 0.031204 -0.144865 -0.017627 0.097073 0.044268 -0.013950 -0.089674 -0.019514 -0.030065 -0.050241 -0.062536 -0.218273 0.012373 0.059345 -0.044740 0.251503 -0.093647 0.035309 0.050564 0.054335 0.257254 -0.071521 -0.125793 -0.046229 0.151517 0.153222 0.101988 -0.159450 -0.014323 -0.205856 0.166549 0.114743 -0.044777 -0.473945 0.160901 0.053091 0.084352 0.309577 -0.133341 -0.312127 0.149732 -0.327834 0.043656 -0.099671 -0.165977 0.162748 0.035490 -0.071316 -0.271467 -0.031942 -0.136891 0.249087 -0.489262 0.043563 0.338696 -0.117817 -0.118142 0.128005 -0.101480 -0.079996 -0.025533 0.078756 -0.086545 0.035207 0.071772 -0.122479 -0.129538 0.114314 0.058267 -0.033286 -0.158277 0.146343 0.128126 0.028897 0.187299 -0.037700 -0.164980 -0.168256 0.195462 
aGaborMelli 0.123350 0.125896 0.010806 0.038114 0.083889 0.179842 0.147925 -0.146320 -0.049936 0.102165 -0.033671 0.094580 -0.031747 -0.087153 0.098001 -0.116836 -0.048261 -0.066581 0.044862 -0.027442 0.113796 -0.010291 0.045412 -0.088489 -0.178195 -0.396705 -0.115870 0.045592 0.080992 0.053275 0.116352 -0.087515 0.018277 0.124285 0.018229 0.024138 -0.082886 -0.010760 0.038872 -0.027351 -0.132126 -0.149884 0.134797 0.047197 0.122663 -0.103496 0.035626 -0.063260 0.078943 0.071058 -0.132474 0.051803 0.126942 0.087175 0.039495 -0.039064 -0.044655 -0.022221 0.000291 -0.069772 -0.238267 0.064693 0.025653 -0.007101 0.261219 -0.074325 0.001954 0.026015 0.033783 0.214493 -0.006126 -0.117550 -0.054547 0.102133 0.139927 0.035580 -0.193267 -0.047482 -0.120990 0.161735 0.153970 -0.127427 -0.393145 0.157578 0.061299 0.133418 0.370287 -0.099822 -0.399935 0.063833 -0.287314 -0.015570 -0.119390 -0.167774 0.085682 0.018892 -0.096200 -0.271523 -0.029634 -0.180781 0.189810 -0.462561 0.080990 0.279079 -0.110085 -0.122623 0.091892 -0.097351 -0.107533 -0.018033 0.105426 -0.054979 0.037442 0.068400 -0.190607 -0.210224 0.047341 0.096515 -0.070113 -0.224714 0.206394 0.157729 -0.044112 0.175690 -0.059314 -0.230590 -0.224074 0.136482 
aJia-YuPan 0.002852 0.032257 0.039957 0.080176 0.109535 0.084373 0.070373 -0.103195 -0.058828 0.221133 -0.030520 0.203827 -0.077133 -0.165386 0.044773 -0.108949 -0.062873 -0.125312 0.010337 0.024569 0.130400 0.005205 0.075304 -0.125677 -0.164427 -0.245908 -0.030600 0.073293 0.123016 0.063259 0.078362 -0.076807 -0.036223 0.229464 0.081184 0.067293 0.003654 -0.040379 0.034707 0.049219 -0.140414 -0.155543 0.158454 0.054615 0.096241 -0.084265 -0.006570 -0.046546 0.053799 0.045836 -0.169557 0.011328 0.066566 0.033741 0.019699 -0.053655 -0.049260 -0.054236 -0.043154 -0.028233 -0.186662 0.022551 0.068584 -0.041984 0.259253 -0.083287 0.039471 0.033654 0.059354 0.245867 -0.068174 -0.039718 -0.069045 0.179787 0.183082 0.116795 -0.155424 -0.028626 -0.163250 0.159970 0.110420 -0.018560 -0.440768 0.137705 0.087708 0.112385 0.355000 -0.159607 -0.272394 0.111413 -0.258190 0.021305 -0.083240 -0.098281 0.113826 0.000875 -0.096185 -0.297329 -0.043841 -0.145153 0.251453 -0.558531 0.055440 0.365220 -0.152653 -0.143933 0.127614 -0.096294 -0.109992 -0.030159 0.152492 -0.083100 0.021451 0.091365 -0.144260 -0.145868 0.137112 0.104869 -0.080674 -0.215387 0.129868 0.111502 0.007245 0.175798 -0.023602 -0.197898 -0.208232 0.199832 
aGertR.G.Lanckriet 0.236022 0.205138 0.045640 0.097219 -0.020686 0.080057 0.294552 -0.141050 -0.064606 0.384580 -0.133141 0.042326 0.016749 -0.021665 0.041900 -0.078760 0.002296 -0.152140 0.065708 0.031107 0.119878 -0.173434 0.234740 0.021727 -0.001885 -0.070025 -0.008282 -0.096178 0.075650 0.027783 0.111695 0.063458 -0.076399 0.143413 -0.211087 0.138284 -0.051085 0.000570 0.189292 0.015595 -0.064850 -0.231673 0.207503 0.040044 0.170917 -0.184929 0.059633 -0.187648 0.102092 0.043031 -0.068820 0.033393 0.163230 0.209955 -0.105525 -0.100765 -0.104110 -0.051414 -0.127283 -0.111493 -0.403044 0.049400 -0.046803 -0.063670 0.056863 -0.145403 0.045918 -0.003048 0.024618 0.054592 -0.004875 -0.171709 -0.056968 0.135267 0.089147 0.029603 -0.071371 0.043969 -0.157985 0.020626 0.139097 -0.128517 -0.401810 0.153451 0.081778 0.051488 0.198368 -0.063161 -0.459533 -0.018728 -0.104801 -0.005195 -0.111274 -0.134212 0.101661 0.056243 0.022549 -0.222389 -0.054193 -0.138792 0.225180 -0.468720 0.041541 0.277291 -0.047359 -0.115539 0.134852 -0.177713 -0.115877 -0.077712 0.171971 -0.046610 0.145524 -0.034998 -0.213783 -0.250700 0.063195 0.082606 -0.125942 -0.257055 0.206393 0.219080 0.077479 0.236020 -0.068530 -0.253400 -0.147605 0.213159 
aShashankPandit 0.257735 0.216231 0.017031 0.061296 -0.047063 -0.050479 0.082510 0.006698 0.023473 0.317256 -0.060084 0.198169 -0.042700 -0.155227 0.069582 -0.079741 0.127903 -0.258094 0.038235 -0.049921 0.114798 0.001565 0.259000 -0.028420 0.005966 0.006253 -0.015329 -0.061491 0.106185 0.070369 0.083725 -0.065801 -0.077593 0.036563 -0.180027 0.035162 -0.051272 -0.095802 0.049719 0.048325 0.009832 -0.133674 0.129689 0.005909 0.147495 -0.138589 0.025125 -0.259208 0.026910 -0.013078 -0.045855 -0.063205 0.224105 0.160312 -0.087947 -0.140845 -0.106978 -0.052556 -0.049680 -0.242773 -0.454051 0.141724 0.043965 0.045038 0.147468 -0.085989 0.106746 -0.060400 0.107913 0.148088 -0.019764 -0.296357 -0.132880 0.209644 0.202322 0.042785 -0.106846 0.030321 -0.218491 0.032052 0.022480 -0.121136 -0.412711 -0.046131 -0.017197 0.011780 0.314826 -0.069349 -0.479252 -0.038946 0.002609 -0.029476 -0.114987 -0.215867 0.196894 -0.026627 -0.071789 -0.339939 -0.033663 -0.121255 0.165226 -0.376936 -0.021844 0.222708 -0.059728 -0.170982 0.094147 -0.190975 -0.110661 -0.106261 0.087760 -0.051047 0.054606 0.038257 -0.205829 -0.282798 0.025680 0.041797 -0.129596 -0.228062 0.300469 0.280107 0.018006 0.273952 -0.007944 -0.160483 -0.085315 0.194927 
aKevinSmall 0.078017 0.076540 -0.003365 0.067773 0.137469 0.076917 0.077621 -0.072747 -0.057970 0.168829 -0.084927 0.094402 -0.116368 -0.211372 0.058673 -0.179615 -0.062053 -0.106509 0.059344 0.050689 0.201796 -0.037243 0.233964 -0.112071 -0.143198 -0.259420 -0.037600 0.016743 0.116431 0.075311 0.145141 -0.039203 0.018262 0.218237 -0.003064 0.102923 -0.033533 -0.005736 0.077961 0.066635 -0.093580 -0.152787 0.195797 0.058497 0.070185 -0.099987 0.029433 -0.075468 0.046593 0.035783 -0.178246 0.000650 0.096715 -0.003405 -0.033474 -0.097113 -0.003057 -0.056870 -0.070870 -0.006366 -0.260969 -0.086783 0.056606 -0.091892 0.232784 -0.088799 0.039823 0.006644 0.054007 0.266563 -0.060498 -0.108250 -0.024661 0.186480 0.103553 0.045749 -0.119168 -0.056678 -0.119758 0.122665 0.095010 -0.035562 -0.355800 0.110331 0.053039 0.102235 0.337079 -0.196691 -0.307923 0.109761 -0.207476 -0.006206 -0.079490 -0.118009 0.079511 -0.026724 -0.105348 -0.267582 -0.021731 -0.168769 0.328551 -0.535180 0.046900 0.363133 -0.152907 -0.154049 0.116747 -0.138022 -0.110997 -0.085182 0.137436 -0.103827 0.003401 0.119151 -0.086713 -0.088730 0.077566 0.080770 -0.017062 -0.190105 0.190006 0.129290 -0.007232 0.194008 -0.059982 -0.188902 -0.232919 0.162908 
aAliceX.Zheng 0.081376 0.073157 0.053914 0.104909 0.098231 0.084251 0.091596 -0.151730 -0.078043 0.225072 -0.113107 0.132573 -0.078943 -0.185914 0.054661 -0.139797 -0.052155 -0.151641 0.022078 0.070066 0.158459 -0.041115 0.180429 -0.097263 -0.147667 -0.295591 -0.032459 0.030121 0.115826 0.060505 0.134174 -0.045510 -0.010090 0.210018 0.021365 0.065555 -0.016145 -0.021900 0.101344 0.048951 -0.048935 -0.095295 0.131231 0.019709 0.070960 -0.131502 0.041949 -0.116792 0.038266 0.008894 -0.181077 -0.022141 0.092522 0.041235 -0.047203 -0.079980 -0.042427 -0.116041 -0.077613 0.000308 -0.288612 -0.031291 0.051913 -0.053578 0.274790 -0.107955 0.079695 0.053105 0.093957 0.300026 -0.092824 -0.143204 -0.068226 0.231040 0.200224 0.057670 -0.110752 -0.008815 -0.209275 0.134770 0.149114 -0.017534 -0.421407 0.150086 0.117206 0.100089 0.303644 -0.137806 -0.357946 0.144444 -0.316659 0.031767 -0.066521 -0.085639 0.102012 -0.015473 -0.098779 -0.276618 -0.003312 -0.130189 0.242097 -0.465623 0.028642 0.302584 -0.139640 -0.181115 0.089486 -0.149304 -0.141052 -0.022527 0.146182 -0.075066 -0.012224 0.128615 -0.141626 -0.142804 0.072635 0.087981 0.019405 -0.173283 0.143090 0.122809 -0.009221 0.127993 -0.006553 -0.197378 -0.180179 0.154751 
aThomasHofmann 0.117803 0.085078 0.025111 0.042028 0.134955 0.051315 0.126546 -0.103618 -0.069746 0.267213 -0.041669 0.202602 -0.085190 -0.194120 0.034982 -0.135350 -0.015670 -0.171915 -0.028931 0.044429 0.192283 0.014759 0.170005 -0.075626 -0.115597 -0.258237 0.000832 0.090254 0.126774 0.076760 0.076274 -0.100592 -0.041455 0.160069 0.033735 0.045883 -0.012134 -0.074702 0.033023 0.067175 -0.097131 -0.151037 0.165457 0.017311 0.124569 -0.099213 -0.013046 -0.139670 0.005669 0.048398 -0.164252 -0.038898 0.138926 0.048387 0.020676 -0.103074 -0.042583 -0.019762 0.020640 -0.101476 -0.267844 0.036689 0.127530 0.036546 0.312065 -0.090622 0.056257 0.027263 0.119287 0.228416 -0.074031 -0.146105 -0.079337 0.215834 0.192008 0.066584 -0.158046 -0.061390 -0.196599 0.119873 0.070929 -0.099617 -0.410999 0.040492 0.078631 0.067010 0.351437 -0.163406 -0.335085 0.117963 -0.269324 0.048648 -0.058905 -0.182661 0.152045 -0.054391 -0.084916 -0.242160 -0.009758 -0.089664 0.163606 -0.443721 -0.034674 0.255807 -0.098942 -0.139556 0.079901 -0.142033 -0.103212 -0.039092 0.121731 -0.078574 0.024567 0.077813 -0.105509 -0.123967 0.159542 0.110163 -0.070883 -0.218165 0.162569 0.138653 0.001492 0.160244 -0.035849 -0.160494 -0.191501 0.207396 
aWenJin 0.089630 0.088730 0.017416 0.098852 0.128775 0.017535 0.088111 -0.068199 -0.088098 0.270152 -0.095127 0.096507 -0.103729 -0.178693 0.028376 -0.139667 -0.068888 -0.149677 0.015507 0.104429 0.175962 -0.057290 0.187349 -0.075421 -0.110291 -0.260320 0.015360 0.041499 0.070253 0.035263 0.107401 0.002186 0.015200 0.164659 0.002316 0.072008 0.031201 -0.004537 0.069075 0.072256 -0.057592 -0.107048 0.169018 -0.001785 0.076184 -0.113593 0.016288 -0.100922 0.064902 -0.011639 -0.191996 -0.026353 0.094734 0.009720 -0.070729 -0.150293 -0.002874 0.011989 -0.023161 -0.014305 -0.178397 -0.053983 0.047100 -0.063574 0.198085 -0.149167 0.033708 0.001778 0.033465 0.249869 -0.058162 -0.139252 -0.041954 0.169293 0.133256 0.073197 -0.144014 0.027459 -0.176849 0.133690 0.156678 -0.043469 -0.417370 0.202813 0.113349 0.096242 0.400416 -0.181342 -0.379542 0.100637 -0.255193 0.030618 -0.127379 -0.176847 0.121719 0.053336 -0.078895 -0.284313 -0.047379 -0.154195 0.252928 -0.522744 0.063880 0.343432 -0.151758 -0.158091 0.099068 -0.128517 -0.084233 -0.079156 0.177888 -0.053204 0.053559 0.078316 -0.055002 -0.106014 0.082963 0.100700 -0.041856 -0.198004 0.055943 0.049199 0.040693 0.119768 -0.041943 -0.154867 -0.157139 0.160060 
aZhihuaZhang 0.161916 0.085891 0.022672 0.129665 0.078937 0.022966 0.066805 -0.089579 -0.088784 0.145267 -0.040589 0.080824 -0.105882 -0.199998 -0.002016 -0.125749 -0.067297 -0.116659 -0.049896 0.057305 0.163321 0.030239 0.164930 -0.093486 -0.143687 -0.252303 0.008974 0.055696 0.170638 0.089203 0.124177 -0.056704 -0.009147 0.164086 0.027702 0.042810 -0.031919 -0.057510 0.050167 0.025121 -0.087312 -0.131893 0.148858 0.024606 0.131503 -0.073387 0.013228 -0.128186 0.027690 0.016390 -0.143684 -0.016778 0.103711 0.044969 -0.020852 -0.091762 -0.045237 -0.045958 -0.028406 -0.054134 -0.232270 -0.004689 0.111662 0.004671 0.206201 -0.070230 0.035327 -0.015463 0.109625 0.295433 -0.068138 -0.179481 -0.072216 0.196962 0.135106 0.059357 -0.191992 -0.056597 -0.210019 0.145858 0.115107 -0.061277 -0.357667 0.111597 0.077818 0.091031 0.357825 -0.179445 -0.343091 0.140502 -0.251163 0.003977 -0.098789 -0.116524 0.100470 -0.029468 -0.090420 -0.325512 -0.056668 -0.103819 0.269828 -0.458264 -0.004751 0.270267 -0.133716 -0.162047 0.113590 -0.140384 -0.116952 0.030158 0.136905 -0.073914 0.002904 0.067399 -0.139166 -0.113413 0.104627 0.065739 0.018819 -0.165433 0.274912 0.191998 -0.003241 0.240524 -0.054346 -0.201149 -0.224395 0.190022 
aPurnamritaSarkar 0.294717 0.199281 0.018871 -0.029099 0.035313 0.140271 0.128015 -0.158435 0.007084 0.214772 -0.038516 0.254310 0.003326 -0.015106 0.109988 -0.011235 0.180584 -0.255464 -0.015977 -0.069899 0.101546 0.096273 0.158217 -0.035821 -0.094236 -0.285073 -0.112482 0.031769 0.160761 0.104844 0.064669 -0.098385 -0.047114 0.093508 -0.021216 -0.047854 -0.068150 -0.084588 0.009532 0.034998 -0.065817 -0.201035 0.127783 0.002619 0.114372 -0.101472 0.095918 -0.150792 0.026565 0.047350 -0.138526 -0.103827 0.161674 0.092512 -0.035375 0.003032 -0.029337 -0.078750 -0.101262 -0.002288 -0.497426 0.025079 0.137313 -0.020981 0.219802 -0.044029 0.057835 0.053375 0.119456 0.174224 -0.042712 -0.118975 -0.094996 0.098605 0.160076 0.064538 -0.165330 -0.068937 -0.139295 0.100252 0.060093 -0.127290 -0.384390 0.057061 0.003523 0.066538 0.183211 -0.054782 -0.404648 0.041914 -0.171960 -0.061741 -0.096509 -0.167562 0.142232 0.019365 -0.026186 -0.165865 -0.059345 -0.044086 0.181247 -0.490460 0.089718 0.315663 -0.096954 -0.034837 0.086672 0.006299 -0.074174 0.036175 0.109178 -0.084922 -0.057393 0.005232 -0.099614 -0.060947 0.173690 0.038991 -0.018594 -0.231731 0.220161 0.094030 -0.087405 0.114772 -0.017739 -0.170614 -0.173755 0.090515 
aMilindR.Naphade 0.061517 0.044741 0.043295 0.053616 0.106628 0.086555 0.083542 -0.116388 -0.075055 0.226690 -0.059645 0.121406 -0.053446 -0.167723 0.002826 -0.104248 -0.061491 -0.173266 0.033193 0.068280 0.141270 -0.061443 0.105412 -0.066511 -0.150242 -0.277996 0.014794 0.054201 0.080886 0.026488 0.059993 -0.014312 -0.010357 0.145385 0.038345 0.056196 0.015355 -0.017649 0.089741 0.053179 -0.098087 -0.136516 0.140430 0.017684 0.097775 -0.096611 -0.014073 -0.104288 0.062427 -0.019706 -0.124146 -0.003900 0.081793 0.037065 -0.032951 -0.112182 0.003721 -0.027209 -0.042668 -0.057018 -0.242550 -0.023577 0.055790 -0.054982 0.235276 -0.084521 0.052140 0.029508 0.080313 0.219212 -0.074507 -0.155625 -0.063522 0.182409 0.209854 0.099274 -0.160541 -0.017690 -0.211942 0.172810 0.120478 -0.057057 -0.465703 0.152046 0.054371 0.086515 0.371983 -0.157453 -0.301614 0.128566 -0.284691 0.043540 -0.092803 -0.148816 0.157906 0.022911 -0.076183 -0.261778 0.007200 -0.116879 0.291017 -0.530415 0.051425 0.339611 -0.111592 -0.166064 0.079584 -0.121730 -0.128758 -0.029145 0.161628 -0.090219 0.027328 0.131088 -0.128707 -0.088828 0.110181 0.089398 0.004355 -0.202169 0.082495 0.065196 0.020143 0.124679 -0.037552 -0.212151 -0.199224 0.209576 
aDavidM.Blei 0.010223 0.031053 0.028769 0.048775 0.172385 0.126871 0.061011 -0.098931 -0.070522 0.090678 -0.032525 0.053323 -0.112023 -0.267986 0.060691 -0.204600 -0.059897 -0.079566 -0.024500 0.081143 0.180087 -0.048463 0.146282 -0.120659 -0.110222 -0.220934 0.038178 0.068768 0.115100 0.064627 0.115772 -0.092128 -0.035681 0.153320 -0.001786 0.102038 -0.039654 0.011944 0.092250 0.075613 -0.092895 -0.128503 0.137470 0.042853 0.096974 -0.082282 0.009026 -0.061334 0.039264 0.037724 -0.129635 0.005738 0.076827 0.035464 -0.022407 -0.105147 -0.019081 -0.060074 -0.067195 -0.039332 -0.217097 -0.061398 0.041852 -0.074510 0.293876 -0.079661 0.003536 0.006986 0.061543 0.247577 -0.051764 -0.173970 -0.033110 0.149353 0.169758 0.071486 -0.150695 -0.022153 -0.178201 0.162840 0.125551 -0.063869 -0.386086 0.150451 0.051505 0.094743 0.373321 -0.139254 -0.277469 0.099054 -0.293615 0.035981 -0.106538 -0.170883 0.151231 0.010436 -0.080054 -0.278600 -0.009248 -0.195329 0.290224 -0.553979 0.036661 0.334200 -0.120215 -0.130208 0.111108 -0.107520 -0.103937 -0.087076 0.138884 -0.063747 0.026490 0.052539 -0.059046 -0.162303 0.085615 0.072530 -0.032249 -0.203489 0.161348 0.109651 0.020392 0.183517 -0.074909 -0.167419 -0.234798 0.199281 
aJinLi 0.219630 0.176006 0.069524 -0.100710 0.176621 0.184349 0.078397 -0.102764 0.037384 0.254864 -0.067618 0.286906 -0.008888 -0.104892 0.117048 -0.120045 0.268122 -0.331995 0.100477 -0.137616 0.232846 0.002787 0.324036 -0.053735 -0.073776 -0.332305 -0.154687 0.022837 0.149601 0.114419 0.117131 -0.068306 -0.075589 0.150119 -0.041564 0.131649 -0.066294 0.059093 0.107838 0.169061 -0.130301 -0.235853 0.176905 0.043370 0.045379 -0.083301 0.105136 -0.112426 -0.034029 0.021722 -0.058768 -0.048914 0.152017 0.074837 -0.070047 -0.070379 0.066268 -0.076478 -0.191480 -0.000366 -0.493651 -0.149503 0.117166 -0.148777 0.292910 0.015331 -0.020796 0.052478 -0.009138 0.049041 0.001743 -0.118799 -0.019271 0.112180 0.198757 0.027961 -0.176851 -0.076930 -0.150400 0.106047 0.035339 -0.094722 -0.189551 0.104069 -0.040641 0.008245 0.260324 -0.128083 -0.434986 0.017790 -0.254990 -0.025472 -0.077059 -0.210453 0.115587 0.086091 0.033935 -0.081001 -0.037633 0.093744 0.199459 -0.448726 0.036751 0.289797 -0.091265 -0.149009 0.143156 -0.016465 -0.015389 -0.169132 0.120018 -0.108962 0.015228 0.016741 0.002827 -0.089178 0.141791 0.103557 -0.207133 -0.177318 0.215936 0.112067 0.013133 0.209261 -0.063999 -0.133706 -0.180342 0.295307 
